
#include <eml_net.h>
static const float prediction_next_solar_layer_0_biases[48] = { -0.110244f, 0.055756f, -0.008991f, -0.049019f, -0.037053f, -0.099181f, -0.091229f, -0.182685f, -0.013450f, -0.013384f, -0.049736f, -0.043259f, -0.048001f, -0.054790f, -0.026402f, 0.065253f, -0.100832f, 0.108689f, -0.061630f, 0.073065f, 0.062779f, 0.072204f, -0.118517f, -0.036899f, 0.104378f, 0.095867f, 0.058710f, -0.031282f, -0.041363f, 0.023232f, -0.046401f, -0.119210f, -0.065736f, -0.087607f, -0.057653f, -0.092553f, 0.027102f, 0.020805f, 0.011455f, 0.104275f, 0.041639f, 0.028842f, 0.045131f, -0.118696f, -0.006059f, -0.029363f, -0.013475f, 0.018713f };
static const float prediction_next_solar_layer_0_weights[240] = { -0.009436f, 0.242707f, 0.146469f, -0.356243f, 0.078396f, -0.158376f, -0.023305f, -0.451828f, -0.448587f, -0.087884f, -0.180933f, -0.072301f, -0.177707f, 0.152908f, 0.050201f, -0.145966f, -0.407038f, 0.363580f, -0.146704f, 0.323889f, 0.236984f, 0.161441f, -0.126579f, -0.034616f, 0.050777f, 0.158410f, 0.157793f, -0.061876f, -0.279388f, 0.311159f, -0.297438f, -0.367116f, -0.080903f, -0.256923f, -0.249171f, 0.052298f, 0.080603f, -0.080091f, 0.208731f, -0.068494f, 0.206514f, 0.287356f, 0.083421f, 0.179685f, 0.230176f, 0.271282f, -0.081884f, -0.101784f, 0.300643f, 0.245166f, 0.200961f, 0.029775f, -0.253778f, -0.025441f, -0.069113f, 0.017217f, 0.049263f, -0.083952f, 0.031027f, -0.294069f, -0.119361f, 0.094429f, -0.159531f, 0.190176f, 0.202529f, 0.114349f, -0.081082f, -0.268395f, -0.047684f, 0.159203f, 0.288867f, 0.054689f, -0.013273f, 0.036871f, -0.037009f, -0.274200f, 0.060773f, 0.127512f, 0.123980f, -0.047374f, -0.309887f, -0.018423f, -0.141149f, 0.047138f, -0.111751f, 0.236133f, 0.035469f, -0.112063f, -0.046205f, 0.151291f, 0.015231f, 0.155985f, 0.072312f, -0.039172f, -0.017987f, -0.003851f, 0.348032f, -0.444913f, 0.461177f, 0.198303f, 0.218959f, 0.337156f, -0.048972f, 0.123625f, -0.454682f, 0.372943f, 0.341227f, -0.362705f, -0.596897f, 0.255363f, -0.429150f, -0.818681f, -0.151665f, -0.316293f, 0.203376f, -0.382508f, -0.165312f, -0.329269f, 0.272927f, 0.288443f, -0.262216f, -0.111777f, -0.216401f, -0.036088f, 0.144973f, -0.111615f, -0.235638f, -0.436582f, 0.104596f, 0.162167f, 0.331003f, 0.030095f, -0.216279f, -0.316463f, -0.284998f, -0.068084f, -0.044219f, 0.366165f, -0.005125f, 0.302915f, -0.352282f, 0.283503f, 0.391381f, -0.944702f, 0.057338f, -0.379393f, -0.083264f, 0.243103f, 0.010876f, -0.083952f, -0.194385f, -0.014123f, 0.058045f, 0.138675f, -0.324412f, 0.038006f, 0.118486f, -0.001127f, -0.098976f, 0.135006f, -0.206775f, -0.254801f, -0.030968f, 0.095642f, 0.000350f, -0.155334f, -0.054902f, 0.222134f, -0.098480f, 0.304029f, 0.219701f, -0.054139f, -0.088505f, 0.251158f, -0.073057f, -0.192229f, 0.275236f, -0.156549f, 0.102606f, 0.253537f, 0.073093f, 0.096287f, 0.195849f, 0.353642f, 0.174289f, 0.069438f, -0.136548f, -0.193950f, 0.271271f, 0.046857f, -0.055446f, 0.021132f, -0.215075f, -0.297502f, -0.225855f, 0.029984f, -0.334929f, 0.124517f, -0.181380f, 0.014169f, -0.180462f, 0.265009f, 0.160158f, -0.186453f, -0.018452f, 0.088028f, -0.095455f, 0.103348f, 0.055353f, 0.092043f, -0.287613f, 0.057674f, -0.220100f, 0.259142f, -0.198225f, -0.035890f, 0.058690f, -0.235224f, 0.197144f, 0.084581f, -0.066808f, 0.206566f, -0.112042f, -0.252502f, 0.061845f, -0.236619f, 0.290314f, 0.063861f, 0.228348f, -0.129213f, -0.007453f, -0.118517f, -0.035307f, -0.040552f, -0.000215f, -0.036441f, -0.323472f, 0.211499f, -0.017947f, 0.012668f };
static const float prediction_next_solar_layer_1_biases[80] = { 0.072572f, 0.046952f, -0.059055f, 0.104916f, -0.083345f, 0.000259f, 0.025036f, -0.053588f, 0.081800f, -0.031407f, -0.052533f, -0.097580f, 0.080175f, 0.037009f, -0.108742f, 0.087371f, -0.029938f, 0.037588f, 0.077469f, -0.021911f, 0.015093f, 0.120190f, 0.005668f, 0.100689f, -0.134711f, 0.087829f, 0.024860f, 0.126986f, -0.059734f, -0.046132f, 0.124308f, -0.027684f, -0.102780f, -0.049206f, -0.096913f, -0.068399f, -0.066256f, -0.098816f, -0.147093f, -0.002101f, 0.015644f, 0.107394f, -0.046091f, 0.037738f, 0.078338f, -0.018331f, -0.154834f, 0.102657f, -0.066748f, 0.079221f, 0.070732f, -0.049063f, -0.145819f, 0.075217f, 0.105198f, -0.065460f, 0.094182f, -0.045798f, -0.066922f, 0.010895f, -0.072544f, 0.064216f, 0.100249f, 0.077112f, 0.093329f, -0.056737f, 0.083585f, -0.077584f, 0.075206f, -0.007011f, 0.104788f, 0.172791f, 0.072293f, 0.035912f, 0.129426f, -0.008975f, -0.206051f, -0.029082f, 0.051632f, 0.073283f };
static const float prediction_next_solar_layer_1_weights[3840] = { 0.094454f, 0.116342f, -0.186728f, 0.015153f, -0.123427f, -0.180072f, -0.143092f, -0.198299f, 0.191218f, -0.070549f, -0.278842f, 0.017210f, -0.037719f, 0.127234f, 0.185655f, -0.197325f, -0.131084f, -0.138274f, -0.206008f, 0.151801f, -0.019800f, -0.222290f, -0.026487f, 0.031049f, 0.254133f, -0.149369f, -0.212958f, -0.042574f, -0.003927f, 0.126406f, 0.008535f, -0.034454f, 0.020594f, -0.233533f, 0.209360f, -0.253767f, -0.125009f, 0.108738f, -0.124361f, 0.106642f, 0.041707f, -0.154904f, -0.023733f, 0.056289f, -0.207620f, -0.133434f, 0.175704f, -0.096293f, 0.119943f, -0.156778f, -0.009430f, -0.036176f, 0.120298f, -0.210268f, 0.116336f, 0.297159f, 0.062042f, -0.211123f, -0.058897f, -0.100281f, -0.065500f, -0.063159f, 0.057090f, -0.091041f, -0.190877f, -0.272053f, -0.282332f, 0.202768f, -0.250982f, -0.212906f, -0.220462f, -0.221433f, -0.204552f, -0.293381f, -0.098421f, 0.120755f, 0.280768f, -0.027010f, 0.055404f, 0.112120f, -0.231665f, 0.030016f, -0.163105f, -0.005114f, -0.244515f, 0.128101f, 0.064924f, 0.102812f, -0.034908f, -0.033546f, 0.139983f, 0.086391f, 0.079435f, 0.109861f, 0.007274f, 0.128189f, 0.073587f, 0.171478f, 0.168788f, 0.059182f, -0.130624f, -0.139184f, -0.230026f, -0.002196f, 0.011869f, 0.220038f, -0.184253f, -0.092912f, -0.189121f, 0.166279f, 0.174103f, 0.133178f, -0.072697f, 0.238606f, 0.101046f, -0.130042f, 0.096822f, -0.069886f, 0.000331f, 0.025030f, -0.050287f, 0.211369f, -0.107115f, 0.027606f, -0.037660f, 0.162522f, -0.083551f, 0.135718f, -0.113822f, -0.047050f, 0.164842f, 0.038654f, 0.044269f, -0.148795f, 0.203957f, -0.104356f, 0.075747f, -0.178460f, -0.026219f, -0.052685f, -0.186955f, -0.139039f, 0.088458f, 0.174694f, 0.128931f, 0.004134f, -0.102682f, -0.199100f, 0.232800f, 0.028915f, 0.106933f, 0.211822f, 0.004613f, 0.040570f, 0.276005f, -0.261591f, 0.037999f, -0.087526f, -0.061970f, 0.086798f, -0.029354f, 0.128895f, 0.194482f, -0.001192f, -0.064254f, 0.123495f, 0.003004f, -0.084558f, 0.151219f, 0.126901f, -0.139812f, -0.325794f, -0.062603f, 0.113983f, -0.075454f, -0.137115f, -0.212586f, 0.035594f, -0.283610f, -0.031695f, 0.170203f, 0.089557f, 0.007056f, -0.113636f, 0.059863f, -0.050725f, -0.108206f, -0.156027f, 0.049436f, 0.114394f, -0.219972f, 0.158294f, 0.180806f, -0.230163f, -0.163617f, -0.103990f, 0.015490f, 0.150785f, -0.063490f, -0.162013f, -0.150710f, -0.075825f, -0.100700f, 0.049402f, -0.035581f, -0.003916f, 0.041885f, -0.002623f, -0.015577f, 0.001760f, -0.108608f, -0.142140f, 0.037072f, 0.177343f, -0.133760f, 0.247685f, -0.186122f, 0.000395f, -0.015784f, -0.177178f, 0.083245f, -0.048563f, -0.044509f, 0.154487f, -0.345304f, 0.031900f, -0.002414f, -0.106375f, 0.025242f, -0.147200f, -0.199428f, 0.015740f, -0.034164f, -0.260531f, -0.044409f, -0.313432f, 0.036377f, 0.137131f, -0.202998f, -0.112396f, 0.071765f, -0.202348f, 0.192565f, -0.298172f, 0.126227f, -0.088713f, -0.148960f, 0.016628f, -0.294433f, 0.002885f, -0.029299f, -0.076170f, 0.120260f, -0.051887f, 0.147490f, 0.131822f, -0.197033f, 0.090721f, 0.060936f, 0.194234f, -0.077306f, 0.005881f, -0.408639f, 0.058814f, -0.258867f, 0.069766f, -0.251010f, -0.245502f, 0.200417f, -0.056352f, -0.032442f, -0.164832f, 0.204460f, -0.181310f, 0.093583f, -0.187312f, -0.020269f, 0.030701f, 0.192385f, -0.144860f, 0.280933f, -0.103673f, -0.140313f, -0.291995f, -0.102421f, -0.001690f, 0.029061f, -0.041585f, 0.234572f, 0.222709f, -0.216381f, 0.118488f, -0.119598f, 0.045255f, -0.182338f, 0.172999f, -0.123328f, 0.060143f, -0.058094f, 0.025049f, 0.175497f, 0.063221f, -0.051725f, -0.485412f, 0.014922f, 0.191386f, -0.331655f, 0.009270f, 0.088548f, -0.279879f, -0.095642f, -0.195822f, -0.032418f, -0.237881f, 0.010051f, 0.241245f, 0.054357f, -0.101474f, -0.331873f, -0.029161f, -0.007124f, -0.263755f, -0.118488f, 0.143919f, -0.245219f, 0.002858f, 0.250563f, -0.057986f, -0.120498f, 0.104179f, 0.270280f, 0.005336f, -0.025463f, 0.083582f, -0.179164f, -0.015798f, -0.165532f, 0.105508f, -0.113762f, -0.138357f, -0.290886f, -0.206032f, 0.100768f, -0.133486f, -0.041829f, 0.186579f, -0.333426f, 0.164699f, 0.254932f, -0.066745f, -0.088024f, 0.213045f, 0.182097f, -0.058507f, 0.104173f, -0.106059f, 0.164838f, 0.048761f, 0.042449f, -0.151792f, 0.014882f, -0.023944f, -0.080461f, -0.147521f, -0.165019f, -0.197910f, -0.017587f, -0.061834f, 0.037704f, 0.206591f, -0.204016f, -0.069072f, -0.006823f, 0.174538f, 0.055076f, -0.050741f, 0.082297f, 0.024916f, -0.099731f, -0.050135f, 0.176486f, 0.013319f, 0.095425f, 0.044405f, -0.178645f, 0.067115f, 0.163891f, 0.178921f, 0.106779f, 0.147428f, 0.039286f, -0.077341f, 0.099748f, 0.127016f, 0.015164f, 0.203435f, 0.035794f, 0.008088f, 0.174037f, -0.103877f, -0.158149f, -0.097744f, 0.184941f, 0.170829f, 0.062250f, 0.015727f, 0.017032f, 0.129192f, 0.148099f, -0.105840f, 0.025815f, 0.018992f, -0.003587f, 0.151308f, -0.101166f, -0.053479f, -0.059975f, 0.192966f, -0.264491f, -0.097372f, -0.304356f, 0.101845f, 0.007463f, -0.269950f, 0.225771f, 0.107027f, 0.061701f, -0.192612f, 0.213564f, -0.198674f, 0.154803f, 0.063677f, 0.028130f, -0.338848f, -0.017765f, 0.142695f, -0.238073f, 0.039831f, 0.256164f, -0.117370f, -0.045499f, -0.121427f, 0.188763f, 0.100830f, -0.138684f, 0.075134f, 0.101723f, -0.100057f, 0.148533f, 0.067479f, -0.093166f, -0.136992f, 0.051501f, 0.093143f, -0.155960f, 0.093661f, 0.165955f, 0.198452f, 0.090923f, -0.080498f, -0.024111f, -0.077748f, -0.243633f, -0.040880f, 0.086224f, 0.055508f, -0.071136f, 0.105413f, 0.097994f, -0.192628f, -0.122397f, 0.091552f, -0.155643f, -0.140539f, -0.224470f, 0.153915f, -0.054536f, -0.423919f, -0.075278f, -0.162803f, 0.210501f, 0.001655f, 0.111904f, -0.098074f, -0.218289f, -0.003595f, 0.160985f, -0.003716f, -0.021139f, -0.227085f, 0.075251f, -0.000762f, -0.134588f, 0.034536f, 0.033593f, 0.128047f, -0.238279f, 0.097717f, -0.129879f, 0.121901f, -0.213193f, -0.121536f, 0.110371f, 0.179979f, -0.183584f, -0.165302f, -0.025901f, -0.078695f, -0.095071f, -0.204735f, -0.157791f, -0.004247f, -0.076808f, 0.006178f, 0.115235f, -0.080606f, 0.097399f, -0.174667f, 0.018365f, -0.107341f, 0.063673f, -0.011624f, 0.139798f, 0.158214f, -0.047261f, -0.046750f, -0.200509f, -0.137806f, -0.074595f, -0.140425f, 0.078876f, -0.020697f, -0.036891f, 0.213158f, -0.091625f, 0.110532f, 0.011031f, -0.132007f, 0.205306f, 0.256021f, -0.134695f, 0.180687f, -0.101341f, 0.039941f, 0.295498f, 0.070404f, 0.028090f, 0.085521f, -0.111977f, -0.073854f, 0.027330f, -0.003749f, 0.025036f, -0.179442f, 0.156904f, -0.099392f, 0.148842f, -0.154829f, 0.205013f, 0.152481f, 0.136626f, 0.050155f, -0.074229f, -0.453079f, 0.680454f, 0.067392f, -0.216636f, -0.031632f, -0.237993f, -0.158234f, 0.436782f, 0.503609f, -0.051317f, -0.349236f, 0.650441f, -0.230399f, 0.097118f, -0.195837f, -0.154618f, -0.115718f, 0.327009f, -0.290677f, -0.132705f, -0.102915f, 0.173551f, -0.443645f, -0.247880f, -0.446423f, 0.230192f, 0.075860f, -0.274636f, -0.243829f, -0.014433f, -0.070755f, -0.090570f, 0.242459f, 0.112394f, 0.198136f, 0.473958f, -0.173784f, -0.158494f, 0.029765f, 0.096930f, 0.079118f, 0.124316f, -0.013193f, -0.083633f, -0.047739f, 0.358131f, 0.039597f, -0.230213f, 0.273570f, 0.066919f, -0.337055f, -0.425464f, 0.424583f, -0.307752f, 0.264821f, 0.190702f, 0.683639f, 0.658251f, 0.492241f, -0.225538f, -0.184976f, -0.197836f, 0.077041f, -0.750209f, 0.198184f, -0.126512f, -0.186711f, -0.405550f, -0.249871f, -0.146147f, -0.056291f, -0.267649f, 0.404776f, -0.038460f, -0.027670f, -0.035880f, -0.191838f, 0.135558f, 0.299121f, -0.267764f, -0.280749f, 0.198771f, -0.244158f, -0.086346f, -0.180402f, -0.079962f, -0.018969f, 0.246972f, 0.116483f, -0.112576f, 0.045262f, 0.336818f, -0.014836f, 0.089157f, -0.008588f, -0.074027f, -0.146382f, 0.005259f, -0.132215f, -0.386932f, -0.101329f, -0.097811f, -0.095451f, -0.526733f, -0.013788f, 0.134029f, -0.165018f, -0.024927f, 0.024877f, -0.148378f, 0.234004f, 0.234950f, 0.256591f, 0.254518f, -0.048576f, 0.269023f, 0.081209f, 0.209249f, -0.152306f, 0.165858f, 0.127747f, -0.021776f, -0.117703f, -0.074965f, -0.254562f, 0.142343f, 0.000494f, 0.251046f, 0.065130f, 0.087028f, -0.045984f, -0.232866f, 0.053482f, 0.049416f, 0.089905f, 0.090959f, 0.106960f, 0.057592f, 0.251459f, -0.249486f, -0.256717f, -0.175196f, 0.068145f, -0.362574f, 0.093680f, -0.130366f, -0.233234f, -0.086219f, -0.171060f, -0.095472f, 0.002791f, 0.054599f, -0.028390f, -0.010676f, 0.075869f, -0.132064f, -0.111367f, -0.320619f, -0.283223f, 0.093887f, -0.126755f, -0.144500f, 0.034680f, 0.084049f, -0.130510f, -0.039908f, 0.047044f, 0.061491f, 0.018532f, 0.011010f, -0.179787f, 0.050077f, -0.176558f, -0.023489f, 0.020059f, 0.012688f, -0.099468f, -0.133259f, -0.060730f, 0.067996f, -0.102151f, 0.143391f, -0.232946f, -0.021114f, -0.062315f, 0.181390f, -0.113033f, 0.190239f, 0.090581f, 0.223537f, -0.159464f, -0.241440f, -0.203451f, 0.134549f, -0.025221f, 0.195997f, -0.063615f, -0.101376f, -0.193918f, -0.147131f, -0.313869f, -0.059817f, -0.102179f, -0.078605f, -0.208097f, 0.019269f, -0.230665f, -0.053362f, 0.079654f, 0.185806f, 0.168854f, -0.095214f, 0.009301f, 0.147639f, -0.157179f, 0.197753f, -0.224579f, -0.068158f, -0.029550f, -0.032073f, -0.104430f, -0.141513f, -0.122760f, -0.455895f, 0.287111f, -0.069541f, 0.083468f, -0.121430f, 0.108775f, -0.174686f, -0.236965f, -0.013482f, -0.215979f, 0.039612f, 0.019365f, -0.025313f, 0.164264f, 0.140674f, -0.106352f, 0.016221f, 0.049191f, 0.277795f, -0.205853f, 0.019232f, -0.184944f, 0.149070f, 0.091240f, 0.166273f, -0.112270f, -0.124152f, 0.014730f, 0.116071f, -0.037000f, -0.208542f, 0.047805f, 0.081737f, 0.087538f, 0.029510f, -0.240819f, -0.024139f, 0.163716f, 0.120219f, -0.035625f, 0.066797f, 0.238724f, 0.231399f, -0.139619f, -0.059908f, -0.139082f, 0.064296f, -0.080232f, 0.131756f, 0.148051f, -0.290572f, -0.079846f, 0.096333f, 0.176034f, 0.042046f, 0.145853f, -0.104437f, -0.095541f, -0.256887f, -0.038017f, 0.251738f, -0.250353f, 0.132988f, -0.345093f, 0.105620f, -0.135105f, 0.174955f, 0.161072f, 0.053043f, -0.038577f, -0.069860f, 0.153955f, -0.084596f, 0.179705f, 0.191364f, 0.068755f, 0.087648f, -0.258207f, -0.048297f, -0.248795f, 0.117534f, 0.064014f, -0.144460f, 0.035491f, 0.057422f, -0.054125f, -0.096994f, -0.037263f, -0.151944f, -0.119641f, 0.144282f, -0.056671f, -0.039747f, -0.038889f, 0.180192f, -0.297928f, -0.151085f, 0.197889f, -0.201118f, -0.032975f, 0.210785f, 0.155706f, 0.083498f, 0.102110f, -0.183960f, 0.043383f, 0.046767f, -0.052486f, 0.030691f, 0.160939f, 0.122671f, -0.017295f, -0.078632f, 0.087107f, 0.049968f, 0.091560f, 0.111405f, -0.237229f, 0.216363f, 0.029894f, -0.057858f, -0.111844f, -0.232026f, -0.057017f, 0.141338f, 0.129356f, -0.179940f, 0.224140f, -0.434771f, 0.109057f, -0.155645f, 0.071922f, 0.264745f, 0.096038f, -0.144503f, -0.102226f, 0.145212f, -0.077915f, 0.094786f, 0.039673f, -0.213972f, 0.059731f, 0.303520f, 0.305608f, -0.034899f, -0.048338f, 0.028385f, 0.005566f, 0.182533f, 0.213242f, -0.032506f, -0.057521f, 0.276767f, 0.170294f, 0.191909f, 0.074542f, 0.158826f, 0.223158f, 0.059315f, -0.133539f, 0.303968f, 0.015502f, 0.141846f, 0.235918f, -0.165957f, 0.167272f, 0.174472f, 0.264410f, -0.092068f, -0.051320f, -0.298860f, 0.130986f, 0.154147f, 0.133647f, 0.125327f, 0.138696f, -0.251877f, -0.171226f, 0.178094f, -0.097492f, 0.211334f, -0.008949f, 0.046980f, -0.188695f, 0.122377f, 0.300385f, 0.123468f, 0.072975f, 0.014879f, -0.217715f, 0.225503f, -0.061011f, -0.043643f, -0.084010f, 0.143821f, -0.197201f, 0.025767f, -0.061452f, 0.277836f, -0.285487f, -0.362468f, 0.010219f, -0.072024f, 0.130202f, -0.069842f, 0.005633f, -0.037049f, 0.375089f, -0.043486f, 0.326545f, 0.006788f, -0.008346f, 0.279241f, -0.012511f, -0.274752f, -0.313765f, 0.009520f, -0.015783f, -0.147542f, -0.243011f, -0.244304f, -0.065011f, -0.170363f, -0.243169f, -0.132352f, -0.152032f, 0.127219f, -0.304214f, -0.247732f, -0.042303f, -0.365650f, 0.202001f, 0.213365f, 0.312091f, -0.096105f, 0.156300f, -0.230873f, 0.238880f, -0.236711f, -0.121742f, -0.049428f, -0.024583f, 0.104273f, -0.038934f, 0.125022f, -0.219477f, -0.298533f, 0.174587f, -0.271571f, -0.056514f, 0.092256f, -0.179529f, -0.138997f, -0.164536f, -0.139396f, -0.236947f, 0.093552f, -0.065212f, 0.117291f, 0.166955f, 0.182544f, -0.117791f, -0.076777f, 0.012540f, -0.024120f, 0.132910f, -0.080461f, -0.196886f, -0.383763f, -0.012340f, -0.177125f, -0.047590f, -0.154287f, -0.093772f, -0.215432f, 0.116514f, 0.085751f, -0.183176f, 0.071907f, 0.032745f, -0.095535f, 0.125273f, -0.076541f, -0.095362f, 0.006775f, -0.190714f, -0.108780f, -0.252341f, 0.096335f, -0.210811f, -0.086240f, 0.160508f, -0.123753f, 0.040975f, -0.231587f, 0.180870f, -0.192732f, 0.101696f, 0.058066f, 0.083965f, 0.150630f, 0.080384f, 0.183170f, -0.062308f, 0.039794f, -0.185021f, 0.038359f, -0.121518f, -0.042956f, -0.077334f, -0.169333f, -0.014907f, 0.186819f, -0.358404f, 0.153795f, -0.137180f, 0.025334f, 0.197781f, 0.193155f, -0.196762f, -0.343202f, -0.145338f, -0.055637f, -0.215538f, 0.205149f, -0.119914f, 0.077699f, -0.111308f, -0.147987f, -0.057082f, 0.034668f, -0.153297f, -0.126545f, -0.119180f, -0.104843f, 0.164877f, -0.184517f, -0.003064f, -0.113626f, -0.146370f, 0.254486f, -0.021034f, 0.284189f, 0.092240f, -0.016526f, 0.118053f, 0.051630f, 0.183709f, 0.162663f, 0.048353f, -0.183458f, 0.220298f, 0.105774f, -0.024728f, -0.079826f, -0.035197f, 0.098558f, 0.075709f, 0.010198f, 0.060450f, 0.257526f, 0.294999f, -0.250774f, -0.120110f, 0.285561f, 0.050824f, 0.155917f, 0.304142f, -0.219571f, 0.033834f, 0.241057f, -0.083776f, 0.158288f, 0.151988f, 0.185729f, 0.158131f, -0.101073f, -0.042040f, -0.020293f, -0.076022f, -0.391277f, 0.130737f, 0.050796f, 0.089047f, 0.020467f, -0.006329f, -0.011921f, 0.161608f, 0.029378f, -0.192371f, -0.162293f, 0.190242f, -0.002556f, 0.069747f, -0.136251f, -0.090176f, -0.068669f, 0.217267f, 0.162038f, 0.040116f, -0.087677f, 0.161944f, 0.217339f, 0.033384f, 0.130446f, 0.059318f, -0.096680f, 0.093589f, 0.036143f, -0.112996f, -0.023390f, -0.056486f, -0.038673f, -0.053697f, 0.039107f, -0.014936f, -0.099108f, -0.087379f, -0.152188f, 0.036615f, -0.172288f, 0.112028f, 0.183085f, 0.164748f, 0.211838f, 0.301623f, 0.153704f, 0.100476f, -0.004341f, 0.132411f, 0.144770f, -0.010042f, -0.066234f, -0.016096f, 0.096120f, -0.066797f, 0.129910f, 0.236145f, -0.064808f, 0.216004f, 0.159493f, -0.015173f, -0.165199f, -0.078503f, -0.082860f, -0.112800f, -0.409164f, 0.423279f, -0.100422f, 0.386042f, -0.041825f, 0.047795f, 0.035758f, 0.242095f, 0.181221f, -0.059703f, -0.173711f, -0.037627f, 0.176847f, -0.077970f, -0.234578f, 0.050940f, -0.278196f, 0.043348f, 0.120597f, 0.024995f, 0.214495f, 0.085559f, 0.121533f, -0.226529f, -0.239255f, -0.453626f, 0.111451f, 0.081192f, -0.060922f, -0.046634f, -0.075054f, -0.335654f, 0.062779f, 0.135931f, -0.148172f, 0.000473f, -0.103560f, -0.328183f, 0.022043f, 0.000074f, 0.089139f, -0.513513f, -0.135045f, -0.189384f, -0.472719f, 0.084986f, -0.011770f, -0.057456f, 0.306084f, 0.175660f, 0.029446f, 0.336594f, 0.209148f, -0.108902f, -0.258811f, -0.204917f, -0.120555f, -0.191194f, 0.089003f, 0.224098f, 0.027928f, -0.029298f, 0.051329f, -0.126792f, 0.138590f, -0.107743f, -0.043144f, -0.220170f, -0.032439f, 0.101166f, 0.115293f, 0.104943f, 0.242498f, -0.109168f, 0.164479f, -0.233126f, 0.139564f, -0.147300f, 0.184456f, -0.048832f, -0.081443f, 0.018356f, 0.128739f, 0.402073f, -0.185686f, 0.068908f, 0.310784f, -0.109009f, -0.034474f, -0.061437f, 0.139962f, -0.076441f, 0.251789f, 0.203100f, -0.067185f, 0.045730f, -0.026288f, 0.018794f, 0.088108f, 0.348058f, 0.018194f, -0.318502f, 0.044857f, 0.185807f, -0.039449f, -0.003214f, 0.278341f, 0.166856f, 0.123982f, 0.314927f, -0.001340f, 0.093833f, -0.099993f, 0.081974f, 0.200346f, 0.134991f, 0.099746f, 0.215902f, -0.183007f, -0.129024f, 0.051120f, -0.250240f, -0.202263f, 0.048639f, -0.272826f, -0.041713f, 0.098075f, 0.134293f, -0.113702f, -0.065665f, 0.057250f, 0.241807f, -0.159187f, 0.053637f, 0.001726f, -0.225275f, 0.000869f, -0.225995f, -0.141374f, -0.051274f, -0.060749f, 0.051519f, -0.069093f, 0.112878f, 0.039060f, -0.090759f, 0.214170f, 0.091185f, 0.065145f, -0.117175f, 0.037964f, 0.082669f, 0.074384f, 0.145078f, 0.131727f, -0.009511f, -0.201231f, -0.223522f, 0.087379f, 0.100893f, 0.052289f, -0.004383f, -0.037482f, -0.050358f, -0.010579f, 0.051365f, -0.094653f, 0.255143f, 0.214933f, 0.033968f, 0.166831f, 0.201559f, -0.132952f, 0.004417f, 0.129521f, 0.263643f, -0.088419f, -0.072655f, 0.142355f, -0.166587f, 0.128623f, 0.086370f, 0.179729f, -0.050200f, 0.052248f, 0.072313f, -0.136374f, -0.296529f, -0.189512f, 0.099685f, 0.152303f, -0.151252f, -0.018826f, 0.134607f, -0.087478f, -0.055204f, 0.071395f, 0.050389f, 0.194375f, -0.144136f, -0.026242f, 0.187320f, 0.244945f, -0.282233f, 0.131449f, 0.028873f, 0.182174f, -0.202601f, 0.140772f, 0.123954f, -0.097652f, -0.169679f, -0.013120f, 0.015656f, -0.153499f, -0.103930f, -0.127467f, 0.040355f, 0.081768f, 0.019357f, 0.164515f, 0.000709f, -0.036787f, -0.166386f, 0.020459f, -0.015579f, 0.066432f, -0.048129f, -0.145050f, 0.057587f, -0.056900f, -0.212422f, -0.030262f, 0.015408f, 0.037793f, -0.126411f, 0.013811f, -0.011320f, -0.201648f, 0.000066f, 0.242189f, -0.093172f, 0.014097f, 0.082100f, 0.109081f, 0.094463f, -0.086174f, -0.166793f, -0.044883f, -0.004269f, 0.218573f, -0.128206f, 0.169870f, -0.043970f, 0.254695f, -0.432590f, 0.187571f, 0.057708f, -0.184826f, 0.210006f, 0.111688f, -0.257500f, 0.134696f, -0.070391f, 0.179168f, 0.230817f, -0.051647f, -0.003448f, 0.014683f, -0.004573f, 0.143992f, -0.001499f, -0.301295f, 0.226044f, 0.220418f, 0.096319f, -0.173038f, -0.230769f, 0.090716f, -0.006845f, -0.140263f, -0.187317f, -0.103605f, -0.116108f, 0.149878f, -0.043179f, -0.001475f, 0.124475f, 0.268332f, -0.018694f, -0.096476f, 0.153782f, -0.093931f, -0.177063f, 0.076335f, -0.128231f, 0.189121f, -0.236153f, 0.058239f, 0.261226f, 0.132588f, -0.076276f, -0.312097f, 0.146752f, 0.073217f, 0.024323f, -0.086698f, -0.123114f, 0.186804f, 0.182015f, 0.039222f, 0.226871f, -0.163626f, 0.117679f, -0.176347f, 0.168294f, -0.038148f, 0.073513f, 0.073428f, -0.039790f, -0.177657f, 0.127604f, -0.102355f, 0.101392f, -0.051703f, -0.106180f, -0.023897f, -0.022663f, 0.060592f, -0.055060f, -0.032781f, -0.048773f, -0.032829f, -0.059906f, -0.234124f, -0.067945f, -0.316654f, 0.173073f, -0.078714f, -0.139774f, 0.039091f, 0.245145f, 0.168436f, 0.098849f, 0.239698f, 0.141970f, -0.204447f, -0.049960f, -0.038077f, 0.021823f, 0.116335f, 0.267889f, -0.071119f, 0.101733f, -0.138079f, -0.032079f, -0.044351f, 0.072217f, 0.185497f, -0.022071f, 0.112893f, 0.076082f, 0.249744f, 0.006474f, -0.203465f, 0.060416f, -0.110439f, 0.100118f, 0.065324f, -0.060614f, 0.029968f, -0.039450f, -0.152540f, 0.093495f, -0.096199f, 0.209762f, 0.144929f, -0.147082f, 0.087571f, -0.068918f, 0.109101f, 0.117159f, -0.271057f, 0.071140f, -0.041770f, -0.024225f, 0.088663f, 0.085411f, -0.200567f, 0.188607f, 0.103723f, -0.100700f, 0.191083f, 0.207012f, -0.075172f, 0.074052f, 0.201508f, -0.051573f, -0.037780f, 0.031992f, 0.108189f, -0.040429f, -0.062057f, -0.164892f, 0.020926f, -0.083908f, 0.034181f, -0.181787f, -0.168271f, 0.127289f, -0.192045f, 0.119190f, 0.195002f, 0.164371f, -0.207638f, -0.087435f, -0.234750f, -0.118028f, -0.038057f, -0.009915f, -0.214506f, -0.022044f, 0.074369f, 0.057433f, 0.180341f, 0.058183f, -0.092744f, -0.188067f, 0.034873f, 0.008096f, -0.113903f, 0.154138f, 0.014500f, 0.152017f, 0.191983f, -0.185239f, -0.031010f, 0.097491f, 0.137883f, 0.224270f, 0.015623f, 0.121529f, -0.134748f, -0.226819f, -0.116276f, 0.125775f, 0.230211f, 0.053272f, -0.179657f, 0.354175f, 0.173809f, 0.100723f, 0.209416f, -0.035693f, 0.126532f, -0.051776f, 0.007137f, 0.053307f, 0.000912f, 0.246897f, -0.132855f, 0.005934f, -0.034674f, -0.002441f, 0.274299f, 0.089010f, 0.044180f, 0.031942f, 0.074635f, -0.223871f, 0.156259f, 0.050918f, 0.156855f, 0.274577f, 0.158517f, -0.112891f, 0.043280f, -0.111033f, -0.180451f, 0.155201f, 0.096319f, 0.060779f, -0.061942f, -0.013152f, -0.276132f, -0.130036f, -0.070969f, -0.047822f, 0.003799f, -0.040262f, -0.115183f, 0.154376f, 0.149206f, -0.025041f, 0.013081f, 0.073489f, 0.222909f, 0.015397f, 0.149445f, 0.061234f, -0.002114f, -0.093979f, 0.070319f, 0.046982f, -0.035741f, 0.170802f, 0.145987f, 0.039930f, 0.153700f, -0.018280f, 0.003893f, -0.170951f, -0.105981f, -0.108461f, -0.151845f, -0.164151f, 0.122401f, -0.072683f, 0.089835f, -0.062936f, 0.158489f, 0.098887f, 0.140337f, -0.159294f, 0.034232f, -0.119576f, 0.063639f, -0.041382f, -0.178144f, 0.133268f, -0.098226f, -0.256071f, -0.050124f, -0.000045f, -0.440060f, -0.113300f, -0.225091f, -0.212491f, -0.056741f, -0.066388f, -0.076992f, 0.039849f, 0.102694f, -0.101030f, 0.056449f, -0.151506f, 0.109124f, 0.014535f, 0.038361f, -0.179071f, 0.116503f, -0.090439f, 0.146223f, -0.093682f, -0.197070f, -0.144329f, 0.092824f, 0.106958f, -0.216605f, -0.024731f, 0.265026f, 0.157689f, 0.000871f, -0.156714f, 0.025352f, -0.072970f, 0.175948f, 0.034814f, 0.133759f, 0.018585f, 0.150693f, 0.170350f, -0.171010f, -0.026593f, 0.104627f, 0.106107f, 0.004207f, -0.066276f, 0.175956f, -0.122839f, -0.222144f, -0.296110f, -0.058366f, 0.001359f, -0.289129f, 0.176389f, 0.074185f, 0.213279f, 0.323927f, 0.044872f, -0.045325f, -0.119099f, -0.189126f, 0.098446f, -0.531768f, 0.296344f, 0.110523f, 0.123373f, -0.114944f, -0.024721f, 0.082519f, -0.248226f, -0.186904f, 0.077125f, 0.318261f, 0.124880f, -0.099252f, -0.037183f, -0.189869f, -0.170762f, -0.185058f, -0.067995f, 0.212408f, -0.052305f, -0.252909f, -0.069398f, -0.209219f, 0.119303f, 0.040373f, 0.035359f, -0.026935f, -0.009986f, 0.194762f, -0.179757f, 0.054909f, 0.035716f, -0.256564f, 0.141267f, -0.076438f, -0.040013f, -0.249987f, -0.138399f, 0.147621f, 0.049357f, -0.394942f, 0.173706f, -0.126398f, -0.257846f, -0.178652f, 0.129754f, -0.089884f, -0.237854f, -0.084228f, -0.056205f, -0.327984f, -0.027925f, -0.128401f, -0.358953f, -0.153023f, -0.123098f, 0.184165f, -0.093175f, -0.089326f, -0.023810f, -0.273484f, -0.015257f, -0.060844f, 0.099851f, -0.035918f, -0.017009f, -0.076923f, 0.157076f, 0.048824f, 0.220271f, 0.098535f, -0.223115f, 0.136687f, -0.155342f, 0.281145f, -0.028058f, 0.035075f, -0.250707f, -0.187496f, -0.359474f, -0.362484f, 0.052666f, 0.141801f, -0.116001f, 0.174107f, -0.031604f, -0.093396f, -0.346932f, -0.165270f, 0.100168f, 0.092205f, -0.100905f, -0.069343f, -0.196848f, 0.010570f, 0.263800f, 0.018948f, 0.133386f, 0.005827f, 0.025847f, -0.197458f, -0.039583f, -0.050464f, -0.086114f, -0.219726f, 0.147961f, -0.041409f, -0.009311f, 0.061877f, 0.229103f, 0.124635f, 0.192322f, -0.141857f, -0.026933f, 0.324612f, 0.322277f, 0.008179f, 0.146763f, -0.052971f, 0.124366f, 0.160152f, 0.097883f, -0.170075f, -0.218406f, -0.010987f, 0.027385f, 0.038683f, -0.030681f, -0.018730f, 0.070569f, 0.130836f, -0.042018f, -0.285318f, 0.015833f, 0.088955f, -0.091429f, 0.165204f, 0.033218f, 0.011384f, 0.024240f, -0.036410f, 0.009447f, -0.155652f, 0.000341f, -0.028899f, 0.046397f, -0.225005f, -0.170848f, 0.005547f, 0.070588f, 0.042335f, 0.260551f, 0.138810f, -0.142513f, -0.200667f, 0.198254f, 0.045902f, 0.025753f, 0.120726f, 0.095953f, -0.187747f, -0.106669f, 0.186257f, -0.039419f, 0.072018f, 0.059598f, 0.015402f, 0.201096f, 0.124763f, -0.205928f, -0.117146f, -0.357907f, 0.190622f, -0.218063f, 0.149189f, 0.070797f, -0.149465f, -0.042819f, 0.052759f, -0.093882f, -0.146050f, -0.213675f, 0.137067f, -0.032505f, -0.226581f, 0.155843f, 0.019741f, -0.005449f, -0.124692f, -0.103108f, -0.157061f, 0.176746f, -0.143633f, -0.065595f, 0.215762f, 0.008491f, -0.050340f, -0.136933f, 0.012921f, 0.024975f, -0.007635f, 0.094323f, 0.076701f, -0.155110f, 0.161081f, 0.032632f, -0.180972f, 0.090916f, 0.017483f, -0.125567f, -0.348707f, -0.036057f, -0.009279f, -0.346567f, -0.117873f, 0.133424f, 0.112431f, 0.052359f, 0.049010f, -0.026478f, 0.035005f, -0.110300f, 0.197962f, 0.043808f, -0.026191f, -0.044948f, -0.050808f, -0.009030f, 0.240550f, -0.107792f, -0.016172f, -0.079753f, -0.170073f, -0.061544f, -0.117623f, 0.136566f, 0.222006f, 0.111675f, -0.119527f, -0.305296f, -0.027168f, 0.020065f, 0.187035f, -0.016956f, 0.102684f, 0.183131f, 0.068315f, -0.062803f, 0.226443f, -0.243560f, -0.184927f, -0.166758f, -0.116677f, 0.094104f, 0.134392f, -0.104482f, 0.069153f, 0.242099f, -0.223325f, -0.128129f, 0.053746f, 0.056517f, -0.039564f, -0.190911f, -0.040472f, -0.098879f, -0.024038f, -0.048165f, -0.049588f, 0.173303f, -0.009542f, 0.106475f, 0.171481f, -0.107033f, 0.228294f, 0.040580f, -0.181991f, -0.225435f, 0.008863f, -0.116154f, 0.130671f, 0.096513f, 0.016659f, 0.014534f, 0.120437f, 0.026667f, -0.164611f, 0.041523f, -0.058654f, -0.033620f, -0.081010f, -0.061563f, 0.003669f, -0.187666f, -0.018395f, -0.035475f, 0.166416f, -0.096961f, 0.030357f, -0.061534f, -0.110356f, -0.029940f, -0.192431f, -0.200419f, 0.002988f, 0.115815f, -0.051130f, 0.035277f, -0.065470f, 0.035434f, 0.121235f, -0.044910f, 0.122066f, 0.151569f, -0.118348f, -0.080970f, 0.155822f, -0.106752f, 0.054384f, -0.208474f, 0.074742f, -0.088088f, -0.065246f, -0.027147f, 0.225297f, 0.292545f, -0.023041f, -0.073340f, 0.133974f, 0.033716f, -0.093371f, -0.114369f, 0.136190f, 0.055760f, -0.129845f, -0.131226f, -0.112600f, 0.017696f, 0.024005f, 0.117724f, 0.162459f, -0.104986f, 0.087030f, -0.226136f, 0.065010f, 0.007147f, -0.029280f, 0.041837f, 0.168010f, 0.149286f, 0.136741f, 0.162547f, 0.050220f, -0.069219f, 0.133705f, -0.193016f, -0.244239f, 0.058028f, 0.128526f, -0.129473f, -0.088469f, -0.013852f, 0.008935f, -0.068045f, -0.084994f, -0.089987f, 0.078301f, -0.149669f, -0.042560f, -0.138541f, -0.053511f, 0.112805f, -0.204344f, -0.049663f, 0.117747f, -0.068341f, 0.135019f, 0.021191f, -0.004703f, -0.009635f, -0.101702f, -0.002842f, -0.233428f, -0.086583f, 0.181993f, -0.355180f, -0.003511f, -0.229432f, 0.232338f, -0.158969f, 0.171493f, 0.256944f, -0.188146f, -0.054655f, 0.152328f, -0.065317f, 0.052742f, -0.109525f, 0.120369f, 0.204489f, -0.084565f, 0.234663f, -0.045507f, -0.162962f, -0.042461f, 0.077692f, 0.087284f, -0.062722f, 0.105226f, 0.151631f, 0.173808f, -0.189651f, 0.101347f, 0.155033f, 0.087172f, 0.302890f, -0.159021f, 0.147420f, 0.180708f, 0.096110f, 0.152963f, -0.144178f, 0.078556f, 0.072647f, -0.029131f, 0.198939f, -0.073648f, -0.012277f, -0.003556f, -0.092602f, 0.035384f, -0.028369f, -0.126697f, -0.263027f, 0.003461f, -0.163152f, 0.196886f, -0.043604f, 0.061306f, -0.140100f, -0.101604f, -0.117778f, 0.253423f, 0.149871f, -0.088647f, -0.097065f, -0.054233f, 0.001876f, -0.251765f, 0.219911f, -0.235633f, -0.250251f, -0.034790f, -0.161575f, 0.076048f, 0.094444f, -0.111278f, -0.074987f, -0.120051f, -0.216687f, -0.221720f, -0.199566f, 0.144615f, 0.002635f, 0.132793f, 0.019704f, -0.214292f, 0.116298f, -0.125789f, -0.023989f, 0.029211f, -0.253744f, 0.004798f, 0.192686f, 0.112995f, -0.058746f, -0.105516f, -0.042431f, -0.094457f, 0.016488f, -0.131026f, 0.012361f, -0.208906f, -0.227236f, 0.175521f, -0.086533f, -0.086810f, 0.103870f, -0.088314f, -0.070151f, 0.025470f, -0.191391f, -0.135913f, 0.171782f, -0.112355f, -0.376798f, -0.094549f, -0.160882f, 0.151456f, -0.030073f, -0.001230f, -0.031971f, 0.051966f, -0.080599f, -0.175790f, -0.038812f, 0.073563f, 0.134576f, -0.230485f, 0.116138f, 0.101050f, 0.153548f, -0.095800f, 0.000275f, -0.179862f, -0.167008f, -0.036056f, 0.000380f, 0.025778f, 0.223242f, 0.054034f, 0.123355f, 0.016906f, -0.136952f, 0.160362f, -0.013028f, -0.134995f, 0.065236f, -0.224186f, 0.122049f, -0.406269f, 0.023977f, 0.155869f, 0.150456f, -0.122571f, -0.027998f, 0.055362f, 0.136628f, -0.008119f, 0.164249f, -0.164799f, 0.187318f, 0.021093f, 0.027712f, 0.084984f, -0.083852f, 0.145085f, 0.146607f, -0.102394f, 0.157348f, 0.169034f, -0.219630f, -0.174494f, 0.233561f, -0.022593f, -0.077956f, -0.090872f, -0.013520f, -0.023496f, -0.371132f, -0.256397f, -0.046836f, 0.070677f, -0.095398f, -0.089089f, 0.158102f, 0.242167f, -0.126691f, 0.190071f, -0.364241f, 0.097312f, 0.191797f, 0.208523f, 0.143165f, 0.060246f, 0.136921f, -0.193147f, -0.035517f, 0.041005f, -0.087544f, -0.327691f, -0.025944f, 0.233300f, 0.001731f, -0.214958f, 0.070103f, -0.263982f, 0.003047f, 0.214332f, -0.058385f, 0.085627f, -0.153365f, 0.138539f, 0.059220f, 0.250619f, 0.227032f, -0.147303f, 0.036700f, 0.015939f, 0.366826f, 0.218855f, -0.225912f, 0.073912f, -0.084786f, 0.240710f, -0.119132f, -0.240879f, 0.050883f, 0.119136f, -0.049557f, -0.209401f, -0.146811f, 0.195285f, 0.061373f, 0.156051f, 0.253292f, 0.086330f, -0.082542f, 0.282347f, -0.040412f, -0.026216f, -0.014008f, -0.273163f, 0.096432f, 0.206185f, 0.368068f, 0.007457f, -0.274259f, 0.270930f, 0.118303f, -0.014526f, 0.034355f, 0.207207f, -0.040347f, 0.044424f, 0.008957f, -0.147776f, -0.326760f, 0.163465f, -0.127487f, -0.306296f, -0.003942f, 0.110854f, 0.104254f, -0.139520f, 0.140554f, 0.104729f, 0.209599f, 0.156952f, -0.036574f, -0.184397f, -0.025003f, -0.060426f, 0.028495f, -0.039043f, -0.103415f, 0.165672f, -0.111643f, 0.225779f, -0.048386f, 0.011417f, -0.011242f, -0.200391f, 0.120778f, -0.126112f, -0.008710f, -0.152260f, -0.195364f, 0.336781f, -0.176876f, 0.033306f, 0.032895f, 0.190935f, -0.023571f, -0.177570f, 0.269963f, 0.041863f, -0.306997f, 0.201351f, 0.108334f, -0.623571f, -0.084254f, -0.033370f, 0.236826f, -0.082228f, -0.149180f, -0.129090f, -0.056823f, -0.037393f, -0.116464f, -0.001308f, 0.003587f, 0.070184f, -0.057620f, -0.202543f, -0.029958f, 0.009823f, -0.026856f, -0.027621f, 0.041145f, -0.015635f, -0.194271f, -0.027759f, 0.009458f, 0.108682f, 0.098707f, -0.214946f, -0.105255f, -0.121458f, 0.038491f, -0.078925f, 0.064785f, 0.142283f, 0.140422f, 0.267996f, 0.290828f, -0.091747f, -0.075819f, 0.192712f, 0.024801f, 0.130769f, 0.149325f, 0.132155f, -0.151394f, -0.018220f, 0.014956f, -0.131359f, -0.076916f, -0.131433f, 0.100248f, -0.055146f, -0.031447f, 0.052920f, -0.231739f, 0.136678f, -0.095172f, -0.130757f, 0.008112f, -0.247175f, 0.120912f, -0.224533f, -0.260675f, -0.111004f, -0.049178f, 0.231148f, -0.189033f, -0.346575f, -0.159369f, -0.046461f, -0.096371f, 0.069347f, -0.132656f, -0.125476f, 0.014354f, -0.114325f, 0.093822f, 0.254342f, -0.166873f, 0.044460f, -0.046711f, 0.162962f, -0.043616f, 0.224358f, -0.220765f, -0.125363f, 0.248226f, 0.376604f, -0.090481f, 0.191825f, 0.092052f, 0.042945f, -0.086061f, -0.236807f, -0.047454f, -0.239259f, -0.342630f, 0.008686f, 0.135666f, -0.307559f, -0.035509f, 0.079659f, -0.168817f, -0.196123f, -0.107500f, -0.207883f, -0.144017f, -0.229947f, -0.090437f, -0.257261f, 0.090389f, -0.064287f, 0.014895f, 0.153859f, -0.149306f, 0.151651f, 0.305484f, 0.037297f, -0.088976f, -0.048715f, -0.120930f, 0.049294f, 0.220393f, 0.040544f, -0.025575f, -0.031774f, 0.055612f, -0.269590f, 0.063516f, 0.088704f, 0.078760f, 0.190319f, 0.090899f, -0.276483f, 0.089477f, 0.127374f, 0.207882f, 0.042472f, 0.030643f, -0.143065f, -0.171712f, 0.103827f, -0.129513f, 0.125572f, -0.109372f, 0.018406f, -0.135874f, -0.223876f, -0.211115f, -0.116259f, 0.036636f, -0.217951f, -0.212399f, 0.141493f, -0.062200f, -0.416021f, -0.198426f, -0.123057f, 0.187856f, 0.211207f, 0.071427f, -0.008725f, -0.039353f, -0.130599f, -0.073366f, 0.091522f, -0.003424f, -0.148075f, 0.007536f, 0.050411f, -0.112219f, 0.111331f, -0.171262f, -0.018076f, 0.061411f, -0.026139f, -0.000027f, 0.196956f, -0.261487f, 0.158819f, 0.080290f, 0.039363f, -0.260754f, 0.062198f, 0.189448f, -0.040471f, -0.033558f, 0.043394f, 0.084592f, -0.171479f, 0.275136f, 0.053373f, 0.212469f, -0.110049f, 0.093239f, -0.177951f, 0.024633f, -0.156136f, 0.063499f, -0.069948f, 0.185774f, 0.063471f, 0.175261f, -0.130578f, -0.092562f, -0.069523f, -0.035100f, 0.144720f, -0.300490f, -0.015768f, 0.246868f, -0.155833f, -0.124208f, 0.075738f, 0.178843f, 0.061171f, -0.010760f, 0.065778f, -0.104101f, 0.084187f, 0.011473f, 0.007915f, 0.154186f, -0.104173f, -0.205927f, 0.292399f, 0.049343f, -0.093608f, 0.140009f, 0.148888f, 0.019571f, -0.226179f, -0.169510f, 0.041793f, -0.148389f, -0.139749f, -0.130356f, -0.156692f, -0.002524f, 0.042756f, -0.375619f, 0.196778f, -0.228072f, 0.199842f, -0.000113f, -0.157441f, 0.216407f, 0.224856f, -0.064351f, 0.151300f, -0.075318f, -0.063363f, -0.080336f, 0.195010f, -0.110166f, -0.232612f, -0.298859f, 0.143758f, -0.331375f, -0.034124f, 0.056399f, -0.024441f, 0.110484f, 0.046644f, -0.138508f, -0.079845f, 0.085982f, -0.150716f, -0.179739f, -0.262050f, 0.110934f, -0.079551f, 0.040459f, 0.103942f, -0.179707f, 0.032684f, 0.103745f, -0.166671f, -0.439788f, 0.177297f, -0.288841f, -0.636881f, 0.043030f, -0.045236f, -0.094199f, -0.176411f, 0.102376f, 0.024135f, -0.371967f, -0.126226f, 0.157267f, -0.200662f, -0.091502f, 0.045919f, -0.118049f, -0.146739f, -0.380486f, 0.083036f, -0.168283f, 0.167464f, -0.114094f, -0.290121f, -0.029981f, 0.006672f, 0.047990f, -0.051455f, 0.091146f, -0.043983f, -0.181956f, 0.268671f, 0.058156f, -0.267440f, 0.097140f, 0.098782f, 0.165108f, -0.001871f, 0.224678f, -0.001217f, -0.050613f, -0.211342f, -0.123904f, -0.251387f, 0.192239f, -0.076808f, -0.009006f, -0.227163f, 0.192258f, -0.156082f, 0.103771f, -0.027538f, 0.042290f, -0.069483f, 0.098753f, 0.123166f, -0.234618f, 0.155589f, 0.031450f, -0.170120f, -0.130972f, 0.075389f, 0.080430f, -0.148633f, 0.105602f, 0.111298f, -0.011409f, -0.201423f, -0.027969f, -0.140815f, 0.132604f, 0.193631f, -0.189886f, 0.032952f, -0.047735f, -0.182095f, -0.050699f, -0.134593f, -0.042056f, -0.183280f, -0.001493f, -0.158946f, 0.123653f, -0.187266f, 0.182284f, -0.092585f, 0.050860f, 0.013634f, -0.147469f, 0.153939f, -0.124543f, 0.145285f, -0.028289f, 0.167456f, 0.182777f, 0.058926f, -0.203309f, -0.166961f, -0.455089f, 0.171465f, -0.119047f, -0.024058f, -0.090215f, 0.106729f, -0.136398f, -0.218834f, -0.177018f, 0.133833f, 0.262849f, 0.142209f, -0.172622f, 0.171721f, -0.001703f, 0.083665f, -0.092058f, -0.015712f, 0.078038f, 0.307501f, 0.209143f, -0.109987f, 0.195461f, 0.065497f, -0.047331f, 0.147940f, 0.100259f, 0.092793f, -0.078190f, 0.078393f, 0.179757f, 0.048691f, 0.336248f, -0.201960f, -0.006737f, -0.299096f, -0.000400f, 0.080561f, -0.186371f, -0.166220f, 0.226477f, 0.066482f, -0.067742f, 0.169653f, -0.212877f, 0.166294f, 0.033351f, -0.230629f, 0.063067f, 0.195002f, -0.013698f, -0.233470f, 0.224207f, -0.084451f, 0.065540f, 0.042538f, 0.176560f, -0.119200f, 0.188162f, 0.098511f, -0.048433f, -0.137079f, 0.191153f, 0.234761f, -0.114699f, -0.260053f, -0.147723f, 0.170435f, -0.064395f, 0.172525f, -0.121221f, -0.001524f, 0.193561f, 0.012859f, 0.044207f, 0.021107f, -0.180272f, 0.193209f, -0.117516f, 0.049045f, -0.111352f, -0.099914f, -0.057184f, 0.081391f, 0.184697f, -0.353411f, -0.006142f, 0.065590f, -0.256075f, 0.188528f, -0.120000f, -0.220822f, -0.050767f, -0.035218f, 0.246184f, 0.283977f, -0.038237f, -0.090335f, 0.177437f, 0.246444f, 0.017036f, 0.077970f, 0.257010f, 0.015139f, 0.010120f, 0.314014f, -0.051664f, 0.165260f, -0.130151f, 0.074951f, -0.041383f, 0.052191f, 0.144980f, -0.084657f, -0.141828f, -0.087593f, 0.163048f, -0.158566f, 0.286279f, 0.227830f, 0.090057f, -0.151545f, -0.194974f, -0.048770f, 0.013519f, -0.084310f, 0.195415f, -0.213811f, -0.272256f, -0.014805f, 0.193811f, 0.046384f, -0.139881f, -0.106350f, -0.001085f, 0.181020f, -0.117925f, -0.150388f, -0.039087f, -0.135847f, 0.069007f, 0.125996f, -0.219680f, -0.158802f, -0.173342f, -0.219784f, -0.123421f, 0.145040f, 0.094463f, 0.033444f, 0.170281f, 0.023558f, -0.229396f, 0.082829f, -0.169104f, -0.261553f, 0.044880f, -0.081673f, -0.226510f, -0.161120f, 0.105920f, -0.005791f, 0.142832f, -0.071089f, 0.144055f, -0.169622f, 0.114891f, 0.137147f, 0.109636f, -0.497677f, 0.111111f, 0.023486f, -0.070539f, -0.012558f, 0.176316f, 0.023723f, 0.041257f, 0.021462f, -0.085831f, -0.108203f, -0.136246f, 0.031160f, -0.050651f, 0.024005f, 0.132812f, -0.132497f, -0.149433f, -0.087903f, -0.012327f, -0.118002f, -0.102616f, 0.133698f, 0.102622f, -0.174386f, 0.267948f, -0.327318f, 0.052034f, 0.096460f, -0.033388f, 0.021448f, -0.054642f, -0.069530f, 0.181765f, -0.078821f, 0.121282f, -0.087505f, -0.015099f, -0.203586f, -0.128182f, -0.113615f, -0.190625f, -0.218589f, 0.123284f, 0.006509f, -0.281416f, -0.089534f, -0.161044f, -0.140728f, -0.041160f, 0.011055f, 0.014371f, -0.009203f, 0.165463f, 0.124235f, -0.005543f, -0.125278f, 0.155593f, -0.060564f, 0.145578f, -0.128377f, 0.156251f, 0.034277f, -0.189792f, 0.144827f, -0.249148f, -0.070388f, -0.000063f, -0.021902f, 0.045383f, -0.176442f, 0.055069f, -0.344139f, 0.036736f, 0.026702f, 0.148141f, -0.014623f, -0.057481f, 0.011790f, -0.166228f, -0.121560f, -0.173699f, 0.070030f, 0.140043f, -0.096432f, 0.130900f, 0.102364f, -0.090539f, 0.013147f, -0.064001f, -0.082072f, 0.146837f, -0.131118f, 0.031623f, -0.020144f, 0.050825f, -0.087572f, -0.094984f, 0.023263f, -0.177628f, 0.085574f, -0.119916f, 0.023869f, -0.221009f, 0.104225f, 0.165151f, -0.350645f, 0.098306f, -0.154627f, -0.226601f, 0.141523f, 0.028825f, 0.013719f, -0.166696f, -0.221270f, 0.187615f, 0.085251f, 0.000413f, -0.026982f, -0.161822f, -0.019901f, -0.433235f, 0.087921f, 0.075589f, 0.000371f, 0.098346f, -0.271807f, 0.040177f, 0.217819f, -0.042436f, -0.087225f, 0.169636f, -0.012728f, -0.090973f, 0.234506f, -0.271819f, 0.027432f, 0.036265f, 0.123314f, 0.180698f, 0.157756f, -0.197867f, -0.082195f, 0.188721f, 0.194270f, 0.122281f, -0.008887f, -0.094639f, -0.023073f, -0.205368f, -0.005068f, -0.195237f, -0.107462f, -0.150316f, -0.081295f, 0.180681f, -0.069166f, -0.133579f, -0.142621f, 0.003051f, 0.099370f, -0.083567f, -0.002670f, 0.081168f, -0.086623f, 0.133882f, 0.031186f, 0.202102f, 0.185546f, -0.118495f, 0.053757f, 0.186506f, 0.034917f, 0.104832f, -0.110145f, 0.019828f, -0.267723f, -0.056009f, -0.190635f, -0.214605f, -0.148411f, -0.059758f, -0.072324f, -0.101182f, 0.119226f, -0.008564f, 0.151436f, -0.086492f, -0.172599f, -0.307866f, -0.214955f, 0.039926f, 0.010355f, -0.221410f, 0.136696f, 0.192613f, 0.027872f, 0.164027f, 0.014334f, 0.006283f, 0.219746f, 0.046427f, 0.056487f, 0.161082f, -0.063708f, -0.221060f, -0.064537f, 0.117845f, -0.212754f, 0.065129f, 0.206892f, -0.052864f, 0.242127f, 0.121927f, 0.226963f, -0.199813f, -0.072602f, 0.073365f, 0.085137f, -0.010145f, 0.193740f, -0.194472f, -0.128206f, 0.011766f, -0.021346f, -0.431874f, -0.001481f, 0.113398f, -0.059992f, -0.102138f, 0.064994f, -0.247435f, 0.066159f, -0.180788f, -0.156433f, 0.155123f, -0.192810f, -0.102902f, 0.033069f, -0.074348f, 0.006989f, -0.172230f, -0.109004f, -0.089259f, -0.111453f, 0.205078f, -0.353594f, 0.010492f, 0.064339f, -0.257122f, 0.055361f, -0.018241f, 0.165864f, 0.083601f, 0.101231f, -0.104209f, 0.003190f, -0.065141f, -0.042634f, -0.229643f, 0.179481f, 0.135179f, -0.024329f, -0.430839f, -0.017552f, -0.286590f, 0.122152f, 0.293838f, -0.042402f, -0.117725f, -0.008349f, -0.061461f, 0.190353f, 0.087401f, 0.135075f, 0.130143f, -0.096689f, 0.236064f, -0.085741f, -0.076989f, 0.076151f, -0.067981f, 0.130708f, 0.133700f, 0.141800f, -0.210790f, 0.180794f, 0.024620f, -0.247615f, -0.294561f, 0.127390f, -0.233398f, -0.117662f, -0.061074f, -0.189207f, -0.028117f, -0.101534f, 0.182780f, 0.035170f, -0.219115f, -0.025926f, -0.029405f, -0.041368f, -0.183583f, -0.201213f, -0.399936f, 0.033042f, 0.165785f, -0.099475f, -0.013036f, 0.111545f, -0.005529f, -0.117808f, 0.188196f, -0.021489f, 0.136149f, 0.130910f, -0.078327f, -0.085785f, 0.039883f, 0.104488f, -0.078963f, -0.043270f, -0.242624f, -0.226228f, 0.045981f, -0.066725f, -0.157444f, -0.038656f, 0.006873f, -0.036426f, 0.047142f, 0.067661f, -0.185277f, 0.063216f, -0.125916f, 0.173435f, 0.236129f, 0.192446f, -0.152625f, 0.117327f, -0.033591f, -0.130658f, -0.185448f, 0.191142f, 0.067748f, 0.013157f, 0.135540f, -0.225715f, 0.110119f, 0.061247f, 0.170208f, 0.120665f, -0.101229f, 0.090852f, -0.170571f, 0.164392f, 0.053918f, -0.206493f, -0.228777f, -0.140267f, 0.059540f, -0.151961f, 0.133490f, -0.105568f, -0.220435f, -0.043993f, 0.074081f, -0.003619f, 0.190840f, 0.016664f, 0.024807f, 0.094920f, 0.056523f, 0.052876f, 0.083390f, -0.040844f, -0.128136f, -0.039136f, -0.173157f, -0.193974f, 0.190024f, -0.246945f, -0.249740f, 0.126105f, -0.246086f, 0.024068f, 0.070483f, 0.114105f, -0.001756f, -0.243986f, -0.103611f, 0.097692f, 0.064785f, -0.192704f, 0.035338f, 0.242004f, -0.202420f, 0.146400f, -0.028112f, -0.010133f, -0.263801f, 0.084046f, 0.125628f, 0.039434f, 0.072465f, -0.307494f, 0.105653f, 0.022889f, -0.011731f, -0.432927f, 0.051679f, 0.098097f, -0.074305f, -0.171483f, -0.115603f, -0.170699f, 0.015888f, -0.126786f, 0.092221f, 0.008746f, 0.184981f, 0.058078f, 0.051976f, 0.066824f, 0.194661f, -0.168190f, 0.207788f, -0.018701f, 0.204395f, -0.000282f, -0.053444f, 0.202439f, 0.086108f, 0.143893f, 0.112287f, 0.164190f, -0.100733f, 0.161656f, -0.082233f, -0.086191f, -0.066769f, -0.169924f, -0.190625f, -0.057756f, -0.204456f, 0.019324f, 0.039654f, -0.306014f, -0.066017f, 0.125599f, -0.361726f, 0.186111f, -0.140391f, -0.217580f, -0.018637f, -0.161025f, 0.165048f, -0.183738f, -0.253509f, 0.175211f, 0.020925f, 0.125332f, -0.149894f, 0.113911f, -0.347780f, 0.240749f, 0.177113f, -0.167868f, -0.018734f, 0.154729f, -0.083850f, -0.078354f, 0.043860f, -0.145317f, 0.065464f, 0.273411f, -0.042527f, 0.194872f, -0.156504f, -0.275975f, 0.117139f, 0.136770f, 0.002004f, -0.119034f, 0.202792f, 0.007352f, -0.158849f, 0.149415f, 0.197434f, 0.003869f, 0.054719f, 0.139309f, -0.002610f, 0.175461f, 0.013748f, -0.196038f, 0.052600f, -0.063321f, -0.024406f, -0.012414f, -0.025971f, 0.058312f, 0.242656f, 0.142427f, -0.043063f, -0.067595f, -0.063505f, 0.152138f, -0.031909f, 0.100711f, 0.016508f, 0.048017f, 0.036653f, 0.136824f, 0.021266f, -0.101811f, -0.129431f, -0.006161f, -0.071440f, 0.166560f, -0.082584f, 0.169239f, -0.194412f, 0.007241f, -0.162675f, -0.138780f, 0.159616f, 0.202281f, 0.179315f, -0.064534f, -0.171676f, 0.205685f, 0.098451f, 0.159309f, -0.054424f, -0.051679f, -0.137200f, 0.140833f, -0.030291f, 0.247765f, -0.018524f, -0.086192f, 0.089323f, -0.082476f, -0.145021f, -0.197926f, 0.149798f, 0.172689f, 0.129844f, 0.016868f, -0.476251f, 0.119675f, 0.031254f, -0.113011f, 0.088211f, -0.051326f, -0.040213f, -0.032706f, -0.154136f, 0.021078f, -0.226194f, -0.157939f, 0.090049f, 0.070805f, -0.205443f, -0.116466f, -0.031811f, -0.092115f, -0.000482f, -0.288913f, 0.187711f, 0.075178f, -0.205261f, -0.105927f, -0.214253f, 0.080381f, -0.169997f, 0.147584f, 0.119850f, 0.087655f, 0.191345f, 0.073973f, -0.219364f, -0.007031f, -0.023373f, 0.060751f, 0.121489f, -0.067512f, 0.174333f, 0.100668f, 0.080147f, 0.085312f, 0.131148f, -0.118395f, -0.090820f, -0.014534f, 0.062433f, -0.213071f, 0.102116f, 0.215008f, 0.133988f, -0.002957f, 0.170131f, 0.144863f, -0.074042f, -0.020590f, 0.186141f, -0.117142f, -0.173675f, 0.051724f, -0.116972f, 0.164989f, -0.059465f, 0.151480f, 0.033953f, -0.270359f, 0.091187f, 0.007057f, 0.072023f, 0.042183f, -0.169587f, -0.157798f, -0.080184f, -0.040015f, -0.187225f, 0.117919f, 0.189051f, 0.146568f, 0.180433f, 0.169498f, -0.193341f, 0.034853f, -0.190778f, -0.059258f, 0.094102f, -0.144847f, -0.185204f, -0.068427f, -0.002898f, -0.004092f, -0.212655f, -0.332267f, -0.250880f, -0.090505f, -0.230176f, -0.134318f, -0.013381f, -0.407452f, -0.132204f, 0.034235f, -0.033939f, 0.144539f, -0.330205f, -0.049810f, -0.311379f, -0.037513f, 0.122473f, 0.227447f, 0.005958f, -0.229447f, -0.210990f, 0.176096f, 0.004957f, 0.049535f, -0.121087f, -0.120171f, -0.189990f, 0.107002f, 0.033911f, -0.385339f, -0.358770f, -0.134189f, -0.054168f, -0.233913f, -0.082420f, 0.225161f, 0.019827f, -0.169306f, 0.088951f, -0.173558f, -0.130205f, -0.143877f, -0.167990f, -0.048077f, 0.130486f, -0.232194f, -0.170601f, 0.194967f, -0.009740f, 0.345549f, 0.166944f, -0.058705f, -0.030214f, -0.305632f, -0.074568f, 0.100874f, 0.089878f, -0.312667f, -0.108015f, -0.290684f, -0.099648f, -0.040774f, -0.243374f, -0.107587f, 0.298243f, 0.111916f, -0.018842f, -0.257817f, -0.272831f, 0.209542f, 0.052151f, -0.008951f, -0.535195f, -0.005498f, 0.055657f, 0.112055f, -0.162223f, -0.179098f, -0.194720f, 0.026504f, 0.099626f, 0.192654f, -0.286243f, 0.124540f, -0.036292f, 0.356579f, -0.216100f, -0.190550f, -0.162321f, 0.529966f, 0.334284f, -0.053454f, -0.127229f, 0.029006f, -0.496349f, -0.032334f, 0.021646f, 0.186450f, -0.137368f, -0.296758f, -0.116512f, -0.433795f, 0.243167f, -0.047855f, 0.556464f, 0.070783f, 0.132610f, 0.286904f, -0.083783f, -0.384993f, -0.280338f, -0.058908f, -0.266025f, -0.010960f, 0.094771f, -0.011344f, -0.147699f, -0.359943f, -0.185714f, -0.136227f, 0.230140f, 0.229014f, -0.150155f, -0.289664f, 0.040397f, 0.000819f, 0.123641f, 0.011174f, 0.363411f, -0.085671f, 0.189495f, -0.330662f, 0.178280f, -0.023872f, 0.112782f, 0.254933f, 0.078565f, -0.352401f, -0.165073f, -0.147364f, -0.245701f, -0.041456f, 0.012343f, -0.247540f, 0.092794f, -0.022851f, 0.047735f, 0.113462f, -0.030974f };
static const float prediction_next_solar_layer_2_biases[80] = { -0.016361f, -0.060709f, 0.044248f, 0.034830f, -0.146739f, 0.093705f, -0.134938f, -0.087292f, -0.041934f, 0.145253f, 0.120933f, 0.064601f, 0.053539f, 0.048723f, 0.077373f, 0.033220f, 0.117058f, -0.107356f, 0.108742f, 0.092870f, 0.111567f, 0.027914f, 0.074331f, 0.059912f, 0.075292f, -0.059045f, -0.089207f, 0.073871f, 0.102705f, 0.109955f, -0.050586f, 0.059048f, -0.162003f, -0.095713f, 0.115377f, 0.088115f, 0.121320f, -0.112893f, 0.109272f, -0.044961f, -0.035170f, 0.041339f, 0.093126f, 0.017585f, 0.133274f, 0.044995f, 0.105559f, 0.098765f, -0.148157f, 0.127077f, -0.098665f, -0.004064f, -0.082815f, -0.045344f, 0.108802f, -0.054583f, 0.048329f, 0.073576f, 0.079727f, -0.009208f, 0.087400f, 0.105428f, 0.065482f, 0.074689f, 0.113488f, 0.011986f, -0.067642f, -0.008767f, 0.067984f, -0.099007f, 0.090747f, 0.028205f, 0.020092f, 0.090899f, 0.078829f, 0.081920f, 0.125366f, 0.097613f, 0.091442f, 0.081162f };
static const float prediction_next_solar_layer_2_weights[6400] = { 0.182518f, -0.113932f, 0.152507f, -0.212643f, 0.020889f, -0.141881f, 0.088400f, 0.203327f, 0.115676f, 0.147594f, 0.154780f, -0.062148f, 0.101192f, 0.000672f, -0.004964f, -0.117687f, 0.117539f, -0.029095f, 0.173124f, -0.201465f, 0.047905f, 0.058747f, 0.178553f, 0.058262f, 0.211971f, -0.164459f, 0.075806f, -0.025096f, 0.114526f, -0.099775f, -0.204464f, 0.029197f, -0.293374f, 0.067073f, -0.119109f, 0.134112f, -0.130842f, -0.101403f, 0.194254f, -0.071407f, -0.132587f, -0.094031f, 0.046987f, 0.133458f, 0.035950f, -0.065404f, -0.189899f, 0.109141f, -0.014151f, 0.135553f, 0.047297f, -0.124389f, -0.153105f, -0.156449f, -0.175924f, -0.141519f, -0.057810f, -0.084357f, -0.136546f, -0.050785f, -0.037816f, 0.156585f, 0.068025f, 0.171404f, 0.018616f, 0.154345f, 0.166871f, 0.076201f, 0.127975f, 0.022247f, -0.137011f, -0.021820f, 0.065386f, -0.001766f, -0.147011f, 0.206088f, 0.080310f, 0.088977f, -0.063806f, -0.069382f, -0.229419f, -0.182851f, -0.093134f, -0.131607f, 0.001841f, 0.148733f, -0.163913f, 0.097446f, 0.107240f, -0.034636f, 0.231537f, 0.172376f, -0.005532f, 0.242805f, 0.384415f, 0.066940f, 0.123682f, 0.075054f, 0.190077f, -0.019286f, 0.167672f, 0.098220f, 0.003960f, 0.065501f, 0.134031f, 0.039741f, -0.037256f, 0.094453f, 0.004676f, 0.083929f, -0.121949f, 0.147869f, 0.100784f, -0.001259f, -0.041550f, -0.024490f, 0.288727f, -0.051851f, 0.067309f, -0.111862f, 0.004883f, 0.111537f, 0.066064f, -0.154823f, 0.248007f, -0.020271f, 0.081423f, 0.132351f, -0.240494f, 0.060186f, -0.107320f, 0.088110f, 0.103500f, -0.110441f, 0.166188f, -0.010730f, 0.093593f, 0.179666f, -0.036720f, -0.083270f, 0.155261f, 0.259119f, 0.155747f, 0.199617f, 0.204952f, 0.121426f, -0.084662f, -0.194358f, -0.111298f, -0.250293f, -0.215194f, 0.174713f, -0.113788f, 0.285689f, 0.050854f, 0.012085f, 0.012095f, -0.097520f, 0.193023f, 0.237963f, -0.134122f, 0.143428f, 0.223145f, -0.108224f, 0.089559f, -0.040429f, 0.153451f, 0.002414f, 0.138805f, 0.113748f, -0.102859f, 0.079991f, 0.166192f, -0.137385f, -0.220469f, 0.249588f, 0.181879f, -0.122059f, -0.093814f, 0.170223f, -0.135252f, -0.206000f, -0.077711f, 0.109179f, 0.085042f, 0.161125f, 0.156191f, -0.147575f, 0.129825f, -0.154210f, -0.044818f, -0.078633f, -0.159961f, 0.120424f, -0.124875f, -0.075657f, 0.139526f, 0.017594f, 0.001216f, -0.193397f, -0.007506f, -0.246289f, -0.065750f, 0.147139f, -0.047907f, 0.072238f, -0.092219f, 0.155069f, 0.020906f, -0.250875f, -0.152898f, -0.155464f, 0.147513f, -0.081205f, 0.160286f, 0.121009f, 0.033453f, -0.111065f, -0.079670f, -0.007601f, -0.106132f, 0.116527f, -0.041597f, 0.121323f, -0.119174f, -0.033891f, 0.014857f, -0.083544f, -0.180449f, 0.056488f, 0.157779f, -0.213395f, 0.039986f, 0.198952f, -0.058554f, 0.153110f, 0.084585f, 0.040884f, -0.070570f, 0.189638f, 0.027722f, 0.110286f, -0.256172f, -0.119423f, 0.138106f, 0.071443f, 0.214509f, 0.033932f, -0.120014f, 0.112084f, 0.183354f, 0.211824f, -0.178546f, -0.005081f, 0.179056f, 0.063915f, -0.095327f, 0.056233f, -0.066769f, -0.087397f, 0.101991f, 0.111448f, 0.028692f, 0.158449f, -0.076123f, 0.011176f, -0.102975f, 0.066937f, -0.099715f, 0.193036f, -0.128997f, -0.132114f, -0.162457f, 0.121769f, 0.216776f, 0.191193f, 0.186525f, -0.191977f, 0.123244f, -0.114206f, 0.020892f, 0.219266f, 0.118112f, 0.166818f, -0.003913f, 0.008255f, 0.237919f, 0.224645f, 0.036252f, -0.091839f, -0.009109f, -0.032612f, 0.127229f, 0.094105f, 0.081307f, 0.026901f, 0.042678f, 0.092600f, 0.019665f, -0.095670f, 0.171419f, -0.063534f, 0.102525f, -0.013249f, 0.069595f, 0.048236f, -0.137726f, 0.038252f, 0.111588f, 0.072133f, 0.052070f, 0.055885f, -0.147641f, 0.198136f, 0.060916f, -0.112004f, -0.074620f, -0.076983f, -0.042789f, 0.053208f, 0.207061f, 0.026385f, 0.098898f, 0.127865f, 0.030433f, 0.016829f, 0.019554f, 0.084142f, -0.077943f, 0.026969f, 0.109349f, 0.118893f, -0.215894f, -0.032275f, -0.223445f, 0.450631f, 0.026340f, -0.087994f, 0.316044f, -0.115809f, -0.011455f, 0.084432f, 0.062463f, -0.264141f, 0.098408f, 0.140878f, 0.191647f, -0.160749f, -0.009478f, -0.262647f, 0.174666f, -0.167088f, 0.057433f, 0.020416f, 0.072682f, 0.054386f, -0.037602f, 0.098750f, -0.080475f, 0.108785f, 0.164565f, -0.006957f, 0.197952f, -0.030718f, -0.183337f, 0.075975f, 0.096310f, -0.071172f, -0.080254f, 0.217069f, 0.267335f, 0.056117f, -0.092054f, -0.062313f, 0.378902f, -0.145490f, 0.124655f, 0.151505f, -0.004774f, 0.041433f, 0.193174f, -0.194560f, -0.229202f, 0.293561f, -0.005300f, 0.118775f, 0.192669f, -0.138629f, 0.161725f, -0.383975f, 0.048031f, 0.240577f, 0.479183f, 0.022319f, -0.191201f, -0.031279f, -0.145038f, -0.260052f, -0.066049f, 0.168884f, -0.083109f, 0.080387f, 0.038351f, 0.005082f, 0.210214f, 0.037681f, -0.107983f, -0.050991f, -0.212163f, 0.054630f, 0.121200f, 0.008043f, -0.133390f, -0.243394f, -0.231875f, -0.012806f, 0.014533f, -0.006753f, 0.059840f, -0.019002f, -0.125871f, 0.103009f, -0.223460f, 0.148492f, -0.113816f, -0.124080f, -0.157666f, -0.037717f, 0.015846f, 0.080293f, 0.129761f, -0.229913f, 0.006021f, 0.019600f, 0.180547f, 0.148503f, -0.025527f, -0.029899f, 0.147766f, -0.130804f, 0.072444f, 0.031765f, 0.082149f, 0.015484f, -0.027939f, 0.091560f, -0.049873f, 0.002411f, -0.047223f, 0.132965f, 0.175059f, 0.156337f, 0.031980f, -0.166098f, 0.015419f, -0.167819f, 0.024624f, -0.053545f, -0.190324f, 0.159177f, 0.089238f, 0.110274f, 0.138718f, -0.112327f, -0.022759f, -0.007758f, -0.010647f, -0.060906f, -0.228507f, 0.143078f, 0.000101f, -0.106448f, -0.004673f, -0.053091f, -0.014203f, -0.226805f, -0.021568f, -0.040741f, 0.183552f, -0.117676f, -0.244015f, 0.024805f, -0.183025f, 0.024899f, 0.184194f, 0.162516f, -0.056720f, -0.068045f, -0.247677f, -0.142664f, -0.085708f, 0.025653f, -0.291018f, -0.205212f, 0.005135f, -0.185812f, -0.031722f, -0.057622f, 0.150869f, 0.196605f, -0.011104f, -0.033575f, 0.178960f, -0.030311f, 0.080366f, 0.146989f, -0.131310f, -0.130246f, 0.165042f, 0.215388f, -0.189766f, 0.099753f, -0.041202f, -0.183582f, 0.132692f, -0.009241f, 0.162113f, 0.149799f, 0.062922f, -0.065591f, 0.130775f, 0.116340f, 0.128346f, 0.079948f, -0.166443f, -0.062763f, 0.110484f, 0.218932f, -0.069626f, 0.127015f, -0.172829f, -0.149273f, 0.077640f, 0.095660f, -0.094089f, -0.078529f, -0.213117f, 0.033087f, 0.009977f, -0.093751f, 0.095429f, -0.070256f, 0.045787f, -0.178007f, -0.013434f, -0.067789f, 0.037727f, -0.016049f, 0.214568f, 0.028569f, -0.032993f, 0.101692f, -0.085886f, -0.009340f, 0.223494f, 0.031786f, -0.021220f, -0.053191f, 0.185653f, 0.151942f, 0.074684f, 0.080047f, -0.172851f, 0.183662f, 0.171833f, 0.016168f, -0.183062f, 0.195249f, -0.059384f, -0.128251f, 0.096154f, 0.186032f, 0.060278f, -0.061483f, 0.118184f, 0.182978f, 0.165628f, 0.103196f, -0.171453f, -0.133184f, 0.175168f, -0.162751f, -0.114651f, 0.059839f, -0.124444f, 0.171615f, -0.126697f, 0.171080f, -0.019526f, 0.097768f, -0.141807f, -0.186146f, -0.026867f, -0.170642f, -0.180484f, 0.188844f, -0.183214f, -0.139453f, 0.184188f, -0.065634f, -0.032183f, 0.032956f, -0.173517f, -0.175409f, -0.223614f, 0.063853f, 0.009779f, -0.081208f, 0.022813f, 0.162702f, -0.104336f, -0.063041f, -0.000743f, 0.186210f, 0.190001f, 0.099994f, 0.045014f, -0.142301f, -0.194808f, 0.154976f, -0.041659f, -0.026524f, -0.215567f, -0.174536f, -0.132207f, -0.136939f, 0.119142f, 0.069536f, 0.166881f, 0.081696f, -0.118889f, 0.021820f, 0.172033f, 0.165172f, -0.147602f, 0.008750f, -0.019735f, -0.092749f, -0.129072f, -0.089520f, 0.127670f, 0.087462f, -0.071545f, -0.110703f, 0.071618f, -0.056885f, 0.016035f, 0.124966f, -0.123847f, 0.227940f, -0.074204f, -0.164626f, 0.014375f, -0.203261f, 0.124114f, 0.004897f, 0.029945f, 0.033961f, 0.124954f, 0.198542f, -0.070269f, -0.094250f, -0.148381f, 0.005597f, 0.078977f, -0.044911f, -0.114022f, -0.034970f, 0.105437f, 0.137281f, -0.063411f, -0.002412f, 0.031048f, 0.057351f, 0.165177f, 0.014693f, 0.177223f, 0.190067f, -0.102272f, 0.032493f, 0.043749f, 0.003864f, 0.054294f, -0.044833f, 0.177064f, 0.123375f, 0.178895f, 0.029576f, 0.065642f, 0.143821f, 0.074995f, -0.008481f, 0.159414f, -0.092104f, 0.122306f, -0.185036f, -0.011500f, 0.138542f, 0.156223f, -0.083766f, 0.134616f, 0.207099f, -0.001469f, 0.091930f, 0.097902f, -0.128815f, 0.042186f, 0.067994f, -0.194454f, -0.120626f, 0.157696f, -0.095406f, 0.112916f, 0.093138f, -0.152256f, -0.120064f, 0.052860f, -0.022092f, -0.146225f, 0.060707f, 0.026995f, -0.008127f, -0.024214f, 0.024951f, 0.147451f, 0.017638f, -0.073039f, -0.047290f, -0.095046f, 0.059353f, 0.098275f, 0.147697f, -0.103321f, 0.082891f, 0.074341f, 0.109465f, -0.110982f, 0.008479f, -0.204379f, 0.132878f, -0.116401f, -0.179908f, -0.027881f, -0.171356f, 0.011414f, -0.073269f, 0.048267f, -0.116762f, -0.158788f, 0.128428f, 0.065737f, 0.179189f, 0.017600f, -0.029215f, 0.052667f, 0.071492f, -0.160226f, -0.049906f, 0.145890f, 0.038181f, -0.102415f, 0.066040f, 0.093575f, -0.022910f, 0.106503f, -0.032424f, -0.116186f, 0.169093f, -0.074018f, -0.088788f, -0.045958f, -0.098077f, -0.144608f, 0.054019f, 0.001499f, -0.119180f, -0.180153f, 0.133344f, 0.088959f, -0.027930f, -0.129370f, 0.126908f, -0.136873f, -0.060799f, 0.151689f, 0.111267f, -0.150119f, -0.031990f, -0.072569f, 0.141452f, -0.145576f, 0.137974f, 0.080888f, -0.048854f, 0.070519f, -0.088363f, -0.134231f, -0.024731f, -0.173821f, 0.112626f, -0.050285f, 0.218160f, -0.217838f, -0.115549f, 0.077054f, -0.041731f, 0.301772f, -0.045503f, -0.012670f, 0.150991f, -0.193464f, -0.037012f, -0.164389f, 0.045767f, 0.185558f, 0.007438f, -0.156519f, -0.046895f, 0.117341f, -0.076056f, -0.148055f, -0.125108f, -0.040522f, 0.085110f, -0.006911f, -0.001281f, 0.081665f, -0.004765f, -0.040581f, -0.262531f, -0.115182f, 0.075331f, -0.109639f, 0.071101f, 0.018490f, 0.023755f, -0.264611f, -0.037233f, -0.191911f, -0.153169f, -0.010129f, -0.093406f, -0.170962f, 0.211318f, -0.094164f, 0.168652f, -0.157435f, -0.025171f, 0.081636f, -0.069687f, 0.143306f, 0.042273f, 0.071045f, -0.170255f, -0.096826f, 0.130331f, -0.242766f, -0.178350f, -0.218745f, 0.184699f, -0.140445f, -0.206344f, -0.213971f, -0.224872f, -0.217951f, 0.034039f, 0.252386f, -0.040634f, -0.210636f, 0.024588f, 0.057407f, 0.019767f, -0.000354f, -0.046245f, 0.034646f, -0.074520f, -0.014568f, -0.161858f, 0.092964f, -0.195131f, 0.195501f, -0.195613f, 0.274261f, -0.198398f, -0.083877f, -0.001001f, 0.062658f, 0.098305f, -0.203912f, -0.097635f, -0.181755f, -0.053436f, 0.200355f, 0.077039f, -0.091139f, -0.086685f, 0.057412f, 0.192067f, 0.177934f, -0.194044f, -0.154582f, -0.046846f, -0.037381f, 0.095410f, -0.139051f, 0.026896f, 0.222814f, -0.349786f, 0.161198f, -0.076228f, -0.056303f, 0.017129f, 0.169660f, 0.204214f, 0.071556f, 0.138085f, -0.020002f, 0.031603f, -0.009087f, -0.158238f, -0.049694f, 0.108813f, 0.093083f, 0.101943f, 0.069483f, 0.099362f, 0.139955f, -0.136193f, -0.077147f, -0.073865f, 0.024131f, -0.033923f, -0.036523f, 0.080841f, 0.034625f, -0.190195f, 0.229509f, -0.180854f, -0.097812f, 0.025775f, -0.172945f, 0.156008f, 0.003123f, 0.153074f, -0.096574f, 0.195254f, -0.152228f, 0.122643f, -0.163428f, -0.165528f, -0.160456f, -0.241980f, 0.157512f, -0.041894f, 0.158076f, 0.205346f, -0.118497f, -0.060385f, -0.195715f, -0.131064f, 0.308015f, -0.066602f, -0.250867f, -0.051376f, -0.097909f, 0.146026f, -0.056488f, -0.051415f, -0.183907f, -0.022673f, -0.023888f, 0.066877f, 0.118467f, -0.225154f, -0.126521f, -0.412626f, 0.089180f, -0.059492f, -0.151843f, -0.076366f, 0.191270f, 0.185462f, 0.169634f, -0.097901f, -0.175289f, 0.112210f, 0.192659f, 0.149942f, 0.102761f, -0.037532f, -0.087484f, -0.116040f, -0.150183f, -0.187348f, -0.064934f, 0.080692f, 0.089778f, -0.065057f, -0.008049f, 0.087906f, 0.109466f, 0.002445f, 0.169327f, -0.010019f, -0.037480f, 0.171117f, -0.069433f, -0.065924f, -0.088238f, -0.004493f, 0.212884f, -0.044465f, -0.018931f, 0.014066f, -0.078102f, -0.121283f, -0.054919f, -0.108426f, -0.193295f, -0.027932f, -0.161070f, 0.079070f, -0.090586f, -0.102065f, -0.124282f, -0.087832f, -0.020003f, -0.090500f, -0.143471f, -0.088781f, -0.014456f, -0.071561f, -0.156872f, 0.160949f, 0.036962f, -0.168064f, 0.186295f, -0.152263f, 0.126930f, -0.180159f, 0.132134f, 0.056579f, 0.151573f, 0.147828f, -0.004637f, -0.111376f, 0.056179f, -0.092380f, -0.139794f, 0.104723f, -0.166072f, 0.095869f, 0.111815f, -0.199585f, 0.092723f, -0.149662f, -0.150446f, 0.022158f, -0.100821f, 0.084176f, 0.079028f, 0.133014f, -0.065257f, 0.089204f, -0.064044f, -0.136155f, -0.027854f, 0.151370f, 0.081417f, 0.046878f, -0.046083f, -0.235984f, -0.280643f, 0.094952f, -0.084929f, 0.033821f, 0.146577f, 0.001689f, -0.068064f, 0.128424f, 0.000168f, 0.004041f, 0.094009f, -0.136223f, 0.053418f, -0.165942f, -0.012807f, 0.061312f, -0.165005f, 0.060330f, -0.061763f, -0.002543f, 0.084300f, -0.075172f, -0.004335f, 0.120283f, -0.207885f, -0.156935f, -0.122323f, -0.105283f, 0.010483f, 0.006097f, 0.080762f, -0.031554f, 0.002400f, 0.037677f, -0.050218f, 0.109298f, 0.151920f, -0.015265f, -0.092762f, -0.207592f, 0.019095f, -0.019902f, 0.194346f, -0.204606f, 0.077199f, 0.189793f, -0.072572f, -0.049317f, 0.326759f, 0.135037f, 0.374246f, -0.304932f, 0.341449f, -0.143303f, 0.097878f, 0.227298f, -0.162568f, -0.321068f, -0.147076f, -0.414221f, -0.218495f, 0.297378f, -0.028389f, -0.071275f, -0.295609f, -0.111193f, -0.206550f, -0.312083f, -0.152183f, -0.257995f, -0.186709f, -0.120633f, -0.100678f, -0.070482f, 0.345706f, -0.414125f, 0.153043f, -0.294910f, 0.075163f, 0.004463f, 0.167345f, -0.013950f, -0.349667f, 0.150027f, -0.256262f, 0.372462f, -0.173209f, 0.043092f, 0.083574f, -0.241347f, -0.026755f, -0.344766f, -0.127049f, -0.283125f, -0.161831f, -0.158488f, 0.175638f, -0.019578f, 0.414673f, -0.154208f, -0.115534f, -0.098759f, 0.213463f, 0.153165f, 0.261561f, 0.036711f, -0.208909f, 0.018288f, -0.115236f, -0.072574f, -0.136122f, -0.286653f, -0.390171f, 0.262576f, -0.044567f, 0.145572f, -0.121151f, -0.097761f, 0.060544f, 0.170057f, -0.039981f, -0.360032f, -0.165353f, 0.192905f, -0.223931f, -0.240957f, -0.136266f, -0.225589f, -0.089127f, -0.139370f, 0.110822f, 0.011700f, 0.136103f, 0.009462f, -0.130527f, -0.125686f, 0.011423f, -0.020324f, 0.196882f, 0.011404f, -0.000203f, 0.106791f, 0.092648f, -0.181645f, 0.158426f, -0.084782f, -0.089549f, 0.190998f, 0.001225f, -0.075050f, 0.073557f, 0.113923f, 0.146087f, -0.125440f, -0.152524f, 0.223400f, 0.169761f, 0.055418f, -0.101113f, -0.012912f, -0.123178f, -0.065842f, 0.071535f, -0.142813f, 0.194212f, -0.063162f, 0.163280f, -0.162444f, -0.176602f, -0.027536f, -0.141118f, 0.055471f, -0.092861f, 0.013804f, 0.026124f, -0.060206f, -0.117821f, -0.019790f, -0.127966f, -0.100059f, -0.073268f, -0.014060f, -0.106309f, -0.073504f, 0.033384f, 0.018609f, 0.186477f, -0.077404f, -0.107369f, 0.136295f, 0.007167f, -0.221266f, 0.228202f, 0.164374f, -0.114883f, 0.096150f, 0.025214f, 0.029604f, 0.046069f, 0.011895f, 0.102429f, 0.183322f, 0.181566f, -0.085978f, 0.182905f, -0.022484f, 0.039409f, -0.001338f, 0.414895f, -0.031063f, 0.217340f, -0.194101f, -0.100718f, -0.137019f, 0.049361f, 0.016231f, 0.121472f, 0.004574f, -0.113745f, 0.070745f, 0.093188f, 0.043146f, -0.364280f, 0.052026f, -0.073202f, 0.022197f, -0.149605f, -0.206695f, -0.181157f, -0.202004f, -0.242951f, -0.123783f, 0.035844f, -0.070417f, 0.432267f, -0.368568f, -0.170282f, -0.266482f, -0.116526f, -0.140113f, 0.279613f, -0.004035f, -0.137324f, 0.043032f, -0.072592f, 0.021404f, -0.209831f, 0.041709f, 0.128825f, -0.000510f, -0.313789f, -0.120907f, 0.094967f, 0.030101f, -0.383177f, -0.171506f, -0.127845f, -0.151707f, 0.019431f, 0.039394f, 0.073162f, 0.103250f, 0.117293f, 0.057545f, 0.175052f, -0.168839f, -0.251483f, -0.194447f, -0.293363f, 0.016139f, 0.046572f, 0.291273f, -0.306546f, 0.195202f, -0.038323f, -0.127042f, -0.042155f, 0.055184f, -0.144792f, -0.085217f, 0.277938f, -0.230981f, -0.254341f, 0.233355f, 0.070811f, -0.345780f, -0.335846f, -0.378196f, -0.091291f, 0.202910f, -0.083482f, -0.038581f, 0.048329f, 0.013358f, 0.056490f, 0.142480f, 0.152873f, -0.026095f, -0.137991f, 0.064233f, -0.206342f, -0.225952f, 0.119829f, -0.186669f, 0.183046f, 0.005138f, 0.175896f, 0.194836f, 0.093808f, 0.091571f, -0.031147f, 0.115494f, 0.036272f, 0.013023f, 0.017520f, -0.152262f, 0.047566f, -0.108040f, -0.040326f, 0.000548f, -0.064970f, 0.058122f, 0.113143f, -0.125149f, 0.180212f, -0.063461f, 0.137360f, 0.175600f, -0.100270f, 0.104677f, 0.094243f, -0.209130f, -0.047037f, 0.044098f, 0.109426f, -0.047732f, 0.009567f, -0.127063f, 0.099516f, 0.135496f, 0.002939f, -0.051114f, 0.057580f, -0.144712f, 0.120935f, 0.011307f, 0.093037f, -0.066819f, -0.124770f, 0.062087f, -0.041616f, -0.055958f, 0.008727f, -0.137841f, 0.133807f, -0.187007f, -0.021861f, 0.201100f, 0.014737f, 0.034423f, -0.051249f, 0.112747f, -0.086650f, 0.068875f, 0.060107f, 0.043932f, 0.196003f, -0.028122f, -0.047254f, -0.118240f, -0.077537f, -0.238595f, -0.097322f, 0.055899f, -0.121495f, 0.087285f, -0.070421f, 0.033254f, 0.094792f, -0.126091f, 0.139919f, 0.041445f, 0.073495f, 0.095569f, -0.138265f, 0.107066f, -0.038748f, -0.014854f, 0.169748f, -0.066022f, 0.236213f, 0.070065f, -0.068602f, 0.010883f, -0.018343f, 0.149575f, -0.011807f, -0.179917f, -0.103213f, 0.088952f, -0.038116f, 0.032255f, -0.083038f, -0.113502f, 0.033629f, -0.085524f, -0.107856f, -0.083440f, 0.060094f, -0.054695f, 0.049082f, 0.098377f, -0.043665f, 0.001216f, -0.039002f, -0.055755f, 0.041576f, -0.017607f, -0.105011f, 0.136735f, -0.143473f, 0.122184f, -0.073878f, 0.033182f, 0.029708f, -0.107954f, 0.000414f, -0.100575f, -0.098307f, 0.057383f, -0.005990f, 0.127750f, 0.117503f, 0.145895f, -0.119841f, 0.181268f, 0.038243f, 0.107501f, -0.090128f, 0.034002f, 0.119806f, -0.002223f, 0.182073f, -0.045049f, 0.067586f, -0.169254f, -0.184450f, 0.110557f, 0.209960f, 0.048379f, -0.098716f, -0.114124f, 0.050469f, -0.120739f, 0.010755f, -0.049698f, 0.024017f, -0.117275f, -0.137581f, 0.036170f, -0.438289f, 0.119279f, -0.012929f, 0.074149f, -0.176847f, -0.187614f, 0.006879f, 0.103991f, -0.004552f, 0.028136f, -0.069919f, 0.205705f, -0.096493f, -0.063852f, -0.177452f, 0.123996f, 0.114438f, 0.006182f, 0.072000f, -0.018875f, -0.060516f, 0.005823f, -0.149172f, 0.139368f, -0.158027f, 0.159391f, 0.187048f, 0.193470f, -0.017003f, -0.019582f, 0.099395f, 0.115368f, 0.044501f, 0.085109f, -0.067760f, 0.185463f, 0.077852f, 0.113086f, -0.059935f, 0.065286f, 0.032887f, 0.092954f, 0.084269f, -0.080318f, 0.155341f, 0.034072f, 0.163634f, 0.094690f, 0.014514f, -0.106875f, -0.127115f, -0.176151f, -0.157773f, -0.000014f, 0.186009f, 0.066153f, -0.145300f, -0.071642f, -0.056293f, -0.109476f, -0.165766f, -0.126880f, 0.199422f, -0.035486f, -0.013005f, 0.103484f, 0.191956f, 0.184134f, 0.484050f, -0.105455f, 0.261629f, -0.054330f, 0.190966f, -0.051818f, 0.000470f, 0.061691f, 0.110735f, -0.270262f, -0.230019f, -0.088315f, -0.000681f, -0.194888f, -0.039716f, -0.554153f, -0.043880f, 0.074950f, -0.312280f, -0.357369f, -0.027950f, -0.262394f, -0.263070f, -0.042604f, -0.041273f, -0.022654f, 0.271549f, -0.192026f, -0.040463f, -0.200224f, -0.122673f, -0.221603f, 0.186829f, 0.417374f, -0.437050f, -0.032600f, -0.118210f, 0.175551f, -0.358170f, 0.125837f, -0.044892f, -0.088558f, -0.206898f, 0.024481f, -0.138665f, -0.198938f, -0.339572f, -0.085546f, -0.189285f, -0.062476f, 0.097540f, 0.000779f, 0.036890f, -0.075012f, -0.076350f, -0.122791f, 0.217145f, -0.090556f, -0.378895f, 0.161549f, -0.074378f, 0.096614f, -0.005591f, 0.233666f, -0.241210f, 0.307049f, -0.230523f, -0.180358f, -0.017415f, -0.031858f, -0.052915f, 0.301348f, 0.235509f, -0.374776f, -0.350372f, 0.315795f, -0.219540f, -0.085450f, -0.285439f, -0.225437f, 0.178646f, -0.094065f, -0.342727f, 0.068712f, -0.151086f, -0.090265f, 0.181242f, 0.053999f, -0.198295f, -0.046671f, -0.123801f, 0.152948f, 0.325102f, -0.111186f, -0.028277f, 0.053698f, 0.045882f, -0.302627f, 0.143884f, 0.191223f, 0.114668f, -0.200409f, -0.003286f, -0.010132f, -0.083334f, -0.217710f, 0.146883f, -0.283200f, -0.049335f, 0.095068f, 0.125303f, 0.178998f, -0.211842f, -0.199819f, 0.060182f, -0.058277f, -0.079588f, -0.031953f, 0.052872f, -0.171774f, -0.044695f, 0.057812f, 0.110994f, -0.053712f, 0.145809f, -0.139551f, 0.041524f, -0.108245f, -0.071207f, 0.129893f, 0.122076f, -0.100842f, -0.248426f, 0.053001f, -0.025911f, -0.167604f, 0.049597f, 0.012722f, -0.179171f, 0.033293f, -0.072270f, -0.057401f, 0.041246f, 0.057626f, -0.036786f, -0.144086f, 0.172722f, -0.012707f, 0.121476f, -0.084784f, 0.003468f, 0.084269f, 0.187898f, -0.048701f, -0.073006f, -0.140126f, 0.194289f, -0.104803f, 0.096342f, 0.147426f, -0.053866f, 0.176087f, -0.143503f, 0.101882f, -0.027160f, 0.136677f, -0.099019f, -0.036702f, 0.116505f, 0.109173f, -0.042308f, -0.080135f, -0.225355f, -0.065551f, -0.113816f, -0.186820f, 0.110532f, -0.150317f, -0.200426f, 0.079893f, -0.041953f, -0.213030f, 0.027110f, -0.025391f, -0.208474f, -0.165082f, 0.098018f, 0.055221f, 0.080950f, 0.071439f, -0.016318f, -0.134990f, -0.060650f, 0.180423f, 0.182253f, -0.075246f, 0.037984f, 0.214759f, -0.009975f, -0.012872f, -0.136226f, 0.074471f, 0.177310f, -0.032312f, 0.065965f, 0.164308f, 0.037485f, -0.064031f, 0.180789f, -0.144576f, 0.169883f, -0.060410f, -0.092698f, 0.065182f, 0.129714f, -0.126462f, 0.012394f, -0.078895f, -0.063555f, -0.169962f, 0.122246f, 0.010824f, 0.129547f, -0.075659f, 0.107777f, -0.197671f, 0.234044f, 0.002698f, 0.157865f, 0.151367f, 0.127721f, -0.258033f, -0.052478f, 0.011497f, 0.139926f, -0.191188f, -0.146904f, 0.010064f, 0.045367f, 0.198121f, 0.019942f, -0.245490f, 0.088416f, -0.170853f, 0.013183f, 0.135862f, -0.167860f, -0.165227f, 0.092251f, 0.127064f, 0.067043f, -0.009150f, 0.054793f, -0.018327f, 0.083137f, -0.131322f, -0.010023f, 0.062748f, 0.018378f, 0.161618f, 0.145009f, 0.232690f, -0.046810f, 0.018726f, 0.083379f, 0.125399f, 0.091539f, 0.173182f, -0.033365f, -0.036065f, -0.136011f, -0.000324f, -0.168082f, 0.147975f, 0.195846f, 0.132149f, 0.043607f, 0.034657f, -0.009536f, -0.145842f, 0.107340f, 0.163685f, 0.020062f, -0.015930f, 0.257523f, 0.219846f, -0.052220f, 0.030289f, -0.062088f, 0.062736f, -0.112947f, -0.200025f, -0.054049f, 0.179353f, 0.223900f, -0.074199f, 0.115272f, 0.089483f, 0.244218f, -0.028058f, -0.087828f, 0.258971f, 0.211396f, 0.347692f, 0.180151f, 0.281534f, -0.231873f, -0.182679f, 0.047185f, -0.156256f, -0.134099f, -0.057280f, 0.098546f, 0.045399f, 0.142291f, 0.191846f, 0.045336f, 0.124882f, 0.053754f, 0.146587f, 0.267408f, 0.028762f, 0.150136f, -0.057521f, 0.153703f, -0.092621f, 0.166568f, 0.186064f, -0.194989f, 0.107569f, -0.030833f, -0.106306f, -0.116763f, -0.087274f, 0.090656f, 0.233688f, 0.168419f, 0.099522f, 0.110463f, -0.023708f, -0.037068f, -0.039227f, 0.051861f, 0.012773f, -0.016299f, -0.126974f, 0.047570f, 0.197646f, 0.025519f, 0.109616f, -0.175379f, -0.202340f, -0.114407f, -0.137771f, 0.092858f, -0.206946f, 0.006437f, 0.231848f, -0.131165f, -0.169299f, -0.139860f, -0.162355f, 0.217480f, 0.059851f, 0.202939f, -0.071159f, 0.034437f, 0.108799f, 0.137847f, 0.203620f, 0.113621f, -0.203174f, 0.114197f, -0.192229f, 0.073080f, -0.093469f, -0.076554f, -0.026979f, -0.002074f, -0.057813f, 0.111112f, 0.122804f, -0.134862f, 0.055736f, -0.120536f, -0.104076f, -0.126954f, -0.086646f, -0.084175f, 0.006851f, -0.175665f, 0.004535f, -0.016431f, -0.121008f, -0.111609f, -0.033251f, -0.103884f, 0.089483f, 0.103562f, 0.206090f, 0.180365f, -0.014167f, -0.128173f, -0.162241f, -0.094997f, -0.053679f, 0.073201f, -0.043190f, 0.116615f, 0.129734f, 0.129903f, 0.201052f, 0.109216f, -0.209989f, 0.152006f, -0.000950f, 0.037767f, 0.042010f, -0.011156f, -0.107606f, 0.194087f, 0.014601f, 0.159295f, -0.077642f, 0.080987f, 0.084173f, -0.071074f, 0.157323f, 0.047568f, 0.109898f, -0.098120f, -0.059983f, -0.027788f, -0.059735f, 0.083665f, 0.085466f, -0.000491f, -0.264823f, 0.213433f, -0.068296f, -0.099362f, -0.163045f, 0.188222f, -0.079806f, -0.108456f, 0.045292f, 0.195448f, -0.003041f, -0.223709f, 0.119235f, 0.079616f, 0.131596f, -0.122851f, -0.159199f, 0.089728f, -0.032029f, -0.250090f, 0.133039f, 0.035556f, -0.156994f, 0.127362f, -0.034763f, -0.131662f, 0.093981f, 0.072735f, 0.135808f, -0.050388f, -0.106390f, 0.185861f, -0.040639f, 0.004230f, -0.071567f, -0.093670f, -0.030585f, -0.019995f, 0.176752f, -0.120078f, 0.187481f, 0.158926f, -0.011530f, -0.091919f, -0.344889f, 0.165609f, 0.054978f, -0.162605f, 0.343060f, 0.021711f, -0.292674f, 0.107959f, 0.388554f, 0.058009f, 0.192819f, -0.064318f, -0.156798f, -0.097335f, 0.223242f, 0.001887f, 0.206164f, 0.135389f, 0.045004f, 0.013254f, -0.053792f, 0.223690f, 0.100359f, 0.131202f, -0.124178f, -0.076432f, -0.011341f, 0.161177f, -0.008469f, 0.055480f, -0.252762f, 0.070479f, 0.011103f, 0.276798f, 0.184273f, 0.190134f, -0.095777f, 0.315979f, 0.116815f, -0.203796f, -0.217279f, 0.213808f, 0.159529f, 0.093277f, 0.107599f, 0.343927f, -0.030246f, 0.003398f, 0.156584f, -0.171744f, -0.015904f, 0.093275f, -0.248407f, 0.322336f, 0.088884f, 0.216879f, -0.013821f, 0.130328f, -0.145970f, 0.015715f, 0.219258f, 0.202282f, -0.019645f, 0.369788f, 0.055958f, -0.368028f, -0.158293f, 0.023991f, -0.279425f, -0.077410f, -0.191698f, 0.125389f, 0.067508f, 0.088162f, -0.029504f, 0.084094f, 0.273622f, 0.074322f, 0.132105f, -0.076662f, 0.087584f, -0.040115f, 0.204500f, -0.158003f, -0.114361f, 0.044622f, 0.081683f, -0.126925f, -0.121219f, -0.112679f, -0.087564f, 0.212373f, 0.031295f, 0.140461f, -0.228011f, -0.060232f, -0.036479f, -0.071251f, -0.124731f, -0.054208f, 0.043351f, 0.114485f, 0.127058f, 0.093247f, -0.015961f, -0.145170f, -0.350733f, 0.187806f, 0.011937f, 0.136662f, 0.099569f, -0.181233f, -0.104907f, 0.083389f, 0.116724f, 0.052388f, 0.067914f, 0.183559f, -0.040174f, -0.060384f, 0.133145f, 0.151281f, 0.127338f, -0.049794f, -0.102022f, 0.183339f, -0.155004f, 0.159235f, -0.184546f, -0.183375f, 0.150146f, -0.279941f, 0.151112f, 0.016434f, 0.041868f, -0.041920f, 0.148817f, 0.069973f, 0.139999f, 0.161369f, 0.113292f, -0.022718f, -0.077809f, 0.201156f, 0.197649f, -0.024510f, -0.175225f, -0.170107f, -0.142109f, 0.250909f, -0.061477f, -0.029375f, 0.112617f, 0.126425f, 0.119843f, 0.022723f, 0.039600f, -0.160133f, 0.006083f, 0.041465f, 0.234197f, 0.033681f, 0.140675f, -0.041500f, -0.077791f, 0.122200f, 0.046562f, 0.004548f, 0.144651f, -0.072291f, 0.158841f, -0.235705f, -0.058959f, -0.098586f, 0.030297f, 0.072564f, -0.339388f, -0.028301f, 0.126740f, 0.097617f, -0.275935f, -0.131739f, -0.226462f, 0.129963f, -0.034021f, 0.247524f, 0.110164f, -0.115710f, -0.189544f, 0.104692f, -0.190004f, -0.224929f, 0.133295f, 0.078440f, 0.110893f, -0.151628f, 0.166081f, -0.157837f, 0.085052f, 0.106510f, -0.353367f, -0.144171f, 0.029577f, 0.108593f, 0.151640f, -0.135477f, -0.075881f, 0.185072f, 0.091127f, -0.068378f, -0.118242f, 0.039692f, 0.165876f, 0.103926f, -0.030838f, 0.097798f, -0.019554f, -0.049903f, -0.174455f, 0.070143f, 0.090175f, 0.071220f, -0.126758f, -0.089735f, 0.172439f, 0.209310f, 0.010976f, -0.104079f, 0.072547f, 0.009637f, -0.201679f, 0.105122f, 0.048317f, 0.026295f, -0.127699f, -0.068992f, 0.032387f, 0.015690f, -0.059817f, -0.051895f, -0.025513f, -0.024503f, -0.106998f, 0.119889f, 0.060299f, -0.022740f, -0.073707f, 0.180284f, -0.139250f, 0.205098f, 0.112647f, 0.166967f, 0.272020f, -0.263729f, 0.217525f, -0.039233f, -0.090536f, 0.044986f, -0.046969f, -0.098950f, 0.148331f, -0.004738f, -0.027456f, -0.067906f, 0.026262f, 0.009179f, -0.008689f, 0.055561f, -0.020539f, -0.052131f, -0.148240f, -0.175868f, 0.093553f, 0.106757f, 0.183811f, 0.082258f, -0.007465f, 0.074802f, 0.094271f, 0.114351f, -0.143107f, -0.076320f, -0.030521f, -0.149570f, -0.122601f, -0.019394f, 0.205240f, 0.151174f, 0.085420f, -0.151601f, -0.022066f, 0.140266f, 0.119282f, 0.020713f, 0.019385f, 0.080253f, 0.118163f, 0.181404f, -0.192935f, 0.049582f, -0.015357f, -0.039057f, -0.039475f, -0.060415f, -0.149962f, 0.053042f, 0.144643f, 0.160566f, 0.027640f, -0.187468f, 0.095491f, -0.073335f, 0.006615f, -0.105581f, -0.112444f, 0.188178f, 0.137941f, 0.012273f, 0.066456f, -0.214778f, -0.001552f, -0.057390f, -0.048599f, 0.033009f, -0.061953f, 0.102651f, 0.099899f, 0.121065f, 0.035712f, 0.056904f, -0.059655f, 0.182306f, 0.070219f, 0.044281f, 0.236397f, 0.202151f, -0.008622f, 0.051053f, 0.022616f, 0.110382f, -0.086830f, -0.000163f, -0.019168f, 0.152166f, -0.213808f, 0.160586f, 0.173914f, -0.024981f, 0.135062f, -0.111120f, 0.175425f, 0.045612f, 0.048541f, -0.116583f, -0.114553f, 0.123957f, 0.192078f, 0.097848f, -0.172943f, 0.046108f, -0.138837f, -0.092062f, -0.173079f, 0.128394f, 0.051651f, 0.242720f, 0.019973f, -0.013545f, 0.127706f, -0.210256f, -0.085096f, -0.167734f, -0.077651f, 0.006741f, 0.180302f, 0.144319f, -0.020279f, 0.017103f, 0.029634f, -0.068490f, 0.216200f, 0.099941f, 0.090530f, 0.151802f, -0.027878f, 0.120192f, -0.097487f, 0.154108f, 0.157198f, 0.124203f, -0.207086f, 0.123755f, -0.026777f, 0.161682f, 0.281047f, 0.211522f, -0.117760f, 0.113450f, -0.007979f, 0.150329f, -0.008877f, -0.023817f, -0.042349f, 0.209139f, 0.110580f, 0.178373f, 0.226520f, 0.060789f, 0.149911f, -0.076959f, 0.163157f, 0.132187f, -0.245041f, -0.180417f, -0.064505f, 0.150449f, -0.188392f, 0.110125f, -0.028266f, 0.194253f, -0.033485f, 0.051626f, 0.154510f, 0.034733f, -0.224889f, 0.139098f, -0.162161f, -0.166906f, 0.160250f, 0.120318f, -0.089434f, 0.031306f, -0.135438f, -0.125599f, -0.096552f, 0.067717f, -0.117617f, 0.172306f, -0.133288f, 0.074263f, -0.014329f, -0.147867f, 0.007592f, 0.195913f, 0.084060f, 0.126368f, 0.191873f, 0.130668f, 0.034368f, 0.008307f, -0.105354f, 0.205626f, -0.078576f, 0.055848f, -0.005867f, -0.123436f, -0.057695f, 0.072085f, -0.100998f, 0.044563f, -0.033348f, -0.056474f, 0.128990f, -0.098374f, -0.203660f, 0.081021f, -0.187369f, 0.071862f, 0.082764f, 0.165374f, -0.294793f, 0.179271f, -0.055677f, 0.191785f, -0.126093f, -0.003799f, -0.129546f, 0.105356f, -0.176710f, -0.095708f, 0.248682f, -0.220533f, -0.007717f, 0.217821f, 0.118873f, 0.071153f, -0.087726f, -0.200564f, -0.080407f, -0.149995f, -0.038251f, -0.327380f, 0.139674f, -0.108832f, -0.131103f, 0.019252f, -0.076413f, 0.135579f, -0.201738f, 0.086728f, -0.216207f, 0.205865f, 0.122560f, 0.159052f, -0.106944f, -0.080477f, -0.327895f, 0.051905f, 0.062768f, -0.186442f, -0.344366f, 0.086171f, 0.149331f, 0.050776f, -0.192218f, 0.045387f, -0.077660f, -0.162437f, 0.013216f, 0.048919f, -0.153432f, 0.119081f, 0.006119f, -0.139982f, 0.080997f, -0.174735f, -0.170577f, 0.075743f, -0.082801f, 0.133179f, -0.188122f, 0.303748f, -0.027457f, -0.221173f, 0.129190f, 0.070697f, -0.192379f, 0.119431f, -0.192843f, -0.074859f, -0.004498f, 0.034728f, 0.120488f, 0.087981f, -0.144904f, 0.157598f, 0.161799f, 0.025865f, 0.119253f, 0.018808f, -0.037251f, 0.026066f, -0.252567f, -0.192304f, 0.047612f, -0.120654f, -0.094159f, -0.085585f, 0.070064f, 0.347276f, -0.290907f, 0.334290f, -0.177087f, 0.219744f, -0.023147f, -0.041933f, -0.122488f, -0.170162f, -0.088920f, -0.433190f, -0.206730f, 0.141398f, -0.272433f, -0.431838f, -0.280321f, -0.111966f, 0.342014f, -0.008545f, -0.256155f, -0.074011f, -0.220159f, -0.315580f, -0.324421f, -0.037230f, -0.193542f, 0.585679f, -0.415561f, -0.537499f, -0.162364f, -0.062458f, 0.197597f, 0.336306f, 0.173692f, -0.498433f, 0.035810f, -0.232751f, 0.082485f, -0.347271f, -0.079056f, 0.005661f, 0.044035f, -0.436657f, -0.106661f, -0.131833f, -0.081153f, -0.313218f, -0.100584f, -0.143496f, -0.101956f, 0.345484f, -0.055217f, -0.096494f, 0.142449f, -0.123057f, 0.153293f, 0.187920f, 0.086689f, -0.460043f, 0.118317f, 0.031309f, -0.122670f, -0.226904f, 0.475722f, -0.484355f, 0.444733f, 0.128559f, -0.007113f, -0.038900f, -0.067381f, -0.419314f, 0.097500f, 0.306352f, -0.334361f, -0.545559f, 0.564639f, -0.045434f, -0.490389f, -0.161254f, -0.129876f, -0.026637f, -0.054094f, -0.266272f, 0.174486f, 0.154460f, -0.260594f, -0.142099f, 0.118741f, 0.002454f, -0.250078f, 0.161756f, -0.180397f, -0.070578f, 0.023559f, 0.057155f, -0.036367f, -0.019819f, 0.167487f, -0.126737f, 0.061671f, -0.172694f, -0.090528f, -0.131481f, -0.000251f, 0.060798f, -0.074644f, 0.192109f, 0.230036f, -0.046270f, -0.053949f, 0.043949f, -0.192391f, -0.119585f, 0.118355f, -0.179864f, -0.015307f, 0.171657f, 0.044963f, 0.144778f, 0.131298f, 0.183417f, 0.107493f, 0.041708f, -0.255378f, 0.102028f, -0.232422f, -0.041073f, -0.086933f, -0.008682f, -0.082385f, 0.069996f, -0.118633f, -0.133990f, 0.058657f, 0.130295f, 0.046588f, 0.056801f, 0.001412f, 0.172280f, -0.008556f, -0.034183f, -0.084481f, -0.230765f, 0.008254f, 0.100813f, -0.056806f, -0.104053f, 0.118185f, 0.032547f, -0.050536f, 0.073641f, -0.027191f, -0.116944f, 0.201267f, 0.056180f, -0.087262f, -0.112681f, 0.142952f, 0.158633f, 0.024480f, 0.414084f, -0.223294f, 0.081182f, -0.122858f, 0.256500f, -0.297306f, 0.295601f, -0.063997f, 0.191380f, 0.135579f, -0.066763f, -0.094513f, 0.238160f, -0.172617f, -0.361849f, -0.134882f, -0.028583f, -0.012160f, 0.030953f, -0.361984f, -0.202752f, 0.176486f, -0.317958f, -0.383526f, 0.127202f, -0.002366f, 0.431328f, -0.359613f, -0.387271f, -0.276550f, 0.120640f, 0.161177f, 0.289003f, -0.116747f, -0.343341f, -0.126039f, -0.088548f, 0.107288f, -0.107882f, 0.095030f, -0.046261f, -0.041579f, -0.120511f, 0.236089f, -0.236388f, -0.153940f, -0.345448f, -0.326103f, -0.115636f, -0.066701f, 0.371998f, 0.052260f, -0.151561f, -0.033266f, -0.052598f, -0.075346f, 0.361891f, -0.009201f, -0.085160f, -0.103710f, -0.039086f, -0.124631f, -0.149530f, 0.040904f, -0.136903f, 0.256126f, -0.192462f, -0.152887f, -0.121623f, -0.204916f, -0.279830f, -0.038018f, 0.315411f, -0.341467f, -0.120196f, 0.117230f, -0.178961f, -0.325251f, -0.142213f, -0.081777f, -0.246791f, -0.030000f, -0.095387f, -0.201083f, 0.221993f, -0.071265f, -0.048290f, -0.066988f, 0.145717f, -0.095219f, 0.088443f, -0.235931f, -0.505630f, 0.137246f, -0.181961f, -0.011785f, -0.123320f, 0.140076f, -0.012935f, 0.075733f, -0.269374f, 0.120194f, -0.261903f, 0.017972f, -0.106381f, -0.053388f, 0.062934f, -0.087005f, -0.268359f, -0.031708f, -0.198469f, -0.365866f, 0.060590f, 0.324494f, -0.046459f, -0.036186f, -0.282969f, 0.049822f, -0.149542f, -0.140180f, 0.104816f, -0.045770f, 0.022080f, -0.194491f, -0.300924f, -0.226221f, -0.122210f, -0.224743f, 0.267808f, -0.138705f, 0.114155f, 0.033540f, 0.127224f, -0.028281f, 0.018214f, 0.123710f, -0.014209f, 0.010850f, -0.230244f, 0.130319f, 0.076110f, 0.046533f, -0.256137f, 0.093062f, -0.119965f, -0.162735f, 0.108674f, -0.121721f, -0.266522f, -0.084188f, -0.000728f, 0.103084f, -0.050138f, -0.050596f, -0.114106f, -0.090184f, -0.198011f, -0.196347f, -0.266380f, -0.193915f, 0.189619f, 0.202075f, -0.129022f, -0.097612f, 0.149937f, 0.010482f, 0.203697f, 0.221618f, -0.128709f, 0.104539f, -0.142860f, -0.119093f, -0.407642f, 0.049776f, -0.307670f, -0.085430f, 0.106113f, -0.135546f, -0.078131f, -0.006612f, 0.159093f, -0.166142f, -0.428670f, -0.025213f, -0.188708f, 0.003824f, -0.000760f, -0.280593f, 0.172218f, 0.029237f, -0.084268f, -0.144195f, -0.073827f, 0.130442f, 0.181497f, -0.051631f, 0.115777f, 0.043967f, -0.191648f, -0.075822f, -0.096789f, -0.289515f, -0.080048f, 0.084259f, -0.148174f, 0.092648f, 0.051188f, 0.009245f, -0.076605f, -0.221612f, -0.105237f, 0.141650f, 0.003423f, -0.188104f, 0.103704f, -0.097693f, -0.079295f, -0.169353f, -0.200407f, 0.115762f, 0.071248f, -0.102342f, 0.039751f, -0.183622f, 0.163470f, 0.101731f, 0.056935f, -0.174559f, -0.075989f, 0.160817f, 0.214721f, 0.024169f, 0.178250f, 0.176722f, 0.087416f, 0.180231f, -0.096935f, 0.072720f, 0.178541f, 0.077296f, 0.230476f, -0.079715f, 0.408172f, 0.021828f, 0.147987f, 0.079176f, -0.024920f, 0.064100f, -0.151753f, 0.114469f, -0.219802f, -0.152928f, 0.067300f, 0.082208f, -0.150431f, 0.338558f, -0.185331f, -0.056397f, -0.110915f, -0.229244f, -0.203782f, -0.100748f, -0.262660f, -0.237199f, 0.155282f, 0.113155f, 0.165180f, -0.413215f, -0.174049f, 0.039315f, -0.076574f, -0.093930f, 0.117111f, -0.041322f, -0.210624f, -0.117497f, -0.199206f, 0.157009f, -0.277244f, -0.044590f, -0.122257f, 0.096547f, -0.199765f, 0.074949f, -0.172602f, 0.026016f, -0.147594f, -0.305397f, -0.129656f, 0.004025f, 0.206282f, -0.013713f, -0.195262f, -0.121181f, 0.045084f, -0.039728f, 0.270346f, 0.038386f, 0.046826f, -0.082518f, -0.096945f, -0.217340f, -0.172271f, 0.038446f, -0.211204f, 0.016484f, 0.281608f, -0.139412f, -0.194857f, 0.062293f, -0.156334f, 0.000568f, 0.282203f, -0.227876f, -0.036196f, 0.312872f, -0.014860f, -0.387997f, -0.358602f, -0.020887f, 0.025286f, 0.267058f, -0.078291f, -0.206985f, 0.147928f, -0.086130f, 0.244986f, 0.102869f, -0.087285f, -0.065446f, 0.138146f, -0.038824f, -0.571694f, -0.029144f, 0.230067f, 0.195172f, 0.166057f, -0.017236f, -0.079886f, -0.150299f, 0.017521f, 0.161756f, 0.231722f, -0.043678f, 0.123466f, -0.134326f, 0.184060f, 0.046357f, -0.134230f, 0.025589f, 0.105698f, -0.205767f, 0.027333f, -0.079858f, 0.039934f, 0.088405f, 0.149428f, -0.082661f, 0.169399f, 0.121472f, -0.056030f, 0.253469f, 0.074993f, -0.046248f, -0.081963f, 0.044135f, 0.131755f, -0.036504f, -0.089261f, -0.025112f, -0.007076f, -0.022751f, -0.080304f, 0.077979f, -0.144668f, -0.110125f, -0.205657f, -0.161901f, 0.040146f, 0.117005f, 0.127369f, -0.169292f, -0.083673f, -0.006336f, 0.036853f, -0.208178f, 0.131488f, -0.036039f, 0.187770f, -0.144685f, 0.105312f, -0.112207f, -0.115587f, 0.064612f, -0.005678f, -0.456505f, 0.046545f, -0.058241f, 0.135997f, 0.158131f, -0.081708f, -0.137484f, -0.075504f, -0.069358f, -0.000222f, -0.135551f, -0.032193f, -0.092409f, -0.083149f, -0.047776f, 0.238794f, 0.085051f, -0.398894f, 0.227547f, 0.196610f, -0.009086f, -0.050459f, -0.217335f, 0.143691f, 0.251675f, 0.096749f, -0.098057f, 0.269910f, 0.174921f, 0.110931f, -0.163435f, -0.121443f, 0.203091f, -0.013820f, 0.262596f, 0.137737f, -0.245700f, -0.171304f, 0.217274f, -0.051501f, 0.059872f, 0.145419f, 0.260650f, 0.019930f, -0.081946f, -0.157004f, 0.192930f, 0.204199f, -0.006557f, -0.032773f, 0.107399f, 0.060650f, -0.092976f, -0.033593f, -0.023109f, 0.135097f, -0.163877f, -0.103935f, 0.122338f, 0.088300f, 0.092752f, 0.080382f, 0.013837f, 0.068869f, -0.065660f, -0.032125f, 0.024197f, -0.093692f, -0.091325f, 0.055441f, -0.114909f, -0.028435f, 0.080071f, 0.019777f, 0.208471f, -0.014233f, 0.112662f, -0.139359f, -0.106739f, 0.168891f, -0.057765f, 0.053316f, 0.131325f, -0.063993f, 0.104493f, 0.018710f, 0.082965f, -0.178843f, 0.148198f, -0.153039f, -0.056014f, 0.090764f, 0.170263f, -0.117905f, 0.020875f, -0.037950f, 0.012673f, -0.130636f, 0.019806f, 0.078204f, -0.077281f, -0.015498f, 0.066311f, -0.035700f, 0.162407f, 0.200737f, 0.139267f, 0.010996f, -0.031073f, -0.099251f, 0.134481f, -0.038346f, 0.095909f, 0.010867f, -0.093103f, -0.082701f, -0.048573f, 0.141871f, -0.121556f, 0.161848f, -0.013944f, 0.183331f, 0.111927f, 0.176947f, 0.137831f, -0.049129f, 0.152634f, 0.124010f, 0.109628f, -0.014311f, -0.037421f, 0.109035f, -0.011321f, 0.135505f, -0.065026f, -0.072063f, -0.093636f, -0.030559f, 0.027866f, 0.070055f, -0.151184f, 0.152192f, -0.214147f, 0.139901f, 0.046505f, 0.130394f, 0.100120f, -0.169957f, -0.073192f, -0.118343f, 0.087690f, 0.149684f, -0.104112f, -0.163414f, 0.123376f, -0.206740f, 0.001925f, 0.096325f, -0.144462f, -0.016097f, 0.186493f, 0.138063f, 0.056290f, -0.150197f, 0.033852f, 0.152939f, -0.030856f, -0.092990f, 0.117553f, 0.085120f, 0.024949f, 0.234822f, -0.025962f, -0.163561f, -0.131093f, -0.091543f, 0.044965f, -0.026938f, -0.014525f, -0.103293f, -0.155151f, 0.162498f, -0.004292f, -0.133095f, 0.181223f, 0.047433f, -0.099184f, 0.051258f, -0.045353f, -0.072968f, -0.166848f, -0.131766f, -0.066810f, 0.105318f, 0.058058f, -0.100876f, 0.197961f, 0.012843f, -0.133892f, -0.023032f, -0.205954f, -0.058701f, 0.202494f, -0.044308f, -0.121449f, -0.088705f, -0.025265f, -0.098596f, 0.061625f, -0.013053f, -0.227402f, -0.050073f, 0.167523f, 0.131657f, 0.071355f, 0.171257f, 0.045973f, -0.113703f, 0.115580f, 0.101267f, -0.214865f, -0.254069f, 0.000561f, 0.102492f, -0.022640f, -0.088449f, -0.155548f, 0.095393f, -0.212216f, -0.052330f, 0.039247f, -0.020115f, 0.040376f, 0.150068f, 0.062764f, -0.054408f, 0.113128f, -0.180753f, 0.091003f, 0.125687f, 0.045198f, 0.032598f, -0.061536f, -0.024738f, 0.061682f, 0.141199f, 0.162921f, -0.353848f, 0.061010f, -0.090378f, 0.144633f, 0.056646f, 0.171048f, -0.073007f, -0.011815f, 0.205089f, 0.123817f, -0.015936f, -0.227528f, 0.074666f, -0.068009f, 0.154345f, -0.190371f, -0.108652f, -0.031706f, -0.073257f, -0.143242f, -0.247229f, -0.073881f, 0.059901f, -0.083579f, 0.136919f, -0.122609f, 0.017505f, 0.226198f, 0.112708f, 0.148759f, 0.042726f, 0.070749f, -0.060325f, 0.159502f, 0.151054f, -0.144169f, -0.059543f, -0.131849f, -0.077197f, 0.046001f, 0.003896f, 0.035194f, 0.122687f, 0.142856f, -0.065376f, -0.116021f, -0.103338f, 0.047742f, 0.086515f, -0.191615f, 0.099352f, -0.166612f, 0.039349f, -0.167923f, -0.183876f, -0.160666f, 0.050679f, -0.193450f, 0.099579f, 0.208551f, -0.099303f, 0.148151f, 0.101171f, -0.178231f, 0.159517f, 0.130084f, 0.090203f, 0.036034f, 0.103649f, -0.158937f, -0.033181f, -0.164800f, -0.070210f, -0.189786f, 0.049088f, -0.070119f, 0.094986f, 0.095477f, 0.112898f, -0.123318f, 0.188620f, -0.008910f, -0.165200f, 0.117502f, 0.012294f, 0.069043f, -0.186671f, -0.118401f, -0.112923f, 0.018135f, 0.208301f, -0.152587f, -0.014301f, 0.160487f, -0.018564f, 0.204790f, 0.110252f, -0.083603f, 0.202366f, 0.016881f, -0.020136f, 0.012357f, -0.074156f, -0.184858f, -0.021467f, 0.132363f, -0.153554f, -0.010587f, -0.161203f, 0.108442f, 0.121414f, 0.018514f, -0.079020f, -0.102361f, -0.110836f, -0.089350f, 0.137653f, -0.252855f, 0.089918f, 0.031451f, 0.164859f, -0.090878f, -0.080443f, 0.155780f, 0.205638f, 0.049967f, 0.095084f, -0.039115f, 0.138395f, 0.143824f, -0.207153f, -0.126346f, -0.099149f, -0.115183f, 0.202297f, 0.129729f, 0.023989f, -0.011232f, -0.055611f, 0.022439f, 0.102016f, 0.193880f, -0.077958f, 0.063432f, -0.010038f, -0.087202f, -0.093515f, 0.159601f, 0.144145f, -0.003000f, -0.115002f, 0.116401f, 0.117607f, 0.118463f, 0.091936f, 0.055597f, -0.060704f, -0.009287f, 0.019546f, 0.170718f, -0.102708f, 0.127486f, 0.070555f, 0.121977f, -0.013977f, 0.053572f, 0.139691f, 0.180786f, 0.152354f, 0.069904f, -0.202581f, -0.132964f, -0.233103f, -0.040260f, 0.152842f, -0.005782f, -0.087436f, 0.164288f, 0.131376f, 0.031777f, -0.056812f, -0.153797f, -0.042920f, 0.103159f, 0.069660f, 0.071591f, -0.154971f, -0.144092f, -0.132180f, -0.201919f, 0.145283f, -0.052128f, -0.045058f, -0.041184f, -0.062049f, 0.101232f, 0.082739f, -0.101325f, 0.035620f, -0.073162f, 0.056623f, -0.212546f, -0.090117f, 0.155028f, 0.078670f, 0.071824f, 0.185114f, -0.188875f, -0.065107f, -0.147721f, 0.198387f, -0.055541f, -0.019846f, -0.122692f, -0.024134f, 0.064187f, -0.029762f, 0.028289f, -0.213070f, -0.024776f, -0.089648f, 0.081002f, 0.165912f, 0.109306f, -0.119204f, 0.164244f, -0.105840f, 0.003801f, 0.200800f, 0.048499f, -0.099390f, -0.083852f, 0.189832f, -0.157178f, -0.135890f, -0.118235f, -0.163893f, 0.036993f, 0.241958f, 0.022464f, -0.191700f, -0.006034f, 0.071718f, -0.176141f, -0.040802f, -0.098286f, 0.015623f, -0.059816f, -0.119743f, 0.128868f, 0.226056f, -0.070403f, 0.010752f, 0.009864f, -0.090797f, -0.071494f, 0.053538f, -0.108607f, -0.148140f, -0.232593f, -0.085071f, -0.197250f, -0.038588f, -0.186871f, 0.025392f, -0.008110f, -0.041993f, -0.011978f, -0.147010f, 0.149628f, 0.118876f, 0.204701f, -0.159582f, -0.226275f, 0.088120f, 0.070156f, -0.181775f, 0.119128f, 0.132101f, -0.205672f, -0.177483f, -0.064185f, 0.077739f, 0.244016f, 0.046753f, 0.127530f, -0.040104f, -0.079374f, -0.076711f, 0.083665f, 0.248025f, 0.086499f, -0.105881f, -0.110042f, 0.069840f, -0.241211f, -0.138349f, 0.027078f, -0.137698f, -0.120033f, -0.189545f, -0.161206f, -0.165644f, -0.166767f, 0.016729f, -0.130099f, -0.281199f, 0.286229f, 0.164936f, -0.164338f, -0.123086f, 0.011773f, -0.166458f, -0.175972f, 0.024410f, -0.066135f, -0.150899f, -0.210917f, -0.202140f, -0.073796f, 0.054492f, -0.174166f, -0.011769f, 0.126289f, -0.190501f, -0.148357f, 0.010242f, -0.031168f, 0.002236f, -0.068338f, -0.191725f, 0.225904f, 0.122965f, 0.150557f, 0.056227f, 0.004244f, -0.079650f, 0.208177f, -0.118341f, 0.222715f, -0.086410f, -0.114482f, 0.126478f, -0.007006f, -0.125077f, 0.181688f, 0.162334f, -0.114109f, 0.074138f, -0.313844f, 0.129140f, 0.009574f, 0.205649f, 0.190182f, 0.198548f, 0.154471f, 0.124095f, 0.151375f, -0.135635f, -0.031154f, -0.075330f, 0.128266f, -0.092866f, 0.048477f, 0.200328f, -0.123925f, -0.010784f, -0.055477f, -0.106585f, -0.017254f, 0.154643f, -0.208577f, 0.043185f, 0.063785f, -0.144215f, -0.002870f, 0.090011f, 0.075860f, 0.107924f, 0.197909f, 0.048801f, 0.020077f, 0.028969f, -0.125505f, 0.143564f, -0.077680f, -0.181867f, -0.129478f, 0.051875f, 0.071120f, 0.221843f, 0.185860f, 0.051268f, -0.003151f, 0.236340f, -0.037861f, 0.029895f, 0.222795f, 0.365149f, 0.129189f, 0.224071f, 0.063260f, 0.214297f, -0.171767f, 0.062883f, 0.155265f, 0.143330f, -0.073220f, -0.468160f, -0.248015f, -0.011140f, -0.029415f, -0.431919f, 0.138116f, 0.004829f, -0.326197f, 0.130991f, -0.048891f, -0.228099f, -0.161916f, -0.259861f, -0.087787f, -0.155273f, 0.134186f, 0.284888f, -0.415173f, -0.056504f, -0.238668f, 0.187164f, -0.258687f, -0.378651f, 0.114459f, 0.025906f, -0.265232f, -0.058103f, 0.126386f, -0.191744f, -0.176785f, -0.125892f, -0.158830f, -0.134033f, -0.205835f, -0.153085f, 0.121648f, -0.196972f, 0.002892f, 0.082122f, 0.104771f, 0.358293f, 0.038822f, 0.197742f, -0.179658f, -0.069768f, 0.094341f, -0.006261f, 0.241044f, -0.003792f, 0.146653f, 0.105857f, -0.212536f, -0.199945f, 0.175368f, -0.161008f, 0.326649f, 0.214011f, -0.194328f, -0.221127f, -0.116820f, 0.089342f, -0.034447f, 0.406260f, -0.155279f, -0.372734f, 0.059059f, -0.362773f, -0.274145f, -0.075815f, 0.102135f, -0.040817f, -0.065346f, 0.284141f, -0.226629f, 0.095356f, 0.172082f, 0.011402f, 0.164146f, 0.146761f, 0.056759f, 0.107690f, 0.165597f, 0.139402f, 0.119308f, -0.065186f, 0.042924f, -0.117089f, -0.195018f, -0.009654f, 0.077871f, -0.124942f, 0.161580f, 0.175557f, -0.009783f, 0.025738f, -0.101434f, -0.028696f, -0.262355f, -0.049630f, 0.012130f, -0.002328f, 0.024295f, -0.181286f, 0.124431f, -0.017232f, 0.186068f, -0.155051f, -0.044158f, 0.060621f, 0.042922f, 0.032301f, 0.070172f, -0.122814f, 0.189069f, -0.101416f, -0.042478f, 0.095506f, -0.096407f, -0.081839f, 0.033017f, -0.073071f, -0.029490f, 0.190876f, 0.051360f, 0.000400f, -0.178351f, -0.006075f, -0.061994f, 0.151598f, -0.015931f, -0.121033f, -0.041795f, -0.172423f, 0.013120f, 0.004646f, 0.127339f, 0.119187f, 0.111987f, 0.131653f, 0.092041f, 0.159627f, 0.098795f, 0.092179f, 0.177574f, 0.064275f, 0.227835f, 0.162841f, 0.114223f, 0.132437f, -0.116093f, 0.125226f, -0.153398f, -0.125856f, 0.028633f, 0.141036f, 0.060332f, -0.028711f, -0.087370f, -0.087449f, -0.058735f, 0.111270f, 0.151235f, 0.103320f, -0.086509f, -0.042456f, 0.159002f, 0.121855f, 0.189513f, 0.105766f, -0.112342f, 0.193623f, 0.142184f, 0.107508f, 0.131839f, 0.118699f, 0.174552f, 0.149873f, 0.040186f, 0.023087f, -0.082635f, 0.100056f, 0.056075f, 0.139585f, -0.028286f, 0.017248f, -0.103733f, -0.002775f, 0.057762f, 0.206924f, -0.065424f, -0.065478f, 0.201937f, 0.029984f, 0.093584f, 0.030308f, -0.095468f, 0.218660f, 0.103212f, -0.188010f, 0.041381f, 0.036838f, -0.120582f, -0.047688f, 0.126578f, 0.127301f, -0.121737f, 0.094885f, 0.151528f, 0.177987f, -0.153884f, 0.093309f, 0.126901f, 0.091762f, 0.120752f, -0.035620f, 0.036100f, 0.078380f, -0.147260f, 0.209559f, 0.011611f, -0.124038f, 0.065197f, -0.137324f, -0.073950f, 0.088794f, -0.024735f, -0.069111f, 0.095504f, -0.047624f, 0.086077f, 0.287547f, 0.001054f, 0.025742f, 0.120826f, -0.210565f, -0.164981f, 0.103252f, 0.157754f, 0.078111f, -0.021329f, -0.126075f, -0.079242f, -0.142515f, 0.229309f, -0.123097f, -0.195366f, -0.215689f, 0.327792f, 0.258201f, -0.007491f, 0.155580f, 0.025124f, -0.120873f, -0.214623f, -0.075754f, -0.136310f, 0.068262f, -0.209257f, 0.173796f, -0.129406f, 0.006860f, -0.045431f, 0.139811f, 0.277631f, 0.018685f, -0.098117f, 0.123638f, -0.007492f, 0.141220f, 0.040538f, 0.146577f, -0.023081f, -0.029510f, 0.068018f, 0.132172f, 0.048045f, -0.006631f, -0.177897f, 0.074975f, -0.195357f, 0.223874f, 0.008922f, -0.040288f, 0.007801f, -0.114433f, -0.120109f, 0.199614f, -0.332600f, -0.290801f, -0.176542f, -0.203500f, -0.045620f, -0.122672f, 0.070884f, -0.013572f, 0.017013f, 0.250186f, -0.193001f, -0.236672f, 0.026917f, -0.093138f, -0.212677f, 0.160431f, -0.084956f, -0.115634f, 0.113426f, 0.117092f, -0.243570f, -0.178889f, -0.253207f, 0.082883f, 0.108824f, 0.033929f, 0.127676f, -0.136131f, 0.038659f, 0.148286f, 0.084302f, 0.152516f, 0.184691f, -0.102277f, 0.123176f, -0.323043f, -0.055854f, -0.150446f, -0.076572f, 0.033018f, 0.041561f, 0.159355f, -0.178071f, -0.083826f, -0.048427f, -0.116456f, -0.135602f, 0.127374f, -0.115468f, -0.085246f, 0.137672f, 0.003206f, 0.143837f, -0.023148f, 0.084237f, 0.238548f, -0.019672f, -0.071911f, 0.163261f, -0.104438f, 0.069200f, -0.113013f, -0.104997f, -0.166547f, -0.113960f, 0.169458f, -0.019977f, -0.040136f, -0.008759f, -0.066318f, 0.120787f, 0.097798f, -0.042020f, 0.192974f, -0.055473f, 0.133252f, -0.221449f, 0.089322f, 0.105265f, -0.007552f, -0.110739f, 0.171000f, 0.063899f, 0.101919f, -0.012677f, -0.110106f, -0.190627f, -0.044047f, -0.020525f, 0.035195f, -0.044763f, 0.044723f, 0.075335f, 0.133768f, 0.171066f, -0.027405f, 0.035961f, 0.126375f, 0.042432f, 0.114951f, 0.089824f, -0.137104f, 0.180149f, -0.146159f, 0.094138f, -0.205822f, -0.155705f, -0.171497f, 0.163619f, 0.025532f, 0.035140f, 0.005806f, -0.069690f, -0.140234f, 0.075389f, -0.191901f, 0.096426f, -0.207998f, 0.078630f, -0.047180f, 0.014040f, 0.194534f, 0.069838f, -0.019278f, -0.187621f, 0.092637f, -0.025585f, -0.045240f, 0.067107f, -0.039474f, -0.196073f, -0.095767f, 0.140339f, 0.102020f, -0.195740f, -0.154748f, -0.117449f, 0.208141f, 0.089242f, -0.134170f, -0.041370f, 0.027531f, 0.136993f, -0.145791f, -0.244954f, 0.153016f, 0.074295f, 0.031143f, -0.146935f, 0.084260f, -0.033413f, -0.062040f, -0.241582f, -0.153102f, -0.111598f, 0.013900f, 0.007961f, -0.110780f, -0.193392f, -0.026277f, 0.070842f, -0.040688f, -0.056434f, -0.178311f, -0.029989f, -0.018319f, -0.078620f, 0.069287f, -0.214019f, 0.080527f, 0.046223f, 0.102514f, 0.002812f, 0.221493f, -0.150728f, -0.108836f, 0.096226f, 0.197330f, -0.044222f, 0.206234f, 0.154620f, -0.016563f, -0.069357f, -0.141010f, 0.055218f, -0.005771f, -0.152447f, -0.153983f, 0.199141f, 0.127817f, -0.169400f, -0.184772f, 0.136897f, 0.213570f, 0.065262f, 0.016696f, -0.092986f, -0.048733f, -0.097486f, 0.210636f, -0.047440f, 0.105618f, 0.159413f, -0.047298f, 0.081824f, -0.066636f, 0.048782f, -0.099332f, -0.100734f, -0.050194f, -0.067853f, 0.014095f, 0.059208f, -0.054766f, -0.089836f, 0.050721f, 0.143283f, 0.121455f, 0.080575f, -0.019192f, 0.027925f, 0.178208f, 0.037359f, -0.052227f, 