
#include <eml_net.h>
static const float prediction_next_power_layer_0_biases[48] = { -0.095787f, 0.053528f, 0.079074f, 0.142708f, -0.179610f, 0.086134f, -0.018681f, 0.133128f, -0.086337f, 0.047642f, -0.107572f, -0.042752f, 0.054063f, 0.054483f, 0.093450f, -0.013526f, -0.089987f, 0.043884f, -0.003953f, -0.242456f, 0.152206f, -0.025819f, 0.000454f, 0.091491f, -0.085621f, -0.010688f, 0.037618f, 0.019357f, 0.040949f, -0.044883f, -0.092112f, 0.050006f, 0.040194f, 0.101586f, 0.147980f, -0.086410f, 0.028175f, -0.069260f, 0.013889f, 0.097322f, 0.158988f, 0.184755f, -0.043150f, -0.037077f, 0.136938f, 0.026867f, -0.074372f, 0.045473f };
static const float prediction_next_power_layer_0_weights[240] = { 0.065781f, 0.181835f, -0.043941f, -0.465290f, 0.111070f, 0.237669f, -0.361295f, -0.246386f, 0.024924f, 0.293463f, -0.222530f, 0.194627f, -0.254772f, -0.430739f, 0.116527f, -0.012071f, 0.022702f, 0.017717f, 0.153297f, 0.050798f, 0.229250f, 0.206882f, 0.117224f, 0.282869f, 0.115690f, -0.266064f, 0.105300f, 0.200857f, -0.515964f, 0.008923f, -0.373264f, 0.001855f, 0.226795f, 0.172647f, -0.253840f, -0.037040f, 0.041972f, -0.369653f, 0.232376f, 0.144922f, 0.234442f, -0.099372f, 0.076045f, 0.068312f, 0.062056f, 0.147218f, -0.476969f, 0.178915f, -0.143148f, 0.117254f, 0.211267f, -0.097572f, -0.214640f, -0.220079f, -0.075680f, 0.131505f, 0.202520f, -0.246186f, 0.244967f, 0.233996f, 0.304897f, -0.244040f, 0.366036f, -0.120451f, 0.431071f, -0.012720f, 0.087906f, -0.001692f, 0.019303f, 0.098190f, 0.012953f, 0.155976f, -0.494467f, 0.372218f, -0.073294f, 0.254275f, 0.165244f, 0.217619f, -0.068599f, -0.221840f, -0.260059f, -0.097653f, -0.399879f, 0.232602f, -0.034855f, 0.075012f, 0.156707f, 0.092641f, -0.028676f, 0.390496f, -0.162639f, 0.156814f, -0.432417f, -0.318847f, 0.226081f, -0.341894f, 0.496819f, 0.121287f, -0.716215f, -0.100594f, 0.320883f, 0.448137f, -0.164962f, -0.227447f, 0.119109f, -0.167021f, -0.107569f, -0.076797f, -0.277430f, 0.279318f, -0.242117f, -0.108123f, 0.401668f, -0.175148f, -0.000823f, -0.172207f, 0.260956f, 0.000873f, -0.178438f, 0.243061f, -0.175420f, 0.121391f, 0.367558f, -0.191134f, -0.014891f, 0.025710f, 0.236248f, -0.660433f, -0.363274f, 0.187823f, -0.080904f, -0.308539f, 0.273711f, -0.274245f, -0.411273f, 0.376455f, 0.028876f, -0.199390f, -0.342111f, 0.071822f, 0.262163f, -0.267695f, 0.282393f, -0.129244f, -0.308597f, 0.008909f, 0.376560f, -0.068563f, 0.127430f, -0.112350f, 0.053621f, 0.062893f, 0.238828f, 0.049908f, 0.323870f, -0.164819f, -0.257295f, -0.141809f, 0.192848f, -0.491185f, -0.180136f, 0.138129f, -0.230681f, 0.227516f, 0.186876f, 0.217489f, 0.344891f, 0.137654f, -0.064693f, 0.144999f, 0.287058f, 0.286639f, 0.276939f, 0.200299f, 0.071344f, 0.318329f, 0.326556f, -0.147679f, 0.211170f, -0.175171f, 0.135960f, -0.220307f, 0.017647f, -0.146618f, -0.170578f, -0.226818f, 0.077437f, -0.080672f, 0.371167f, 0.118587f, -0.277314f, 0.065281f, -0.096491f, 0.190424f, 0.060120f, 0.315461f, -0.385293f, 0.011567f, -0.125212f, 0.235671f, -0.298336f, 0.321761f, -0.224619f, 0.097780f, -0.140875f, 0.040507f, 0.064853f, 0.039036f, -0.275763f, 0.046087f, -0.219871f, -0.099134f, -0.099283f, -0.197653f, 0.038959f, 0.094570f, -0.033773f, -0.243115f, -0.173157f, -0.388374f, -0.043008f, 0.024123f, 0.336923f, 0.112553f, 0.206504f, -0.162700f, -0.000177f, -0.123437f, 0.187741f, -0.245722f, 0.145241f, 0.258865f, 0.044203f, 0.131972f, 0.185454f, 0.227562f, 0.132109f, -0.046702f, 0.001139f, -0.187463f };
static const float prediction_next_power_layer_1_biases[80] = { -0.024793f, -0.169388f, 0.114125f, 0.080763f, -0.052240f, 0.050198f, 0.096861f, 0.110294f, -0.052729f, 0.108880f, 0.090831f, -0.063472f, 0.051951f, 0.157290f, 0.066023f, -0.031220f, -0.003030f, 0.060180f, 0.083475f, 0.100617f, 0.032301f, 0.085242f, 0.052058f, -0.099221f, 0.036145f, -0.091583f, 0.029294f, 0.113120f, 0.012048f, 0.065801f, 0.046325f, 0.027140f, -0.124830f, 0.016537f, 0.076843f, 0.165679f, 0.158620f, 0.092802f, -0.112178f, 0.145313f, -0.062472f, 0.081619f, 0.051061f, -0.149050f, 0.161570f, 0.043876f, 0.067501f, 0.051616f, 0.080307f, -0.123881f, 0.145285f, 0.019371f, 0.135247f, 0.026443f, -0.048295f, 0.027025f, 0.020642f, 0.023577f, 0.028569f, 0.013324f, 0.083516f, 0.066111f, -0.104327f, 0.178449f, -0.043033f, 0.084655f, 0.045534f, 0.052976f, 0.068830f, -0.117568f, 0.133282f, 0.044711f, -0.111137f, -0.032005f, -0.125068f, -0.003953f, -0.294396f, 0.076432f, -0.035462f, 0.088825f };
static const float prediction_next_power_layer_1_weights[3840] = { 0.146662f, 0.109606f, -0.112570f, 0.148515f, 0.058205f, -0.283317f, -0.025147f, 0.020721f, -0.017426f, -0.276023f, -0.039111f, -0.237676f, 0.063875f, -0.092672f, 0.093505f, -0.027404f, 0.021368f, 0.034583f, -0.060447f, -0.199322f, -0.020581f, 0.084318f, -0.069127f, 0.124667f, -0.154267f, -0.077443f, -0.183046f, -0.506963f, -0.341797f, -0.152501f, -0.006732f, 0.049423f, -0.031250f, 0.039842f, -0.319663f, -0.114325f, -0.127108f, 0.127982f, 0.075520f, -0.159200f, 0.102813f, -0.116863f, -0.335506f, 0.110609f, -0.167289f, 0.182834f, -0.229722f, 0.201247f, -0.165566f, -0.047703f, -0.147943f, -0.042141f, 0.012071f, 0.125770f, -0.058472f, -0.318955f, -0.241020f, 0.118156f, 0.094313f, -0.111399f, -0.024887f, 0.013452f, 0.166091f, -0.243931f, 0.157233f, -0.004687f, -0.136569f, -0.355422f, 0.009738f, -0.206700f, -0.158865f, -0.146669f, -0.208159f, 0.032763f, -0.336996f, 0.204631f, 0.037471f, 0.020903f, -0.176646f, -0.050009f, -0.032443f, 0.033875f, 0.011435f, 0.197397f, 0.232431f, 0.074588f, -0.193814f, -0.057441f, -0.151428f, -0.003510f, 0.089058f, 0.050983f, -0.213067f, -0.092812f, 0.094775f, 0.034368f, -0.020175f, 0.014038f, 0.007511f, -0.039449f, -0.042529f, 0.026923f, -0.088335f, -0.086349f, 0.073759f, 0.021391f, -0.162668f, -0.068757f, -0.225974f, 0.178237f, -0.107414f, 0.018065f, 0.073608f, -0.033831f, 0.267584f, 0.100025f, -0.289861f, 0.065668f, -0.170786f, 0.212719f, -0.091854f, -0.034037f, -0.057378f, -0.198694f, 0.056021f, -0.050923f, 0.194346f, -0.182558f, 0.132843f, -0.235069f, -0.027626f, 0.078291f, 0.240682f, 0.051668f, -0.076269f, 0.091065f, 0.012591f, 0.116271f, 0.112876f, -0.239186f, 0.167216f, 0.168843f, -0.156332f, 0.029980f, 0.200456f, -0.185021f, 0.009688f, -0.025128f, 0.188132f, 0.057350f, -0.142482f, 0.036526f, -0.131728f, 0.066364f, 0.184396f, -0.180152f, 0.232524f, 0.028428f, -0.128383f, -0.167739f, 0.106828f, 0.215510f, 0.070897f, -0.044128f, -0.048367f, 0.077912f, -0.308902f, 0.046648f, -0.075947f, -0.078145f, 0.110205f, 0.096357f, -0.345449f, -0.469997f, 0.020760f, 0.092974f, 0.051865f, -0.109528f, -0.078733f, -0.232665f, -0.235792f, -0.263636f, -0.185053f, -0.168568f, -0.047204f, -0.130722f, -0.020319f, -0.586207f, -0.096113f, -0.116117f, -0.002431f, 0.024069f, 0.019634f, -0.082011f, -0.609144f, -0.011354f, 0.088562f, -0.132022f, -0.141998f, -0.580154f, 0.058358f, -0.110916f, -0.219608f, 0.176965f, -0.847580f, -0.054737f, 0.007064f, -0.055858f, -0.237601f, -0.010522f, -0.654687f, -0.120719f, -0.654759f, -0.087304f, 0.006981f, -0.271980f, 0.213353f, -0.020461f, -0.094796f, -0.188567f, -0.325296f, -0.190696f, -0.259193f, -0.542889f, 0.158557f, 0.014514f, -0.110885f, -0.256182f, -0.216888f, 0.081719f, -0.165613f, -0.022142f, 0.171528f, -0.195309f, 0.181532f, -0.090396f, -0.191704f, -0.427319f, 0.001069f, -0.298140f, 0.069336f, 0.014563f, 0.071786f, -0.260259f, -0.362594f, -0.025951f, -0.180385f, 0.002159f, -0.028058f, -0.007746f, -0.074654f, 0.196213f, -0.364159f, -0.367300f, 0.012701f, 0.100143f, -0.041949f, -0.258430f, -0.244612f, 0.004658f, -0.379858f, -0.451934f, -0.009694f, 0.373131f, -0.439173f, 0.011548f, -0.133403f, -0.306021f, -0.357461f, -0.308037f, 0.022837f, -0.404566f, 0.360618f, -0.061107f, -0.460145f, -0.126166f, 0.180402f, -0.172045f, -0.144677f, -0.107729f, 0.050865f, -0.298385f, -0.356316f, -0.209474f, -0.131580f, 0.009217f, -0.186304f, -0.160138f, -0.302318f, 0.148407f, -0.187769f, -0.261820f, -0.002061f, -0.115801f, -0.439453f, -0.076757f, -0.167903f, -0.231736f, -0.356044f, -0.141296f, -0.060485f, -0.133131f, 0.096945f, -0.136967f, -0.397927f, -0.257658f, -0.349509f, -0.243290f, -0.332886f, 0.125693f, 0.104808f, -0.378919f, 0.197040f, -0.237605f, 0.026993f, 0.058235f, -0.488942f, -0.403812f, -0.010161f, -0.076458f, -0.191938f, -0.302828f, 0.003334f, 0.032449f, 0.202189f, 0.114235f, -0.172866f, 0.201070f, -0.230770f, -0.175725f, -0.090744f, -0.006336f, -0.036833f, 0.206483f, 0.057598f, -0.123621f, -0.188705f, 0.053288f, -0.236657f, 0.018556f, -0.122256f, -0.163679f, 0.058864f, 0.101190f, -0.046198f, 0.282145f, 0.195787f, -0.083278f, 0.015260f, -0.076173f, 0.129942f, -0.034898f, 0.263122f, 0.042668f, -0.680594f, -0.065484f, -0.130597f, -0.128861f, 0.131687f, 0.123640f, 0.141912f, -0.219706f, -0.236711f, -0.327018f, 0.036903f, -0.150443f, -0.033863f, -0.085539f, -0.175289f, -0.567772f, -0.203084f, -0.328595f, 0.253122f, -0.061514f, -0.538140f, -0.044086f, -0.654969f, 0.046573f, -0.114753f, 0.027115f, 0.131032f, 0.051937f, -0.036839f, -0.001175f, -0.244114f, 0.171291f, -0.029362f, -0.183949f, -0.211649f, -0.049007f, -0.035853f, -0.046180f, 0.051335f, 0.144308f, 0.002994f, 0.059593f, 0.234477f, -0.129490f, 0.076898f, -0.027851f, 0.144181f, -0.056344f, 0.007276f, -0.056190f, 0.182274f, -0.107677f, 0.192653f, 0.128104f, 0.025158f, 0.103199f, 0.127731f, -0.056998f, -0.162077f, 0.149287f, -0.074513f, -0.189459f, -0.014436f, -0.181579f, -0.042367f, 0.019515f, 0.194456f, 0.212026f, -0.003758f, 0.179421f, 0.070853f, -0.217992f, 0.049299f, -0.017049f, 0.165845f, 0.009411f, -0.203291f, 0.087235f, -0.001565f, 0.142954f, -0.086282f, 0.112863f, -0.174656f, 0.006808f, 0.198365f, 0.079033f, 0.281692f, 0.061763f, -0.096558f, -0.399589f, 0.119338f, -0.067530f, 0.107236f, 0.138614f, -0.020259f, -0.373070f, -0.027790f, 0.101103f, 0.283919f, -0.106186f, -0.145973f, 0.159599f, -0.120823f, 0.135308f, 0.245960f, -0.217433f, -0.095098f, 0.212983f, -0.062206f, -0.040354f, -0.161496f, 0.121611f, -0.155106f, 0.055199f, -0.172011f, -0.040889f, 0.074034f, 0.116987f, 0.190336f, -0.157998f, 0.051252f, -0.155068f, 0.101853f, -0.047339f, 0.041332f, 0.212140f, 0.004794f, -0.057750f, 0.036985f, 0.055007f, -0.029258f, -0.277624f, -0.076153f, -0.261645f, -0.041092f, 0.241008f, -0.364343f, 0.324767f, -0.239194f, -0.055927f, -0.204482f, 0.017120f, 0.025860f, 0.076940f, -0.268656f, -0.055822f, 0.042515f, -0.069600f, -0.035605f, 0.167021f, -0.364253f, -0.226399f, -0.020223f, 0.008759f, -0.469267f, -0.117629f, 0.163222f, 0.082120f, -0.157868f, -0.379380f, 0.176956f, -0.159899f, -0.025954f, -0.335758f, 0.062250f, -0.252522f, -0.106915f, -0.142839f, -0.018668f, -0.395208f, -0.592091f, -0.200841f, -0.183138f, -0.136230f, -0.140790f, -0.302702f, -0.392240f, -0.382018f, -0.103570f, -0.156623f, -0.323438f, -0.087092f, -0.260532f, -0.236486f, 0.033271f, 0.047558f, 0.068936f, -0.020050f, 0.276652f, -0.107724f, -0.074843f, -0.137487f, -0.157289f, -0.108124f, -0.279105f, -0.018991f, 0.030673f, -0.216400f, 0.086633f, -0.323499f, -0.252199f, -0.200706f, 0.030362f, 0.176213f, 0.162215f, -0.260626f, -0.214013f, 0.034139f, -0.231796f, 0.120093f, -0.149904f, 0.167777f, 0.155475f, -0.027964f, -0.160558f, 0.118133f, -0.178134f, 0.118579f, 0.100289f, -0.120764f, 0.170452f, -0.175443f, -0.096924f, 0.107241f, -0.003550f, 0.043520f, -0.288069f, -0.065777f, 0.025020f, 0.070281f, 0.059888f, -0.048137f, 0.129447f, -0.062929f, -0.376731f, -0.292962f, 0.020372f, -0.017597f, -0.071689f, -0.085817f, -0.405833f, -0.040327f, 0.017621f, -0.024891f, -0.083108f, -0.076390f, 0.119841f, -0.352039f, -0.386750f, -0.059913f, -0.203204f, -0.169019f, -0.005899f, -0.130428f, 0.058486f, -0.027793f, -0.156161f, -0.157111f, -0.085581f, 0.126848f, -0.345643f, -0.040732f, -0.197323f, -0.343728f, -0.209037f, 0.078268f, 0.027603f, -0.098853f, -0.080482f, -0.032717f, 0.118254f, -0.063337f, 0.113669f, -0.277402f, 0.064697f, -0.057674f, 0.042214f, -0.204993f, -0.032204f, -0.239422f, -0.129941f, 0.116314f, -0.356823f, -0.186588f, -0.003755f, -0.079289f, 0.093242f, -0.177754f, -0.111998f, 0.097350f, 0.213698f, 0.084611f, 0.187597f, 0.271119f, -0.147141f, 0.094112f, -0.041939f, 0.163017f, -0.168202f, -0.093199f, -0.064154f, -0.210862f, -0.148709f, 0.188667f, -0.065385f, -0.114543f, 0.093494f, 0.054490f, 0.079857f, -0.178526f, 0.049429f, -0.110591f, -0.014905f, -0.100051f, -0.111799f, -0.084802f, -0.074504f, -0.002748f, 0.067010f, 0.118964f, -0.150484f, 0.135955f, 0.219256f, -0.067232f, 0.154090f, 0.110353f, -0.118866f, 0.254931f, 0.106899f, -0.090760f, 0.126747f, 0.145608f, -0.124532f, -0.119342f, 0.072417f, -0.082427f, -0.128648f, -0.222501f, -0.001506f, -0.102067f, -0.159165f, -0.020608f, -0.191275f, 0.187110f, -0.224996f, -0.089269f, -0.093918f, 0.216599f, -0.180311f, -0.079006f, 0.159234f, 0.225656f, 0.139246f, 0.187623f, 0.210985f, -0.228576f, 0.119234f, -0.084811f, -0.123115f, -0.125322f, 0.236285f, -0.083433f, 0.025556f, -0.100423f, -0.202444f, 0.143069f, -0.163975f, 0.014051f, 0.142086f, 0.002436f, -0.145896f, -0.092637f, 0.155794f, 0.196786f, 0.005252f, 0.172536f, 0.093316f, 0.102458f, 0.008074f, -0.063109f, 0.036137f, -0.046946f, -0.156539f, -0.029030f, -0.148911f, 0.113405f, -0.061014f, 0.055913f, 0.175731f, 0.003231f, 0.184572f, -0.366189f, -0.182171f, -0.126686f, -0.129877f, 0.087546f, 0.203550f, -0.031016f, -0.386189f, -0.033731f, 0.084207f, -0.113588f, -0.124239f, -0.117976f, 0.024019f, -0.126123f, -0.233355f, 0.102178f, 0.184090f, 0.075662f, -0.007131f, 0.076631f, -0.028274f, -0.069570f, -0.051660f, -0.021854f, 0.182703f, -0.054075f, -0.072581f, 0.073478f, 0.258959f, 0.062178f, 0.217922f, -0.000970f, -0.121982f, -0.054088f, 0.143534f, 0.203778f, -0.125997f, 0.084689f, 0.245083f, 0.133311f, -0.148640f, -0.180847f, -0.166025f, -0.028868f, -0.168233f, 0.032613f, -0.203349f, -0.014304f, -0.258092f, 0.031274f, -0.083826f, -0.164674f, 0.055524f, -0.029535f, -0.077603f, 0.113163f, -0.099059f, 0.248169f, -0.135256f, -0.172878f, -0.029701f, -0.034247f, 0.177816f, 0.166376f, 0.124711f, -0.120616f, 0.031822f, -0.129140f, 0.110134f, -0.038415f, 0.044807f, -0.143478f, 0.121968f, 0.026178f, 0.018364f, 0.015746f, 0.167988f, -0.250424f, 0.149154f, 0.009539f, -0.003733f, -0.467151f, -0.112015f, 0.176649f, -0.137971f, 0.220606f, 0.156664f, 0.020214f, -0.323260f, 0.098762f, -0.023206f, 0.108468f, 0.186014f, -0.316233f, 0.063764f, -0.001268f, 0.137783f, 0.043887f, -0.379351f, 0.036834f, 0.241421f, 0.121285f, 0.049247f, 0.042290f, 0.128891f, 0.156798f, -0.377777f, 0.028086f, 0.302667f, 0.102274f, 0.229324f, -0.329992f, 0.341703f, -0.155093f, -0.162563f, -0.037040f, -0.045622f, -0.319535f, -0.120009f, -0.062306f, 0.104172f, 0.260260f, -0.144017f, 0.181810f, -0.631035f, -0.045715f, 0.217047f, -0.191516f, 0.354045f, 0.102898f, -0.042511f, -0.419462f, 0.240307f, -0.028865f, 0.118292f, 0.076246f, -0.068451f, 0.087060f, -0.192526f, 0.122291f, 0.161852f, -0.089795f, -0.086399f, -0.049277f, -0.113818f, -0.193718f, -0.030961f, -0.141080f, -0.179604f, -0.030078f, 0.018355f, -0.039756f, -0.049572f, 0.072890f, 0.038462f, -0.021282f, -0.123612f, 0.071206f, 0.155093f, -0.001855f, -0.024310f, -0.181398f, 0.079830f, 0.035402f, -0.260673f, 0.078680f, -0.065139f, -0.118101f, -0.080408f, 0.190838f, -0.060813f, 0.133068f, 0.096703f, -0.028584f, -0.124899f, -0.124469f, 0.047857f, 0.040016f, -0.087238f, 0.118955f, -0.069540f, 0.185953f, 0.147583f, 0.179242f, -0.091074f, 0.220477f, -0.131973f, -0.095297f, 0.269983f, 0.118612f, -0.055335f, -0.096618f, 0.256439f, -0.175540f, 0.118067f, -0.101583f, 0.178560f, -0.204843f, -0.043899f, 0.013535f, 0.126739f, 0.131949f, -0.007759f, 0.130381f, 0.087247f, 0.054595f, -0.243060f, -0.246195f, -0.089155f, 0.178877f, 0.144692f, -0.179871f, -0.062683f, 0.066558f, -0.301930f, -0.531933f, -0.248623f, -0.267895f, 0.040565f, -0.423060f, 0.003517f, -0.102607f, -0.138943f, 0.010550f, -0.297559f, 0.160549f, 0.047162f, -0.123797f, -0.027762f, -0.169108f, -0.036505f, -0.311210f, 0.020766f, 0.031185f, -0.076899f, 0.062158f, -0.012361f, -0.059005f, 0.119770f, 0.237464f, -0.147350f, 0.069720f, -0.088898f, -0.082792f, 0.001325f, -0.086749f, 0.206487f, -0.246841f, 0.127426f, -0.035270f, -0.192866f, -0.044709f, -0.295754f, -0.012526f, -0.479429f, -0.088902f, -0.039544f, -0.080720f, -0.286775f, 0.091998f, 0.015837f, -0.030700f, 0.029204f, -0.535619f, 0.000412f, 0.073390f, 0.068876f, -0.305949f, -0.343026f, -0.191944f, -0.474775f, 0.035137f, -0.140182f, -0.082546f, 0.109795f, -0.123893f, -0.210124f, -0.012509f, 0.015571f, -0.178591f, -0.309561f, -0.284384f, 0.027568f, 0.132239f, -0.202359f, 0.067850f, -0.184747f, -0.204775f, -0.157200f, 0.159601f, -0.090861f, -0.086544f, 0.124235f, -0.104221f, 0.062962f, -0.083302f, 0.020484f, -0.159766f, 0.100088f, 0.008189f, 0.210718f, -0.132562f, -0.116749f, 0.088512f, 0.052209f, -0.279512f, -0.014622f, -0.121362f, 0.024177f, -0.165346f, 0.000296f, -0.110754f, -0.090611f, -0.158970f, 0.070011f, -0.118348f, -0.046155f, 0.225101f, 0.016702f, 0.294754f, 0.009999f, -0.298868f, 0.042901f, 0.104479f, -0.231713f, 0.031079f, 0.242872f, 0.091594f, -0.053732f, 0.022866f, -0.239856f, 0.119775f, -0.116861f, 0.208690f, -0.047094f, -0.085724f, -0.438495f, -0.650875f, 0.094393f, 0.038781f, 0.208392f, 0.034682f, 0.109616f, -0.277517f, -0.039838f, 0.056434f, -0.117110f, -0.135773f, -0.406585f, 0.082857f, -0.151709f, 0.091178f, -0.037140f, -0.198036f, 0.085745f, -0.174447f, 0.144587f, -0.019077f, 0.093476f, 0.019978f, -0.009927f, -0.017181f, -0.312823f, -0.073835f, 0.205784f, -0.231226f, -0.078771f, 0.185241f, 0.053918f, -0.174334f, -0.684951f, 0.272497f, 0.029213f, 0.270413f, -0.026763f, 0.004404f, 0.172104f, -0.008390f, -0.129827f, -0.097810f, -0.003970f, 0.021267f, 0.155130f, -0.156801f, 0.224772f, -0.112057f, -0.009132f, -0.161994f, -0.144723f, -0.213691f, -0.067187f, 0.212446f, 0.094280f, 0.072707f, -0.068398f, -0.074980f, 0.021513f, -0.122640f, 0.263041f, -0.203476f, 0.140524f, 0.124921f, 0.035264f, -0.066024f, -0.214667f, -0.134518f, -0.335827f, -0.084483f, 0.152811f, -0.052800f, 0.253292f, 0.107096f, 0.101938f, 0.057297f, -0.083959f, -0.014988f, 0.184614f, -0.047765f, -0.052587f, -0.032796f, 0.149220f, 0.106852f, -0.046870f, 0.120927f, 0.171031f, 0.009500f, 0.279064f, -0.172831f, -0.025934f, -0.007711f, 0.299647f, -0.008843f, -0.068238f, -0.116364f, 0.135073f, -0.118428f, -0.223859f, -0.079898f, -0.021324f, 0.206386f, -0.025990f, 0.134775f, 0.048912f, -0.148948f, 0.157691f, -0.161555f, -0.120701f, -0.100628f, -0.085864f, -0.166249f, -0.226612f, 0.196752f, 0.028074f, -0.157755f, 0.177891f, 0.000389f, 0.060663f, 0.203472f, 0.032744f, 0.006640f, 0.105930f, 0.154507f, -0.171216f, 0.273047f, 0.237105f, 0.014030f, 0.121071f, 0.301527f, -0.213093f, -0.006764f, -0.120780f, -0.270620f, 0.340253f, 0.099150f, 0.190363f, 0.259159f, 0.088919f, 0.269280f, -0.116677f, 0.428590f, 0.161183f, -0.203393f, 0.022373f, 0.146530f, -0.091718f, 0.060630f, -0.238872f, 0.103892f, -0.000453f, 0.151622f, 0.175785f, 0.306769f, 0.079235f, 0.045241f, -0.207272f, 0.234093f, 0.317174f, 0.362148f, 0.058092f, -0.029597f, 0.149022f, -0.004008f, 0.156473f, -0.155527f, 0.197336f, 0.077010f, -0.069156f, 0.141144f, 0.260677f, 0.143304f, -0.699596f, 0.265899f, 0.196545f, -0.044897f, -0.095834f, 0.190885f, -0.105295f, -0.016750f, 0.183644f, 0.227046f, -0.467170f, -0.084054f, 0.210216f, 0.252035f, 0.222658f, 0.058863f, -0.199390f, -0.013183f, 0.180051f, -0.018882f, -0.272773f, -0.042583f, -0.077059f, -0.148130f, -0.270760f, -0.352235f, -0.140317f, 0.124591f, -0.211525f, -0.310627f, -0.253415f, 0.162804f, 0.000265f, -0.288036f, -0.257269f, -0.269215f, -0.205666f, -0.113262f, -0.022856f, 0.112262f, 0.089833f, 0.032837f, -0.052307f, 0.053618f, -0.247441f, -0.144419f, -0.041412f, 0.042314f, 0.087509f, -0.058497f, 0.060404f, -0.287732f, -0.129193f, -0.314305f, -0.259431f, 0.020395f, -0.103914f, -0.401242f, -0.796589f, 0.085999f, -0.111247f, -0.051442f, 0.011602f, -0.186703f, -0.074698f, 0.156918f, 0.073448f, -0.096583f, 0.097530f, -0.178399f, 0.077756f, 0.123187f, 0.005889f, -0.262817f, 0.187293f, -0.363760f, -0.190772f, -0.017481f, -0.442450f, -0.008613f, -0.817246f, -0.093715f, -0.092349f, -0.007378f, 0.185570f, -0.263832f, -0.116520f, -0.234284f, -0.064534f, -0.001292f, -0.207586f, 0.034390f, 0.130069f, -0.209798f, -0.391144f, 0.006155f, -0.125986f, -0.280069f, 0.019961f, -0.159277f, 0.043097f, -0.418473f, 0.164325f, -0.121885f, -0.206776f, 0.045160f, 0.005679f, 0.150283f, 0.195730f, 0.151949f, 0.110477f, -0.094582f, -0.196996f, 0.203156f, 0.148195f, 0.205154f, -0.070857f, 0.237160f, 0.208787f, -0.016912f, 0.177801f, 0.116037f, -0.023950f, 0.164854f, 0.008265f, -0.015222f, 0.119901f, 0.045069f, 0.104425f, -0.021844f, -0.097032f, -0.015805f, 0.145598f, 0.131957f, 0.158961f, -0.192279f, -0.186267f, -0.022231f, 0.033196f, 0.097535f, 0.016701f, -0.026740f, -0.201870f, 0.210002f, -0.178475f, -0.084771f, -0.149255f, -0.026926f, 0.076350f, 0.193055f, 0.060900f, 0.182484f, 0.013022f, 0.054776f, 0.168394f, 0.181049f, 0.279485f, -0.110996f, 0.177675f, 0.166531f, 0.209641f, -0.146216f, 0.044997f, -0.125114f, 0.000676f, 0.164266f, -0.196941f, 0.203321f, -0.163036f, 0.142898f, 0.066949f, -0.017299f, -0.009349f, 0.014703f, -0.104608f, 0.030949f, -0.045197f, 0.113299f, 0.164185f, -0.007449f, -0.076841f, -0.011799f, 0.071096f, 0.167425f, 0.132828f, -0.162048f, -0.035205f, -0.132429f, 0.185763f, 0.067769f, 0.037453f, 0.128688f, -0.220902f, 0.198195f, 0.142947f, 0.155615f, -0.207559f, -0.036006f, -0.130266f, -0.088592f, -0.202368f, -0.205655f, 0.172128f, 0.219983f, -0.011854f, -0.202079f, 0.048608f, -0.010777f, -0.099331f, 0.124785f, -0.155168f, -0.089404f, 0.064060f, 0.157252f, -0.016903f, -0.063223f, 0.001747f, -0.022065f, -0.150571f, 0.109044f, 0.250911f, 0.209978f, 0.041631f, -0.102003f, 0.137456f, 0.248586f, -0.041038f, 0.089236f, -0.110010f, 0.213436f, 0.190162f, 0.151384f, 0.096961f, -0.108336f, -0.143016f, -0.150230f, -0.142808f, 0.168985f, 0.166866f, 0.149365f, -0.057609f, 0.023977f, 0.069907f, 0.158051f, -0.144322f, 0.216631f, 0.065897f, -0.132588f, -0.184858f, 0.165106f, -0.155764f, 0.000357f, 0.042016f, -0.004836f, 0.024868f, -0.104697f, 0.104524f, 0.099010f, -0.308117f, 0.045724f, 0.054355f, -0.012203f, -0.054809f, -0.022231f, 0.158372f, 0.207476f, -0.146018f, 0.230072f, 0.203645f, 0.194544f, 0.256790f, -0.069188f, -0.173518f, 0.171914f, 0.028157f, -0.178302f, 0.025116f, 0.033670f, 0.038559f, -0.031479f, -0.163318f, 0.022925f, 0.116535f, -0.045498f, -0.121772f, 0.180526f, -0.148366f, -0.161927f, -0.011510f, -0.352790f, -0.138653f, -0.168924f, 0.097970f, 0.079020f, -0.065859f, -0.135219f, 0.299391f, -0.068013f, -0.133666f, -0.115813f, 0.168429f, -0.030461f, -0.062069f, 0.205988f, 0.156923f, -0.142078f, 0.065813f, 0.017627f, 0.244894f, 0.145208f, 0.057253f, 0.055299f, -0.124686f, 0.274702f, -0.130062f, -0.187666f, 0.040234f, 0.037719f, -0.175302f, -0.082611f, 0.238791f, -0.121778f, 0.103823f, -0.072137f, 0.087836f, -0.124675f, -0.204771f, -0.187345f, -0.018511f, 0.151308f, 0.315040f, -0.100967f, 0.158676f, 0.127392f, 0.029120f, -0.055130f, 0.108215f, -0.224012f, 0.022887f, 0.062577f, -0.228615f, 0.027355f, -0.038999f, 0.202045f, -0.148283f, -0.253218f, -0.062019f, 0.047241f, -0.079182f, 0.148547f, 0.227460f, 0.034062f, -0.033999f, -0.018964f, 0.209568f, 0.052403f, 0.178249f, -0.127640f, -0.137369f, -0.011918f, -0.136092f, 0.251429f, 0.087050f, 0.203984f, 0.230389f, 0.105097f, 0.093978f, -0.115885f, 0.123190f, 0.034382f, 0.173351f, 0.155775f, -0.048959f, -0.002711f, -0.026569f, 0.005597f, -0.262513f, -0.000843f, -0.095560f, 0.134148f, -0.021024f, 0.085207f, -0.114229f, 0.182863f, 0.156535f, -0.043007f, 0.230553f, -0.278313f, 0.229950f, 0.206129f, -0.157939f, 0.059083f, -0.072552f, -0.230965f, -0.051201f, -0.211227f, 0.141033f, 0.229343f, -0.181699f, -0.170599f, 0.149899f, 0.214719f, -0.184305f, 0.013412f, -0.064035f, -0.035687f, -0.080889f, 0.009439f, 0.013907f, 0.251073f, -0.107769f, -0.099354f, 0.178706f, 0.081445f, -0.057880f, 0.029820f, -0.020460f, -0.142618f, 0.204747f, -0.104827f, 0.021894f, 0.186404f, 0.121371f, -0.147930f, 0.008978f, 0.100547f, -0.033180f, 0.001489f, 0.171753f, -0.084660f, 0.096002f, -0.035077f, 0.007826f, 0.217803f, -0.027278f, 0.043336f, 0.039812f, -0.004740f, 0.135392f, -0.209831f, 0.001748f, 0.110169f, -0.046208f, 0.110198f, 0.208918f, 0.118859f, 0.047126f, 0.200363f, 0.058513f, 0.151433f, -0.053620f, -0.085117f, -0.073159f, 0.140846f, 0.093585f, 0.205986f, -0.456552f, 0.071194f, -0.051204f, 0.182017f, 0.014492f, -0.038230f, 0.093658f, -0.158969f, -0.043923f, 0.059945f, -0.072580f, 0.066870f, 0.195349f, 0.086442f, -0.123062f, -0.037063f, 0.114813f, 0.091884f, 0.150286f, 0.001418f, -0.049656f, -0.138745f, -0.117273f, -0.065916f, -0.068195f, -0.161067f, 0.176135f, 0.077023f, -0.087577f, -0.113548f, -0.050463f, 0.156199f, -0.162798f, -0.028039f, 0.127422f, 0.110284f, -0.158439f, 0.154755f, 0.006844f, 0.198778f, -0.080324f, -0.107194f, 0.227816f, 0.139856f, 0.125399f, 0.153973f, -0.011803f, 0.170102f, -0.113745f, -0.083242f, -0.156287f, -0.078025f, 0.106756f, -0.051555f, -0.014110f, 0.021414f, -0.224016f, 0.190993f, 0.209788f, -0.181391f, 0.076167f, 0.110232f, 0.165174f, 0.215637f, -0.012849f, 0.047010f, 0.031013f, 0.203675f, 0.193339f, 0.202297f, -0.160694f, 0.223627f, 0.050136f, 0.089934f, 0.012999f, 0.218679f, 0.100712f, 0.169613f, -0.010783f, 0.228258f, -0.040757f, -0.064167f, 0.045851f, -0.083768f, -0.044797f, -0.094917f, -0.043254f, 0.054102f, -0.027776f, 0.106495f, -0.088301f, -0.075504f, 0.181613f, 0.228446f, -0.008044f, 0.144091f, 0.120080f, 0.124506f, -0.065918f, 0.129082f, 0.230910f, 0.211729f, 0.199511f, 0.045648f, 0.075727f, 0.029638f, -0.176522f, 0.161719f, 0.093063f, 0.251399f, 0.071589f, -0.162987f, -0.102962f, 0.041935f, 0.175569f, 0.038866f, -0.060504f, 0.009689f, 0.079265f, -0.163153f, 0.137970f, 0.133638f, 0.022092f, 0.058272f, -0.239638f, 0.107002f, -0.049905f, 0.062316f, 0.045371f, -0.094621f, 0.046547f, -0.019693f, -0.026736f, 0.063522f, -0.026513f, 0.193569f, 0.147762f, 0.136749f, -0.120200f, -0.067462f, -0.033934f, 0.212053f, 0.146750f, 0.033670f, 0.171395f, -0.099863f, 0.114201f, 0.196980f, 0.216856f, -0.011405f, 0.188390f, -0.238738f, 0.214276f, 0.068296f, -0.127243f, 0.114009f, 0.229107f, -0.021273f, 0.218795f, 0.180083f, -0.192093f, -0.139368f, 0.139488f, -0.012391f, -0.301955f, 0.073105f, 0.022927f, 0.170993f, 0.123482f, 0.101561f, 0.199650f, -0.107286f, 0.081236f, -0.131682f, 0.221387f, 0.140397f, 0.178574f, -0.128337f, 0.196990f, 0.081697f, 0.001793f, -0.140946f, 0.087819f, -0.181334f, 0.067822f, 0.118267f, -0.203135f, -0.061955f, 0.072295f, -0.057140f, 0.041889f, 0.214078f, 0.065357f, -0.013111f, 0.184519f, -0.142412f, 0.026862f, -0.216554f, 0.064602f, -0.184712f, -0.135794f, 0.129731f, -0.109069f, 0.158434f, 0.249176f, 0.151680f, 0.094890f, -0.089310f, 0.003635f, 0.061002f, 0.026326f, -0.223085f, -0.119112f, -0.061157f, -0.067711f, 0.064584f, -0.048769f, -0.068620f, 0.094233f, 0.270277f, -0.056382f, 0.165992f, 0.080618f, -0.092331f, -0.238225f, -0.430086f, -0.120847f, -0.210598f, -0.243771f, -0.256160f, -0.086258f, -0.014760f, -0.014396f, -0.152696f, -0.240924f, -0.075358f, -0.013802f, -0.147346f, 0.099706f, -0.274228f, -0.059424f, -0.269445f, -0.059379f, -0.178625f, 0.020731f, -0.220722f, -0.094514f, -0.236855f, 0.045143f, -0.240896f, -0.045150f, 0.001699f, -0.292745f, 0.107423f, 0.001888f, -0.132053f, 0.100124f, -0.546289f, -0.282212f, -0.197991f, -0.277731f, 0.099766f, -0.050528f, -0.143195f, -0.165617f, -0.137142f, -0.117426f, -0.138467f, 0.068190f, 0.041211f, -0.100290f, -0.345134f, -0.286535f, -0.293099f, -0.407954f, -0.317433f, -0.153671f, -0.313915f, -0.207122f, -0.258327f, 0.121936f, -0.137526f, -0.458596f, -0.196637f, -0.138152f, -0.071412f, -0.003946f, -0.204877f, -0.229992f, -0.662172f, -0.124764f, 0.030986f, 0.056765f, -0.155960f, 0.088254f, -0.176173f, -0.124245f, -0.081860f, -0.436819f, 0.061574f, -0.292392f, 0.016464f, -0.283018f, -0.079284f, -0.087820f, 0.175171f, -0.137996f, -0.144048f, -0.134538f, -0.009768f, -0.095214f, 0.096960f, -0.245150f, 0.081460f, -0.179834f, 0.170702f, -0.042818f, -0.222192f, -0.147175f, 0.002029f, 0.061672f, -0.348803f, -0.087709f, -0.095770f, -0.084765f, -0.256077f, 0.011778f, -0.044676f, 0.115466f, -0.040422f, 0.205328f, -0.554253f, 0.135994f, -0.212855f, -0.075232f, 0.162397f, 0.066761f, -0.591734f, 0.065883f, -0.070348f, 0.103480f, -0.083931f, -0.206682f, -0.192382f, -0.173084f, 0.003490f, -0.009733f, -0.069564f, 0.166370f, -0.248964f, 0.081304f, -0.213996f, 0.026285f, 0.134258f, -0.040503f, 0.019389f, -0.323247f, 0.109846f, -0.140360f, 0.169872f, 0.075618f, -0.253983f, 0.109231f, 0.087378f, -0.242549f, -0.147001f, 0.244639f, -0.281994f, -0.028120f, -0.312183f, 0.053661f, -0.175926f, -0.126865f, -0.065294f, -0.198445f, 0.175533f, 0.020860f, 0.118309f, -0.016059f, -0.191487f, 0.157287f, 0.216680f, 0.062306f, 0.149862f, 0.137502f, -0.126253f, 0.142368f, 0.190210f, 0.132288f, 0.229604f, -0.074633f, -0.195058f, 0.180034f, 0.190633f, 0.206745f, 0.086232f, -0.089055f, -0.063031f, -0.202574f, -0.142138f, -0.049034f, -0.048623f, -0.014567f, -0.098522f, -0.167238f, 0.094728f, -0.116897f, 0.058186f, -0.152985f, 0.226544f, -0.166744f, -0.268190f, 0.152002f, 0.122603f, -0.096796f, -0.119228f, 0.053484f, -0.010021f, -0.172598f, -0.259128f, 0.022145f, -0.115222f, -0.141850f, 0.131839f, -0.058971f, -0.160784f, -0.193361f, 0.090828f, 0.124414f, 0.092931f, 0.251074f, -0.009734f, 0.057086f, -0.014117f, -0.161459f, -0.161088f, 0.206101f, 0.085947f, -0.044609f, -0.132295f, 0.010167f, 0.133742f, 0.205499f, -0.082530f, 0.031777f, -0.077038f, 0.071191f, -0.096002f, 0.102599f, 0.193139f, 0.159685f, 0.165337f, -0.108950f, 0.189951f, 0.182924f, 0.171437f, -0.107839f, -0.188942f, -0.032247f, -0.045268f, 0.078301f, 0.016484f, -0.132931f, -0.203690f, -0.009532f, 0.225306f, 0.212376f, 0.257422f, 0.213709f, -0.181223f, 0.164037f, 0.219271f, 0.064521f, -0.127228f, 0.191602f, 0.225008f, 0.098164f, -0.084757f, -0.135270f, 0.135794f, -0.133813f, 0.118594f, -0.159184f, -0.047885f, 0.025018f, 0.027643f, -0.111198f, -0.054727f, 0.092150f, 0.072400f, 0.079435f, 0.207174f, -0.152549f, 0.016129f, 0.262147f, 0.052371f, 0.258290f, 0.195601f, -0.171077f, -0.062318f, -0.123727f, 0.020455f, -0.017864f, 0.120167f, -0.147684f, 0.213067f, -0.074605f, 0.105222f, -0.077841f, -0.075111f, 0.207619f, -0.111109f, 0.047988f, -0.071611f, -0.034475f, 0.264496f, 0.203884f, -0.053696f, -0.018927f, 0.208006f, -0.000554f, 0.178636f, -0.103539f, -0.141010f, -0.176195f, 0.026977f, -0.181265f, 0.050092f, -0.062805f, -0.281106f, 0.076359f, -0.044533f, -0.172559f, -0.039475f, -0.207861f, -0.097122f, -0.095692f, 0.016464f, -0.233302f, -0.296136f, -0.120302f, -0.492307f, 0.019339f, -0.085210f, -0.323363f, -0.039510f, -0.355251f, -0.134076f, -0.415695f, -0.250399f, -0.246034f, 0.046513f, -0.192740f, 0.291246f, -0.168486f, -0.238341f, -0.143834f, -0.043745f, -0.126364f, -0.258923f, 0.448062f, -0.095987f, 0.164666f, -0.108495f, 0.088198f, -0.119721f, -0.167088f, -0.015812f, -0.087249f, -0.467590f, -0.274143f, -0.330533f, -0.152451f, -0.087145f, -0.173930f, -0.327726f, -0.234514f, -0.017158f, -0.340064f, -0.053437f, -0.198917f, -0.269037f, -0.364562f, 0.015274f, 0.095625f, -0.345372f, -0.319205f, -0.132709f, -0.062571f, -0.251217f, 0.003805f, -0.508649f, -0.185296f, -0.120245f, -0.386319f, -0.060414f, -0.223845f, -0.009021f, -0.328349f, -0.271449f, 0.167338f, -0.272776f, 0.305710f, -0.177300f, 0.158744f, -0.309528f, -0.070693f, -0.274351f, -0.040139f, 0.136007f, 0.145065f, -0.019393f, -0.128177f, 0.117612f, 0.173519f, 0.119455f, 0.003392f, -0.164024f, -0.133554f, 0.068296f, -0.073169f, -0.037214f, 0.115768f, -0.196210f, 0.166143f, 0.087320f, -0.149278f, 0.228385f, -0.073526f, -0.017913f, 0.200152f, -0.015171f, 0.133894f, 0.295637f, -0.022277f, 0.065048f, 0.167757f, 0.060021f, -0.054020f, -0.067623f, 0.200868f, 0.092013f, 0.048053f, 0.089038f, -0.069557f, 0.067809f, -0.005496f, 0.161840f, 0.038196f, -0.049690f, 0.019926f, 0.044936f, 0.061397f, 0.118886f, 0.239175f, -0.119294f, -0.082354f, 0.040367f, -0.081257f, 0.041422f, 0.276460f, -0.029279f, -0.121284f, 0.044684f, -0.032458f, -0.090849f, -0.193582f, 0.046871f, -0.104204f, -0.025871f, -0.102660f, -0.114859f, -0.045337f, 0.272287f, -0.090434f, 0.140970f, -0.094489f, -0.217513f, -0.147453f, 0.178584f, -0.034991f, -0.030377f, 0.099549f, -0.131965f, 0.223654f, -0.210219f, 0.062036f, -0.058231f, 0.218273f, -0.068338f, -0.183061f, 0.049063f, 0.115195f, 0.091302f, -0.229184f, -0.093865f, -0.047615f, -0.032421f, 0.055913f, -0.218024f, -0.160281f, -0.124582f, -0.085438f, -0.081904f, 0.064035f, 0.101508f, -0.043679f, 0.008029f, -0.065005f, 0.160425f, 0.096284f, -0.024175f, -0.062366f, 0.082808f, -0.269712f, -0.094685f, 0.098401f, 0.182161f, -0.056280f, -0.231490f, 0.234404f, -0.165339f, 0.014596f, -0.131642f, 0.210809f, -0.104810f, 0.101519f, -0.067952f, -0.248865f, -0.196236f, 0.083336f, -0.514297f, 0.055576f, -0.064634f, 0.159954f, -0.228777f, -0.259722f, -0.312462f, -0.086705f, -0.217170f, 0.012026f, -0.119361f, 0.010376f, -0.177083f, -0.060166f, -0.236074f, -0.164623f, -0.084382f, -0.226504f, 0.115918f, -0.035926f, 0.054106f, -0.111210f, 0.114103f, 0.021219f, -0.196618f, 0.087990f, 0.078176f, 0.015220f, -0.186267f, 0.084395f, -0.021573f, 0.112815f, 0.006779f, -0.252634f, -0.095946f, -0.106689f, -0.163190f, 0.116870f, 0.127221f, -0.281384f, -0.174468f, 0.109012f, -0.034738f, -0.091389f, -0.024064f, -0.154267f, -0.169096f, -0.217223f, 0.297051f, -0.380875f, -0.275174f, -0.222103f, -0.145032f, -0.054462f, -0.063916f, -0.286453f, -0.188979f, -0.244580f, -0.576008f, 0.032077f, -0.126497f, -0.152294f, 0.111163f, 0.020718f, -0.420695f, 0.025298f, 0.014498f, 0.211018f, 0.004238f, -0.448785f, -0.353867f, -0.593116f, -0.106120f, 0.114439f, 0.020870f, 0.036144f, -0.400008f, 0.106540f, -0.304666f, 0.059116f, 0.317390f, -0.725108f, 0.104685f, -0.173573f, 0.100810f, 0.042245f, -0.011782f, -0.459571f, -0.008517f, -0.798707f, -0.228468f, -0.037518f, 0.058751f, -0.087669f, -0.191375f, 0.191637f, 0.075999f, -0.077577f, 0.081866f, -0.254350f, -0.185529f, -0.048982f, 0.109744f, 0.050976f, 0.039617f, -0.025926f, -0.146621f, -0.436469f, -0.221092f, -0.099280f, -0.184081f, 0.120542f, -0.027579f, -0.174877f, -0.165219f, -0.254336f, 0.067350f, -0.128858f, -0.070426f, 0.138059f, -0.106869f, 0.164697f, 0.046674f, 0.215511f, 0.220250f, 0.068595f, -0.120161f, 0.128114f, -0.113455f, 0.130530f, -0.012961f, -0.072234f, -0.183988f, 0.211049f, -0.004622f, 0.084893f, 0.130667f, 0.194826f, 0.065413f, 0.149197f, 0.046557f, -0.158691f, -0.009157f, 0.003275f, 0.093108f, 0.265046f, 0.075066f, -0.069615f, 0.196129f, 0.123591f, 0.124970f, 0.249071f, 0.247323f, 0.025354f, 0.197451f, -0.126222f, -0.031263f, -0.252808f, 0.051984f, -0.033806f, 0.061777f, -0.078233f, 0.074301f, 0.211429f, 0.077620f, 0.256971f, 0.067419f, 0.041913f, 0.132684f, -0.090598f, 0.164585f, -0.108993f, -0.154332f, -0.143665f, -0.036828f, 0.055191f, -0.199411f, 0.203338f, 0.183411f, 0.063228f, -0.036635f, -0.193754f, -0.000770f, 0.233076f, 0.087363f, 0.156259f, -0.024146f, 0.014037f, 0.085704f, -0.126917f, 0.011018f, -0.089592f, 0.043672f, -0.296542f, -0.064942f, 0.036442f, 0.240965f, -0.087775f, -0.013260f, 0.228835f, -0.129104f, -0.226398f, 0.116936f, -0.087877f, 0.231014f, 0.152481f, -0.146900f, -0.145692f, 0.061896f, -0.040731f, 0.057725f, -0.001196f, 0.001517f, 0.022859f, 0.025340f, 0.106873f, 0.151451f, -0.032069f, 0.184772f, -0.025603f, -0.134588f, 0.156122f, -0.078420f, 0.181668f, -0.003368f, -0.187529f, 0.070538f, 0.192460f, 0.205700f, 0.089502f, -0.014973f, -0.124783f, 0.145476f, -0.027320f, 0.020917f, 0.181994f, 0.030088f, -0.111525f, 0.023627f, -0.141919f, -0.180449f, 0.104677f, -0.144333f, -0.083194f, -0.109687f, 0.203932f, -0.324361f, -0.039349f, -0.180682f, 0.270410f, 0.120375f, -0.077211f, 0.015531f, 0.113149f, -0.075339f, 0.012235f, -0.045690f, -0.025253f, 0.086137f, 0.102453f, 0.110370f, -0.000503f, 0.029600f, 0.051679f, -0.074032f, -0.092864f, -0.034251f, 0.049138f, -0.036869f, -0.245368f, -0.257869f, -0.123277f, 0.188119f, 0.028168f, -0.001922f, -0.029833f, -0.066488f, -0.270312f, -0.322209f, -0.272853f, -0.205743f, -0.174185f, -0.113801f, -0.039499f, -0.184935f, -0.083427f, -0.266971f, -0.312284f, -0.128390f, -0.273590f, 0.026509f, 0.047115f, -0.009281f, -0.216362f, -0.038890f, -0.352249f, -0.051882f, -0.108101f, -0.437982f, -0.390135f, -0.215696f, -0.508451f, -0.058276f, -0.025155f, -0.336616f, -0.180898f, -0.063663f, -0.135710f, -0.036785f, 0.290100f, -0.190551f, -0.688613f, 0.102034f, 0.293595f, -0.255344f, -0.136343f, -0.163022f, -0.200178f, -0.325382f, -0.446533f, -0.366177f, -0.130898f, -0.083986f, -0.264973f, -0.044148f, -0.200340f, -0.355390f, -0.228582f, -0.209279f, -0.329531f, -0.126846f, -0.146787f, -0.361384f, -0.334211f, -0.294871f, -0.296326f, -0.098303f, -0.262192f, -0.353225f, 0.053872f, 0.030748f, -0.269860f, -0.249595f, -0.436756f, -0.093903f, -0.486196f, -0.159070f, 0.032811f, -0.299492f, 0.005097f, -0.018270f, 0.034697f, 0.017461f, -0.172047f, -0.157163f, -0.300214f, 0.029013f, 0.042123f, 0.191366f, -0.175522f, -0.019381f, -0.085135f, 0.044995f, 0.088636f, 0.007002f, 0.158582f, -0.270126f, -0.030613f, -0.019434f, -0.034532f, 0.195892f, -0.237089f, 0.037416f, 0.114252f, -0.096288f, 0.187047f, -0.249917f, 0.216876f, -0.099268f, -0.084274f, 0.130102f, 0.126586f, 0.104762f, -0.271051f, -0.270857f, 0.044727f, -0.094066f, -0.102587f, 0.126400f, -0.049405f, 0.145693f, 0.015025f, -0.003802f, 0.162014f, 0.074197f, -0.188781f, 0.025637f, -0.021049f, 0.091615f, 0.319993f, 0.335510f, -0.353845f, 0.143522f, 0.144404f, -0.189101f, 0.022515f, 0.010382f, -0.034088f, 0.011375f, 0.043893f, -0.044325f, 0.148748f, 0.055621f, -0.056856f, -0.077343f, 0.188537f, -0.153034f, -0.128895f, 0.164966f, -0.231559f, -0.102797f, 0.278136f, -0.124498f, -0.151282f, 0.140474f, 0.023646f, 0.242714f, -0.091794f, 0.008039f, 0.055876f, -0.147269f, 0.079189f, -0.078285f, -0.584655f, 0.040553f, 0.058495f, 0.255732f, 0.014480f, -0.366453f, -0.080884f, -0.151399f, -0.139520f, 0.030820f, -0.148778f, 0.136198f, 0.147199f, -0.120052f, -0.081263f, -0.276348f, 0.088649f, -0.093854f, -0.065932f, 0.071715f, -0.083719f, 0.150080f, -0.027868f, 0.145599f, -0.206311f, 0.145207f, 0.066163f, -0.298892f, 0.003378f, 0.179572f, -0.177855f, -0.110512f, 0.159193f, 0.100208f, -0.014293f, -0.101963f, 0.097083f, -0.014312f, 0.024636f, -0.073332f, -0.024883f, 0.129037f, 0.050205f, -0.085093f, 0.269662f, 0.044249f, 0.163889f, -0.613947f, -0.087998f, -0.133052f, -0.080977f, 0.159877f, 0.073267f, -0.688658f, 0.122867f, 0.024866f, -0.077945f, 0.017375f, 0.067126f, -0.120154f, 0.197258f, 0.155043f, -0.036433f, 0.127512f, 0.139947f, 0.006065f, -0.361855f, 0.192359f, 0.258470f, -0.176358f, 0.193392f, 0.116121f, -0.055880f, -0.224675f, -0.038665f, 0.097087f, 0.000248f, 0.035690f, -0.162446f, -0.224188f, 0.078253f, -0.016397f, -0.090623f, 0.255750f, -0.289478f, 0.027324f, -0.275110f, -0.105546f, -0.006273f, -0.096379f, -0.238903f, -0.337929f, -0.088326f, -0.214504f, -0.320677f, 0.209384f, -0.170684f, 0.110990f, -0.053512f, -0.148481f, -0.263695f, 0.068373f, -0.022718f, -0.121147f, -0.125875f, -0.269162f, -0.285859f, 0.253280f, -0.240901f, 0.181552f, -0.229942f, -0.279704f, -0.115513f, 0.052569f, 0.197647f, -0.241894f, -0.073582f, -0.215235f, -0.061645f, -0.210891f, 0.021280f, -0.222653f, -0.107041f, -0.834506f, -0.083608f, 0.029808f, -0.106019f, 0.075952f, -0.200080f, -0.076762f, -0.118157f, -0.161692f, -0.341731f, -0.328888f, -0.206157f, 0.050939f, -0.686849f, -0.024601f, 0.036534f, -0.288769f, -0.224797f, -0.013776f, -0.079077f, 0.009248f, 0.039289f, -0.189597f, -0.079740f, 0.072951f, 0.129364f, -0.294356f, -0.295385f, 0.142525f, -0.296942f, 0.054516f, -0.292939f, 0.037961f, -0.232217f, -0.349318f, 0.200202f, 0.037586f, -0.316349f, 0.110023f, 0.057909f, -0.254054f, 0.034329f, -0.064695f, 0.107768f, 0.024117f, -0.176488f, -0.208354f, 0.118460f, 0.033577f, 0.105231f, 0.210939f, 0.178134f, -0.010535f, 0.015152f, 0.168146f, 0.066922f, -0.049018f, 0.110379f, -0.029743f, 0.119706f, 0.160466f, -0.078475f, -0.196124f, -0.130393f, -0.017739f, -0.011492f, -0.180973f, -0.178431f, 0.125917f, 0.176905f, 0.089125f, 0.114571f, -0.159776f, -0.641206f, 0.146479f, 0.263939f, -0.001926f, 0.082953f, 0.247149f, -0.157244f, -0.068377f, -0.085854f, 0.162387f, -0.012357f, 0.186815f, 0.252089f, -0.014950f, -0.044720f, -0.117629f, 0.138711f, 0.066043f, 0.056848f, 0.231523f, 0.145739f, 0.132189f, 0.150147f, 0.170462f, 0.028537f, 0.161501f, 0.212101f, -0.158903f, -0.213222f, 0.043984f, 0.199416f, 0.012885f, -0.129131f, -0.002709f, 0.078170f, 0.142962f, -0.086742f, 0.219083f, 0.218668f, 0.216008f, -0.071864f, -0.211474f, -0.208953f, -0.041718f, -0.002127f, 0.000674f, 0.136926f, 0.004373f, 0.264542f, -0.575348f, 0.236894f, 0.057475f, -0.208303f, -0.091870f, 0.167895f, -0.171011f, -0.126864f, -0.199787f, 0.135106f, -0.340287f, 0.168623f, 0.078139f, -0.206559f, -0.226672f, -0.202313f, 0.011752f, -0.025053f, -0.184472f, 0.127604f, 0.224339f, -0.061545f, -0.224065f, 0.206129f, -0.248142f, -0.034890f, 0.092441f, -0.171381f, 0.194698f, 0.062934f, -0.148470f, 0.054412f, 0.075398f, 0.036404f, 0.137923f, -0.167977f, 0.204955f, 0.091346f, 0.152138f, -0.011581f, 0.082719f, -0.032841f, -0.526866f, -0.114874f, 0.202404f, -0.105411f, 0.048166f, 0.188624f, -0.626210f, 0.143399f, 0.098026f, 0.057442f, -0.158679f, 0.306711f, -0.048590f, 0.177042f, 0.059555f, 0.172163f, 0.011135f, -0.105789f, -0.004296f, -0.134498f, 0.171449f, -0.096174f, 0.113442f, -0.100267f, 0.155524f, 0.153423f, -0.089843f, -0.013404f, -0.151578f, 0.109909f, -0.084663f, -0.225776f, -0.081260f, 0.074139f, 0.104333f, 0.052996f, -0.128403f, -0.097253f, -0.246748f, 0.211711f, 0.156328f, -0.145905f, -0.212959f, 0.097985f, -0.046248f, 0.155506f, 0.075621f, 0.006906f, 0.039179f, 0.018887f, 0.166875f, -0.120147f, 0.107504f, 0.072087f, -0.051857f, 0.114017f, 0.056557f, -0.093363f, 0.166608f, -0.004767f, 0.031614f, 0.184995f, -0.069502f, -0.224018f, 0.005908f, -0.085945f, 0.156698f, -0.226733f, -0.184097f, -0.011235f, 0.016009f, 0.184698f, -0.090075f, -0.068366f, 0.216674f, -0.206351f, 0.112324f, 0.195200f, 0.108254f, 0.172869f, -0.291717f, 0.089702f, 0.163058f, 0.165691f, -0.131163f, 0.025899f, -0.084769f, 0.196302f, -0.010819f, -0.098243f, -0.002145f, 0.268110f, -0.077370f, -0.191695f, -0.161844f, 0.110474f, 0.062139f, 0.007505f, -0.034503f, -0.211664f, 0.134072f, 0.132958f, -0.140160f, -0.064557f, 0.053035f, 0.060079f, -0.266912f, -0.009557f, -0.065926f, -0.003658f, 0.099099f, -0.118420f, 0.175272f, 0.006955f, -0.209799f, -0.159228f, -0.023918f, 0.132303f, -0.189436f, 0.022030f, -0.205758f, -0.017912f, -0.171173f, -0.173807f, 0.004151f, -0.044751f, 0.064955f, 0.053562f, 0.126748f, -0.066415f, -0.115894f, 0.076215f, -0.011661f, -0.204594f, -0.173172f, -0.060031f, 0.065788f, -0.079676f, 0.209762f, -0.029279f, -0.193432f, 0.091780f, -0.199086f, -0.231704f, -0.526597f, -0.503397f, 0.050335f, -0.084679f, 0.111805f, -0.114614f, -0.033802f, -0.359723f, 0.036357f, 0.151754f, -0.011615f, 0.115139f, 0.117725f, 0.093199f, -0.204568f, -0.099530f, 0.008115f, -0.068499f, -0.083012f, -0.106878f, -0.159564f, -0.039151f, -0.082384f, -0.131397f, -0.201519f, -0.029895f, 0.016001f, 0.012381f, -0.184922f, -0.404373f, -0.164428f, 0.075638f, -0.296388f, 0.195089f, 0.187325f, 0.089001f, -0.174630f, -0.015051f, 0.192748f, -0.442011f, -0.336884f, -0.091048f, 0.163754f, 0.177091f, 0.056310f, -0.044453f, -0.178954f, -0.223937f, -0.051222f, -0.365832f, -0.093857f, -0.248984f, -0.304081f, -0.117234f, 0.186321f, 0.118597f, 0.176534f, -0.004641f, -0.113550f, -0.001825f, -0.170056f, 0.022636f, -0.120208f, -0.034931f, 0.263801f, 0.207264f, -0.136495f, -0.214808f, -0.012468f, 0.080329f, 0.145806f, -0.084082f, -0.197368f, 0.146019f, -0.175364f, -0.153422f, -0.054020f, 0.117784f, 0.077055f, 0.095265f, 0.252610f, -0.130621f, 0.080391f, -0.199752f, -0.108829f, -0.819146f, 0.134612f, 0.003483f, -0.179179f, -0.037461f, -0.071693f, -0.227917f, -0.024123f, 0.038784f, 0.001006f, -0.120976f, 0.292314f, 0.085674f, 0.006058f, -0.160744f, -0.093198f, -0.012193f, 0.093172f, 0.133878f, 0.216178f, 0.054495f, 0.090093f, -0.085290f, 0.142251f, 0.168419f, 0.022525f, 0.047002f, 0.080240f, -0.145471f, 0.239300f, 0.076549f, -0.003963f, -0.051316f, 0.073195f, 0.109712f, -0.045730f, -0.029978f, -0.126459f, -0.102329f, -0.114647f, -0.212314f, 0.181950f, 0.064829f, -0.133178f, -0.376752f, -0.079648f, 0.060302f, 0.006988f, -0.113514f, -0.012297f, -0.207204f, 0.115298f, -0.131417f, -0.136919f, -0.116471f, 0.162963f, -0.166295f, -0.080666f, 0.157905f, 0.090953f, -0.231729f, 0.150412f, -0.108771f, 0.065351f, 0.054601f, -0.162575f, -0.218873f, -0.213954f, 0.132720f, -0.018595f, 0.161949f, -0.046266f, -0.101548f, -0.170708f, 0.018283f, 0.017680f, 0.127756f, -0.023079f, -0.175379f, 0.100693f, 0.017830f, -0.027361f, -0.017659f, 0.016150f, -0.094584f, 0.121694f, 0.139447f, -0.014489f, -0.112579f, 0.168620f, -0.141289f, -0.360263f, 0.054618f, 0.158169f, 0.102079f, -0.154733f, -0.135049f, 0.020977f, -0.158438f, 0.131269f, -0.101534f, 0.006790f, -0.031130f, 0.053233f, 0.148899f, -0.114765f, 0.189285f, 0.074765f, -0.142807f, -0.004254f, -0.131451f, -0.131191f, -0.054333f, -0.142943f, 0.120020f, -0.165445f, 0.070194f, -0.107093f, 0.147744f, -0.095619f, 0.026484f, -0.042796f, 0.138480f, -0.130550f, 0.101175f, -0.021692f, -0.115180f, 0.168046f, -0.055658f, -0.597372f, 0.046271f, 0.219504f, -0.181726f, 0.134899f, -0.000937f, -0.046720f, -0.205302f, -0.148061f, 0.045515f, -0.059553f, 0.155503f, 0.204706f, 0.054528f, -0.206153f, 0.040326f, -0.006775f, 0.104215f, 0.243480f, -0.000979f, 0.175646f, 0.097260f, -0.135959f, 0.153170f, 0.152133f, -0.027144f, 0.097332f, 0.032336f, -0.088255f, 0.004690f, 0.215630f, 0.257484f, 0.149827f, 0.030503f, 0.130370f, -0.369253f, 0.268203f, 0.082724f, -0.080212f, 0.105865f, 0.025544f, -0.002032f, -1.143932f, 0.232876f, -0.164372f, 0.173355f, 0.177260f, -0.055015f, -0.652885f, -0.027335f, -0.143493f, 0.159608f, 0.229210f, -0.148843f, 0.050698f, -0.160974f, 0.144950f, 0.034776f, 0.028486f, -0.120960f, 0.123985f, 0.178259f, -0.124582f, -0.007329f, -0.159605f, 0.226826f, -0.132193f, -0.126997f, 0.065345f, 0.291290f, 0.093970f, 0.131669f, 0.118555f, 0.199521f, -0.175082f, -0.067548f, 0.257077f, -0.243699f, 0.125430f, 0.029662f, 0.179721f, 0.146818f, 0.177761f, 0.068135f, -0.136618f, 0.013548f, 0.167455f, -0.230281f, 0.108198f, -0.026292f, 0.014662f, -0.047019f, 0.131341f, 0.141018f, 0.158990f, -0.158537f, 0.190060f, -0.178635f, -0.173198f, -0.080413f, -0.014046f, -0.045039f, -0.168937f, 0.052158f, -0.335050f, -0.018768f, 0.057173f, 0.082545f, 0.137012f, 0.248754f, 0.155302f, -0.188014f, -0.112271f, 0.054773f, -0.146544f, -0.045564f, 0.157462f, -0.080185f, 0.099165f, -0.139224f, 0.227606f, 0.070570f, 0.049865f, -0.101236f, 0.141657f, 0.087035f, -0.128258f, 0.173055f, 0.186324f, -0.095802f, 0.183443f, -0.034740f, 0.187509f, -0.078491f, -0.002642f, -0.043828f, -0.123545f, -0.146975f, -0.090476f, -0.083194f, 0.008565f, -0.265844f, 0.185955f, -0.098644f, 0.240485f, 0.025176f, 0.247700f, 0.268051f, -0.027620f, -0.100355f, 0.023287f, 0.063424f, -0.259434f, -0.264278f, -0.047752f, -0.174057f, -0.084674f, -0.081887f, 0.066329f, 0.130030f, -0.004858f, 0.189339f, -0.097573f, -0.050447f, 0.103263f, -0.046901f, 0.140214f, -0.177898f, -0.263855f, -0.124516f, -0.142276f, -0.130781f, -0.150501f, -0.376711f, -0.108562f, 0.076712f, -0.040229f, 0.179594f, -0.007098f, 0.049167f, -0.053359f, -0.014219f, 0.240629f, -0.224000f, 0.121246f, -0.027795f, -0.078569f, 0.076589f, 0.034120f, -0.157980f, -0.163983f, 0.339908f, 0.055500f, -0.340553f, -0.089029f, -0.159064f, -0.195955f, 0.002680f, -0.040947f, 0.000218f, 0.061458f, 0.157399f, -0.367190f, 0.256453f, -0.148824f, -0.144276f, 0.174093f, 0.049252f, -0.200591f, 0.212599f, -0.142236f, 0.075186f, -0.261510f, 0.197645f, 0.080121f, -0.310203f, 0.022513f, -0.073816f, 0.108286f, -0.059601f, -0.048620f, 0.056926f, -0.277975f, -0.202311f, -0.115445f, -0.275166f, -0.021624f, 0.088679f, -0.305575f, -0.230708f, 0.134926f, 0.041577f, 0.053785f, -0.060697f, -0.125052f, 0.020085f, -0.276408f, -0.107414f, -0.138290f, 0.059979f, 0.210777f, 0.013396f, -0.053075f, 0.180345f, 0.013922f, 0.153479f, 0.072400f, 0.107194f, 0.096298f, -0.082434f, -0.053969f, 0.086134f, 0.147421f, 0.210715f, -0.032157f, -0.173271f, -0.168257f, 0.125039f, 0.082036f, 0.198241f, 0.069689f, -0.041831f, 0.009925f, -0.100161f, 0.026296f, 0.053214f, -0.048353f, -0.061873f, 0.050773f, -0.091543f, 0.000806f, -0.166042f, 0.127302f, -0.088316f, 0.052503f, 0.222813f, 0.134792f, -0.129414f, 0.026639f, 0.065733f, 0.197890f, 0.054970f, 0.077874f, -0.129928f, 0.036734f, 0.081712f, -0.046541f, 0.203113f, 0.038716f, -0.235454f, 0.024240f, 0.012698f, 0.076979f, -0.075820f, -0.026395f, -0.140796f, 0.098955f, -0.100026f, -0.020869f, -0.060728f, -0.043045f, 0.029637f, 0.133426f, 0.192195f, -0.005897f, -0.046556f, 0.253329f, -0.012254f, -0.014505f, 0.072685f, 0.102346f, -0.146724f, 0.068775f, -0.194676f, 0.245542f, 0.135840f, 0.256328f, -0.313609f, 0.118671f };
static const float prediction_next_power_layer_2_biases[80] = { 0.030569f, -0.206233f, 0.162197f, -0.104788f, -0.040411f, 0.139832f, 0.057256f, 0.023050f, 0.102242f, 0.148996f, -0.105929f, 0.013154f, 0.092338f, -0.016979f, 0.077422f, 0.184525f, -0.009369f, 0.091083f, -0.017221f, 0.104148f, 0.009453f, -0.032879f, 0.141129f, -0.041766f, 0.197497f, 0.131571f, 0.157563f, 0.081000f, -0.039822f, 0.165223f, -0.009092f, 0.124816f, 0.148317f, 0.122245f, 0.119666f, -0.060304f, -0.022877f, 0.141084f, 0.166017f, 0.160242f, 0.125652f, -0.074810f, -0.188954f, 0.161109f, 0.124741f, 0.133523f, 0.116392f, -0.059085f, 0.040470f, 0.164575f, -0.005440f, 0.140513f, 0.239706f, 0.133709f, 0.122969f, 0.057822f, 0.157615f, 0.153160f, 0.051399f, 0.121496f, 0.158081f, -0.057814f, 0.142706f, 0.096353f, 0.148655f, -0.060540f, 0.083384f, 0.007590f, -0.058250f, -0.013801f, 0.158545f, 0.050054f, 0.057036f, 0.133780f, 0.103615f, 0.139446f, -0.036462f, -0.103362f, 0.005840f, -0.045781f };
static const float prediction_next_power_layer_2_weights[6400] = { -0.143579f, 0.148958f, 0.247142f, -0.191838f, 0.059617f, 0.106480f, -0.066990f, 0.014791f, -0.019485f, 0.170539f, -0.209993f, 0.023601f, -0.179938f, -0.219158f, 0.177200f, 0.199144f, 0.184304f, 0.043195f, -0.031319f, -0.173514f, 0.168153f, -0.102726f, 0.175872f, 0.026643f, -0.183183f, 0.205817f, -0.058657f, 0.113796f, 0.144890f, 0.068285f, -0.069850f, 0.102141f, 0.181876f, 0.095060f, 0.120602f, 0.075416f, 0.128586f, -0.112091f, 0.037244f, 0.189913f, -0.115131f, 0.155658f, 0.134907f, -0.132681f, 0.174177f, 0.214193f, -0.101155f, -0.106137f, 0.110255f, 0.071133f, 0.179048f, 0.071665f, -0.213808f, -0.047671f, 0.097709f, -0.159336f, 0.111307f, -0.093085f, -0.086741f, 0.081538f, -0.065050f, -0.081209f, -0.059237f, 0.014934f, -0.131815f, 0.137102f, -0.072601f, -0.203220f, 0.103696f, -0.141767f, -0.126259f, -0.238726f, 0.085704f, 0.080542f, 0.032337f, -0.130326f, -0.033310f, -0.080915f, 0.033427f, -0.130279f, 0.257500f, 0.087345f, 0.089233f, 0.024802f, -0.110814f, 0.125544f, 0.049785f, 0.096808f, -0.219684f, 0.118082f, 0.011628f, 0.341538f, 0.014212f, -0.234288f, -0.048602f, 0.404703f, 0.105269f, 0.152866f, -0.029208f, 0.053461f, -0.052690f, -0.145481f, 0.377174f, 0.120293f, -0.357589f, 0.016771f, 0.060565f, 0.315486f, 0.065800f, 0.083987f, -0.128168f, 0.048741f, 0.230874f, 0.147531f, 0.263560f, -0.089907f, 0.047258f, 0.213880f, 0.314303f, 0.055610f, 0.024819f, 0.115980f, -0.080017f, 0.180744f, 0.228442f, 0.381523f, 0.246535f, -0.117592f, -0.154903f, 0.060669f, -0.091183f, 0.015075f, 0.109150f, 0.384289f, 0.139879f, 0.150382f, 0.380860f, 0.162880f, 0.052776f, 0.006710f, 0.151390f, 0.080130f, 0.048233f, 0.176532f, 0.287594f, -0.108449f, 0.148791f, -0.219452f, -0.170116f, 0.329041f, 0.320192f, 0.110492f, 0.346227f, 0.276975f, 0.230305f, 0.385921f, 0.099651f, -0.197077f, 0.362855f, 0.014333f, 0.152853f, -0.149391f, 0.065863f, -0.045683f, -0.003390f, 0.092128f, -0.069091f, 0.270231f, 0.163096f, -0.136973f, 0.112803f, -0.109200f, 0.012970f, 0.059338f, 0.154648f, -0.080639f, -0.082305f, -0.162922f, -0.045261f, -0.117826f, 0.232748f, -0.163205f, 0.156081f, -0.027238f, 0.111809f, 0.057035f, 0.193004f, 0.115678f, -0.129022f, 0.156308f, 0.055001f, -0.122310f, -0.108860f, 0.035088f, -0.097986f, -0.015641f, -0.065383f, -0.095414f, 0.190932f, 0.033455f, -0.183397f, -0.086767f, 0.157984f, 0.059696f, 0.041528f, 0.157639f, -0.060605f, -0.043062f, -0.012968f, 0.213588f, 0.021075f, 0.107929f, -0.166724f, -0.104000f, -0.060030f, -0.099306f, -0.008582f, -0.060935f, 0.009806f, 0.026358f, 0.127706f, 0.132167f, 0.123317f, -0.051742f, 0.213043f, -0.088390f, 0.122304f, -0.004738f, -0.251266f, -0.188899f, 0.023348f, 0.056510f, -0.014244f, 0.017678f, 0.003656f, 0.184375f, 0.051372f, -0.048626f, -0.179720f, -0.058086f, -0.094834f, 0.041066f, -0.146569f, 0.142177f, -0.086384f, 0.120152f, -0.139974f, -0.311011f, 0.159162f, 0.105918f, -0.092205f, -0.052917f, -0.122513f, 0.025799f, 0.220862f, -0.012741f, 0.186424f, 0.056535f, 0.130941f, -0.110170f, -0.107367f, -0.140647f, -0.068082f, 0.064487f, -0.023341f, 0.130014f, -0.082877f, -0.054577f, -0.196777f, 0.047517f, -0.012465f, 0.124486f, -0.043416f, -0.045173f, -0.054115f, 0.035714f, -0.139550f, 0.174207f, 0.187589f, 0.143353f, 0.034005f, 0.161658f, 0.214869f, 0.050604f, 0.069397f, -0.099363f, -0.074266f, -0.015827f, -0.093868f, 0.219777f, -0.334579f, 0.197859f, 0.019901f, 0.136349f, -0.028792f, -0.119983f, -0.134817f, 0.191831f, 0.022825f, 0.063848f, 0.184264f, -0.060776f, -0.146758f, 0.137342f, -0.079925f, -0.171091f, 0.002085f, -0.168686f, 0.100188f, -0.074696f, 0.041161f, -0.139731f, -0.134669f, 0.177488f, 0.173184f, -0.046419f, 0.060011f, 0.293297f, 0.101023f, 0.092477f, -0.194887f, -0.021357f, 0.115436f, -0.062236f, 0.017476f, -0.221778f, 0.080685f, 0.187897f, 0.172434f, -0.036945f, -0.255242f, 0.054989f, 0.145757f, -0.208357f, 0.180893f, -0.050179f, -0.096179f, -0.076677f, -0.193396f, 0.158426f, 0.160668f, -0.121949f, -0.124867f, 0.075203f, -0.126754f, 0.062369f, 0.038808f, 0.058257f, -0.118266f, 0.045286f, -0.139295f, 0.080423f, -0.165702f, -0.132218f, 0.152928f, 0.040400f, 0.074921f, 0.025135f, -0.003812f, 0.035109f, 0.111960f, 0.267148f, -0.232610f, 0.101502f, 0.004980f, 0.102369f, -0.041565f, -0.146765f, 0.190441f, -0.160404f, 0.114715f, -0.054327f, -0.053042f, -0.102966f, 0.068565f, 0.137824f, -0.033977f, 0.134432f, -0.082274f, 0.082310f, 0.037188f, -0.151734f, 0.107494f, 0.100548f, -0.033713f, -0.051707f, -0.087678f, -0.124319f, 0.246385f, 0.114306f, -0.134657f, 0.042553f, 0.184006f, -0.166784f, -0.015968f, 0.077112f, -0.123324f, 0.036959f, -0.057221f, 0.080153f, -0.078699f, -0.077954f, 0.111720f, 0.116502f, 0.017636f, 0.048603f, -0.028372f, -0.122818f, -0.101432f, -0.177424f, -0.150780f, -0.035985f, -0.139081f, 0.188125f, 0.213555f, 0.012134f, 0.036707f, -0.031991f, -0.058359f, -0.042469f, 0.054425f, -0.188031f, 0.188381f, 0.113734f, 0.080163f, 0.132340f, 0.085909f, -0.067568f, -0.013400f, 0.119537f, -0.144750f, 0.031821f, 0.204143f, -0.121579f, 0.059671f, -0.162322f, 0.035467f, 0.064354f, 0.146883f, -0.032989f, -0.194917f, 0.205934f, 0.005714f, 0.111275f, 0.017760f, 0.121253f, 0.096159f, -0.115082f, -0.007589f, 0.044532f, 0.001392f, -0.154328f, 0.095870f, 0.153641f, 0.053767f, -0.037302f, 0.137393f, 0.160148f, 0.062527f, -0.038909f, 0.189978f, -0.171543f, -0.084169f, 0.176324f, 0.134267f, -0.170222f, 0.097082f, 0.120064f, 0.146975f, -0.137880f, -0.149799f, 0.114778f, -0.083612f, -0.104483f, -0.170052f, 0.126570f, -0.057672f, 0.082564f, 0.144254f, -0.115769f, 0.022706f, -0.125043f, 0.074732f, 0.029555f, -0.018095f, -0.008686f, 0.104008f, -0.165525f, 0.081100f, 0.183461f, -0.004169f, 0.157516f, -0.217174f, -0.144322f, 0.185782f, -0.018022f, -0.072846f, 0.133287f, 0.026487f, -0.143410f, 0.066177f, -0.215786f, 0.187165f, 0.099514f, 0.187476f, -0.133099f, 0.164763f, -0.072604f, 0.122056f, -0.111497f, -0.162221f, -0.018167f, 0.005787f, -0.097946f, -0.085140f, 0.129084f, 0.000564f, -0.110820f, 0.216260f, -0.048822f, -0.056694f, 0.069964f, -0.183225f, 0.211409f, 0.084140f, -0.092343f, 0.093153f, -0.115798f, -0.127242f, 0.076848f, -0.275870f, -0.016871f, -0.018317f, -0.128920f, 0.197655f, 0.019850f, 0.108620f, 0.112015f, 0.014436f, -0.054466f, -0.049043f, -0.051067f, 0.235387f, 0.034735f, -0.007691f, 0.103033f, -0.008372f, -0.076757f, -0.201326f, -0.111683f, -0.029127f, -0.016546f, 0.171846f, 0.033612f, 0.097256f, 0.190802f, -0.113496f, -0.082091f, 0.024277f, -0.180494f, -0.148972f, -0.010101f, -0.041830f, -0.216463f, -0.180208f, 0.130271f, -0.163998f, 0.120215f, -0.165878f, 0.006728f, -0.244036f, -0.128527f, 0.018465f, -0.119959f, -0.127782f, 0.194015f, -0.200470f, 0.089826f, -0.195166f, -0.136964f, 0.094298f, -0.147843f, -0.091254f, -0.193551f, -0.061906f, 0.107316f, -0.029712f, -0.144873f, -0.240159f, 0.128679f, -0.155805f, 0.211118f, 0.204186f, 0.058363f, 0.010508f, 0.053374f, -0.146472f, 0.132866f, 0.203761f, 0.135019f, 0.042805f, 0.196780f, -0.049719f, -0.120803f, 0.119702f, 0.099684f, 0.025630f, 0.153444f, -0.028913f, 0.081364f, -0.195987f, -0.018406f, 0.057868f, -0.000678f, 0.146595f, 0.150736f, -0.042795f, 0.123210f, 0.004193f, 0.138820f, 0.205085f, -0.183214f, 0.021587f, 0.045183f, 0.147419f, -0.181266f, 0.168239f, -0.086575f, -0.155950f, 0.055704f, 0.181812f, -0.059783f, -0.206149f, -0.058936f, 0.115726f, 0.065827f, -0.181396f, -0.031965f, -0.116722f, 0.085932f, -0.174990f, -0.045137f, -0.156370f, -0.053627f, 0.149882f, -0.043503f, 0.194951f, -0.132909f, 0.028069f, 0.039566f, 0.004032f, -0.155745f, -0.068237f, 0.005780f, 0.015644f, -0.098806f, -0.192526f, -0.132215f, -0.081548f, -0.137888f, -0.034894f, -0.163268f, -0.111851f, 0.012542f, -0.032844f, -0.008944f, 0.205373f, -0.073473f, -0.163871f, 0.162777f, 0.075392f, 0.162449f, 0.090180f, -0.122440f, 0.187507f, 0.003106f, 0.031646f, -0.037278f, 0.000381f, 0.108258f, 0.078834f, -0.166695f, -0.086730f, 0.068726f, -0.037424f, -0.009019f, 0.148850f, 0.165802f, 0.039637f, -0.159457f, -0.081598f, 0.025200f, 0.100421f, 0.133107f, 0.131119f, 0.098596f, 0.119892f, 0.206239f, 0.024297f, -0.147883f, -0.145861f, 0.182450f, 0.027892f, 0.158020f, -0.052805f, 0.024965f, 0.029503f, -0.150222f, -0.090659f, 0.156410f, -0.069836f, 0.059587f, 0.122517f, 0.004156f, 0.147223f, -0.027294f, -0.046259f, 0.149864f, 0.109616f, -0.170878f, 0.097592f, 0.026731f, -0.125825f, 0.052352f, -0.199789f, 0.113851f, -0.016730f, -0.206405f, -0.024026f, 0.069384f, 0.167677f, -0.025950f, -0.181092f, -0.039813f, -0.297295f, -0.105629f, -0.421699f, 0.111382f, 0.131498f, -0.064387f, -0.037942f, 0.158250f, 0.173625f, -0.417488f, 0.005799f, -0.167643f, -0.032558f, 0.076812f, -0.247675f, 0.220257f, -0.091963f, -0.103873f, 0.095604f, 0.088540f, 0.173479f, 0.010657f, 0.090773f, 0.000847f, 0.159552f, -0.107260f, 0.090550f, 0.000285f, 0.018872f, 0.086060f, -0.170693f, 0.191485f, -0.052341f, 0.285955f, -0.560615f, -0.060520f, 0.038043f, -0.035765f, 0.102006f, -0.000809f, 0.144933f, -0.203748f, 0.068353f, 0.028277f, -0.138852f, 0.162383f, -0.159011f, -0.250023f, 0.068353f, -0.131597f, 0.129437f, 0.074107f, -0.003298f, -0.200459f, -0.415477f, 0.163572f, 0.180512f, -0.117950f, -0.028900f, 0.184816f, -0.025833f, 0.061243f, -0.149891f, 0.020785f, -0.123847f, -0.088245f, -0.146840f, 0.121842f, -0.062596f, 0.157794f, -0.165604f, 0.163197f, -0.109231f, -0.170844f, -0.159250f, 0.132040f, 0.206666f, 0.036366f, -0.069345f, -0.108094f, -0.048656f, -0.035722f, -0.206503f, -0.180040f, -0.126059f, -0.118051f, -0.088146f, -0.040490f, 0.128506f, -0.087467f, 0.069156f, 0.230250f, -0.047697f, 0.083177f, -0.117808f, -0.010189f, 0.149566f, 0.218485f, -0.120201f, -0.109635f, -0.129899f, -0.191382f, -0.163490f, -0.020409f, -0.036607f, 0.143745f, 0.080117f, 0.070602f, -0.072984f, 0.105908f, 0.118629f, 0.147549f, -0.097639f, 0.101574f, -0.061545f, 0.148741f, -0.277169f, 0.206836f, -0.089455f, 0.112107f, -0.039303f, -0.177565f, -0.054921f, 0.198990f, -0.038474f, 0.102221f, 0.122597f, -0.104294f, 0.223344f, 0.193950f, 0.202537f, 0.102040f, -0.136404f, 0.134295f, 0.041387f, 0.014705f, 0.121770f, -0.146113f, -0.008354f, -0.109433f, -0.149213f, 0.066656f, 0.074654f, -0.093120f, 0.165290f, -0.142071f, -0.149030f, -0.102562f, 0.182758f, -0.118280f, 0.055394f, 0.145476f, -0.002069f, -0.408012f, -0.041167f, 0.117534f, -0.177605f, 0.141439f, 0.174904f, 0.008917f, -0.662296f, -0.016224f, -0.270319f, -0.023856f, -0.210570f, -0.162885f, -0.110096f, 0.072864f, 0.003957f, -0.366430f, -0.369742f, -0.012070f, -0.029807f, 0.130401f, 0.114592f, -0.177049f, -0.156867f, -0.026196f, -0.174318f, -0.144927f, -0.185235f, 0.081133f, 0.189088f, 0.051998f, -0.002305f, -0.114104f, -0.003468f, -0.038760f, -0.095565f, -0.138660f, -0.057455f, -0.164303f, -0.144024f, -0.177881f, -0.206381f, 0.157267f, -0.111645f, 0.170451f, -0.512508f, -0.041243f, 0.104183f, 0.097503f, 0.123759f, -0.192517f, -0.085046f, -0.188806f, 0.101277f, -0.066286f, 0.071126f, -0.099543f, 0.148971f, 0.085102f, 0.119462f, -0.218220f, -0.155655f, 0.054688f, -0.030241f, -0.028926f, -0.141544f, 0.005267f, -0.055126f, -0.075048f, 0.047344f, -0.032322f, -0.139477f, -0.063035f, -0.176689f, 0.138067f, 0.175490f, -0.128876f, -0.132100f, -0.003976f, 0.053822f, -0.018343f, 0.114299f, 0.237577f, -0.237584f, -0.068760f, 0.090014f, 0.013128f, 0.065830f, 0.176662f, 0.100935f, 0.005826f, -0.132286f, 0.211366f, 0.119598f, 0.074520f, 0.060942f, 0.011478f, 0.283884f, 0.226121f, 0.124239f, -0.132798f, 0.076780f, 0.159061f, -0.031838f, -0.119725f, -0.064404f, -0.011385f, 0.002098f, 0.085850f, 0.005043f, -0.063462f, 0.044965f, 0.112038f, 0.069421f, -0.063549f, 0.145711f, 0.027329f, -0.032352f, -0.100704f, 0.172970f, -0.041039f, -0.198952f, 0.225555f, 0.000248f, -0.132371f, -0.051440f, -0.107903f, 0.209572f, 0.043235f, -0.056497f, 0.199278f, 0.001778f, -0.091674f, 0.070583f, -0.069675f, 0.016198f, 0.190751f, -0.091053f, -0.170924f, -0.038102f, -0.165623f, 0.114234f, -0.025897f, -0.081739f, -0.066174f, 0.078449f, -0.121951f, 0.217607f, -0.005758f, -0.131833f, -0.145115f, 0.138393f, -0.082968f, -0.162882f, 0.074771f, 0.179334f, -0.078030f, -0.170576f, -0.034662f, 0.141964f, 0.210988f, 0.025293f, -0.123960f, 0.040569f, 0.068978f, -0.027967f, -0.163997f, 0.055872f, 0.265350f, 0.198523f, 0.120842f, 0.033403f, 0.025884f, -0.244736f, 0.108395f, -0.057797f, -0.186704f, 0.153710f, 0.237831f, 0.190995f, -0.063467f, -0.102176f, -0.004375f, 0.183827f, -0.034337f, 0.146288f, -0.138811f, 0.037956f, -0.028656f, 0.036012f, -0.005664f, 0.066966f, 0.104522f, 0.149118f, 0.119629f, 0.106101f, 0.164487f, 0.250027f, 0.180957f, -0.040230f, -0.235979f, -0.065112f, -0.089156f, 0.194146f, -0.087195f, 0.196213f, 0.053344f, -0.023279f, -0.076813f, 0.075651f, -0.044907f, 0.161942f, 0.196018f, 0.226317f, -0.142064f, 0.103309f, 0.188783f, 0.002978f, -0.021638f, 0.067492f, 0.015186f, 0.019775f, -0.144835f, 0.088290f, 0.109382f, -0.135115f, 0.116060f, -0.135225f, -0.123799f, -0.141679f, -0.159829f, 0.084945f, -0.191573f, -0.161533f, 0.038852f, -0.176396f, -0.138392f, 0.108372f, 0.053942f, 0.145438f, 0.380382f, 0.103122f, -0.160438f, -0.101267f, -0.200553f, -0.180735f, -0.012746f, 0.251006f, -0.054840f, 0.372821f, 0.010083f, -0.009952f, -0.179839f, 0.157844f, 0.061472f, 0.083196f, 0.236247f, 0.301691f, 0.129182f, -0.108836f, 0.092691f, -0.009590f, 0.041728f, -0.045926f, -0.036592f, 0.045731f, 0.032416f, -0.023218f, -0.163727f, -0.168287f, -0.156151f, 0.194017f, 0.106694f, 0.169941f, 0.025468f, -0.100830f, -0.035194f, 0.139521f, 0.129260f, 0.120215f, 0.044987f, 0.171305f, 0.114511f, -0.014995f, -0.072252f, 0.113301f, -0.072319f, 0.153737f, 0.076156f, -0.045787f, 0.018758f, 0.053277f, -0.199139f, -0.152065f, -0.005090f, 0.185409f, 0.113029f, 0.075568f, -0.037293f, 0.111428f, -0.053692f, 0.129106f, -0.077186f, 0.160553f, 0.126338f, -0.064588f, 0.039883f, -0.048446f, -0.099937f, 0.186978f, 0.159297f, -0.111894f, 0.133306f, 0.108032f, 0.177284f, 0.159332f, 0.014589f, -0.049163f, 0.163025f, 0.114651f, 0.167174f, 0.055875f, 0.191086f, 0.170888f, -0.137544f, -0.084403f, -0.093317f, 0.158469f, -0.001211f, 0.062585f, 0.062328f, 0.038144f, -0.112819f, -0.185142f, 0.068187f, -0.071525f, 0.065298f, -0.128630f, -0.031015f, -0.149286f, 0.022195f, -0.128957f, 0.145952f, 0.017382f, -0.033127f, 0.219360f, 0.167198f, -0.039015f, -0.147449f, -0.023539f, -0.062699f, 0.112698f, -0.110418f, -0.096201f, -0.148931f, -0.060712f, -0.040734f, 0.191422f, -0.065656f, -0.051196f, 0.088076f, 0.171200f, -0.158881f, -0.174822f, 0.108217f, 0.004095f, 0.113389f, -0.081112f, -0.130258f, -0.099410f, -0.114981f, 0.141434f, -0.034824f, -0.117095f, 0.055544f, -0.038212f, 0.015833f, 0.145739f, 0.058812f, -0.075925f, 0.166807f, -0.180134f, -0.094395f, -0.011201f, 0.177252f, -0.064242f, 0.088838f, -0.030279f, 0.026823f, -0.165092f, 0.072936f, 0.219691f, 0.045627f, 0.046187f, -0.087983f, -0.010456f, -0.116947f, 0.162671f, -0.069746f, -0.007866f, -0.005347f, 0.053801f, -0.052819f, 0.158508f, 0.018208f, -0.012933f, 0.000391f, 0.028484f, -0.154492f, -0.160080f, 0.045628f, -0.192353f, -0.162843f, 0.110109f, -0.140587f, 0.060112f, -0.187116f, 0.003989f, 0.115449f, 0.176525f, -0.155669f, -0.081765f, -0.103448f, 0.148851f, -0.027704f, 0.135652f, 0.065019f, -0.052159f, 0.153816f, -0.102970f, -0.101027f, 0.205387f, 0.061950f, -0.062803f, 0.135679f, 0.076564f, -0.169329f, 0.182133f, -0.086234f, 0.140083f, -0.117645f, 0.143406f, 0.044267f, -0.151126f, -0.059289f, -0.003172f, -0.054568f, -0.081047f, -0.165543f, -0.005059f, 0.086677f, -0.126093f, -0.123254f, 0.186013f, 0.157231f, -0.112989f, -0.065792f, 0.168795f, 0.021663f, 0.108777f, 0.100010f, -0.172401f, -0.124864f, 0.092695f, 0.167895f, -0.191321f, -0.095436f, -0.135684f, 0.135602f, 0.152731f, 0.015678f, -0.068727f, -0.050703f, 0.034197f, -0.007018f, 0.170946f, 0.094935f, -0.153194f, 0.139537f, -0.109616f, -0.046902f, -0.146885f, -0.050725f, -0.159364f, 0.000824f, 0.161981f, 0.177649f, 0.068626f, 0.011492f, 0.064508f, 0.136085f, 0.138658f, -0.088922f, 0.116325f, 0.066680f, 0.011087f, -0.032668f, 0.014933f, 0.199149f, -0.148286f, 0.089570f, 0.029088f, 0.131174f, -0.134835f, 0.064489f, 0.079327f, 0.171310f, -0.091994f, 0.166958f, -0.051991f, -0.004192f, 0.185948f, -0.033114f, 0.079711f, 0.085249f, -0.137624f, -0.116444f, -0.058408f, -0.000686f, 0.177129f, -0.087322f, -0.157280f, -0.026039f, -0.146093f, 0.120240f, -0.017772f, -0.040056f, 0.156165f, -0.029693f, 0.034111f, 0.045324f, -0.092112f, -0.075254f, 0.137370f, -0.149516f, 0.011239f, 0.130235f, 0.176681f, -0.114492f, 0.083087f, 0.102680f, -0.066405f, -0.022019f, 0.009054f, 0.008497f, -0.042288f, -0.115680f, -0.085183f, 0.190503f, 0.099568f, 0.078240f, -0.111243f, 0.018724f, 0.061507f, 0.165877f, 0.133916f, 0.138532f, 0.000103f, -0.045734f, 0.220390f, -0.378772f, 0.033711f, 0.000227f, -0.103596f, -0.139912f, -0.190293f, 0.180209f, -0.087842f, 0.045284f, -0.424515f, 0.196717f, 0.137512f, -0.059246f, -0.166913f, -0.177507f, 0.185454f, -0.251012f, -0.045580f, 0.238627f, 0.011605f, -0.119684f, 0.074201f, 0.104731f, -0.008006f, -0.147850f, -0.072990f, 0.145272f, 0.159109f, 0.209956f, 0.008880f, 0.029825f, 0.215326f, 0.156628f, -0.136411f, -0.096061f, 0.185069f, -0.089269f, 0.015463f, -0.043204f, -0.083210f, -0.160026f, -0.480174f, -0.027674f, -0.320089f, -0.005712f, 0.022800f, -0.119063f, 0.209261f, 0.001099f, -0.131186f, 0.022443f, -0.005110f, -0.145965f, -0.022452f, 0.119384f, 0.006122f, 0.092021f, -0.079861f, 0.019945f, 0.004236f, -0.168545f, -0.041297f, 0.083602f, 0.201198f, 0.107933f, 0.003665f, 0.147466f, 0.164833f, 0.001918f, -0.148853f, 0.063483f, -0.055078f, 0.025028f, 0.077988f, 0.067982f, -0.040053f, -0.169683f, -0.085940f, 0.207734f, -0.121115f, -0.192176f, -0.112227f, 0.066832f, -0.120720f, 0.039907f, 0.074514f, 0.006457f, -0.106034f, 0.224269f, 0.105963f, -0.055061f, 0.073938f, 0.006733f, -0.059373f, -0.030415f, 0.088728f, -0.140297f, 0.150303f, 0.056146f, 0.050542f, -0.070091f, -0.145367f, 0.189372f, 0.108496f, -0.045112f, -0.059067f, 0.226068f, 0.164144f, -0.026586f, -0.117238f, 0.166705f, 0.175744f, 0.097002f, -0.157666f, -0.118710f, -0.133879f, -0.059961f, 0.160162f, 0.018250f, -0.082002f, -0.040115f, -0.220058f, 0.052451f, -0.234491f, -0.160083f, 0.026650f, -0.005596f, 0.179444f, -0.023671f, 0.060469f, 0.069026f, 0.016001f, 0.128102f, -0.034984f, -0.118504f, 0.215307f, 0.177700f, 0.079453f, 0.150181f, 0.170113f, -0.110910f, -0.062292f, 0.032521f, -0.059307f, -0.162150f, 0.103990f, 0.036548f, -0.026031f, -0.154422f, 0.073123f, 0.021413f, 0.088269f, -0.151280f, -0.090270f, -0.016323f, 0.199591f, 0.021976f, 0.046387f, 0.184591f, -0.029535f, 0.036507f, 0.009401f, 0.221185f, 0.097008f, 0.195544f, -0.101665f, -0.168682f, 0.189313f, -0.038947f, -0.128499f, -0.084426f, 0.072882f, 0.093311f, -0.134801f, -0.133603f, -0.086172f, -0.228297f, -0.510920f, 0.040376f, 0.000733f, -0.065959f, 0.078694f, 0.201505f, -0.034969f, 0.118508f, 0.226070f, -0.103321f, 0.052728f, 0.123871f, -0.082726f, 0.030237f, -0.016082f, 0.083104f, -0.075972f, -0.104541f, 0.096311f, 0.180266f, 0.034427f, -0.050675f, 0.030529f, 0.000520f, -0.049195f, 0.186271f, 0.041356f, 0.111630f, -0.183506f, -0.120380f, 0.090246f, 0.055347f, -0.101387f, 0.034008f, 0.058403f, -0.005467f, 0.004762f, 0.106031f, 0.156380f, 0.097342f, 0.230760f, 0.089928f, 0.057777f, -0.124615f, -0.079589f, 0.069258f, 0.059798f, 0.019572f, 0.067864f, 0.175842f, 0.106523f, -0.055932f, 0.109746f, 0.048790f, -0.056867f, 0.032238f, -0.170005f, 0.196065f, 0.152556f, -0.038776f, -0.010257f, 0.027607f, 0.188741f, -0.427371f, 0.196047f, 0.229030f, -0.070310f, 0.014064f, -0.162913f, -0.218203f, -0.038272f, 0.019192f, -0.356747f, 0.165687f, -0.004432f, 0.179161f, -0.187926f, 0.102337f, -0.010438f, -0.203573f, 0.048019f, -0.026499f, 0.032331f, 0.084284f, -0.130700f, -0.109055f, 0.183233f, 0.162566f, 0.043196f, 0.160070f, 0.057118f, -0.124537f, -0.034781f, 0.106726f, 0.182252f, 0.063560f, -0.006568f, -0.064082f, -0.094434f, 0.089622f, -0.021862f, -0.096429f, 0.216610f, -0.154353f, -0.417078f, 0.159739f, -0.233472f, -0.124836f, -0.286014f, -0.053822f, -0.059518f, 0.057807f, 0.257053f, 0.138115f, 0.224462f, -0.118759f, 0.184968f, -0.153652f, -0.094946f, 0.028302f, 0.228335f, 0.143412f, -0.101125f, 0.028473f, -0.133172f, 0.145790f, 0.051107f, 0.065006f, 0.098256f, 0.144870f, 0.151795f, 0.154650f, -0.110081f, 0.014501f, 0.076589f, 0.167409f, -0.188647f, -0.063998f, -0.077956f, 0.074255f, 0.011271f, -0.093826f, -0.002727f, -0.090925f, 0.115174f, 0.071870f, 0.153222f, -0.135295f, -0.101846f, 0.178275f, -0.003256f, 0.068289f, 0.023992f, -0.087319f, -0.160845f, 0.098875f, 0.099564f, -0.197307f, -0.091623f, -0.051321f, -0.206534f, -0.102072f, 0.019260f, 0.161386f, 0.018312f, -0.110849f, 0.120184f, 0.001043f, -0.058817f, -0.003458f, 0.005544f, -0.155345f, 0.110950f, 0.197989f, 0.112296f, 0.138033f, 0.154235f, 0.162345f, 0.149854f, 0.031758f, 0.030409f, 0.139435f, -0.012645f, 0.084955f, -0.028562f, 0.186174f, -0.000412f, -0.142460f, -0.194112f, 0.029313f, 0.083264f, -0.113568f, -0.063021f, 0.039245f, -0.066202f, 0.169257f, 0.155991f, -0.171360f, -0.016100f, 0.149911f, -0.033109f, -0.112317f, -0.170298f, 0.001430f, -0.081218f, 0.087293f, -0.042865f, 0.023120f, 0.135329f, -0.189179f, 0.037366f, 0.201591f, 0.003274f, 0.012005f, 0.005640f, 0.102781f, 0.073967f, 0.249996f, 0.074740f, 0.097035f, -0.097488f, -0.193670f, -0.069995f, 0.085947f, 0.067302f, -0.100989f, -0.158805f, -0.261376f, -0.034497f, -0.140915f, 0.150352f, -0.160168f, 0.229912f, -0.318200f, -0.226894f, -0.014202f, 0.185735f, -0.120907f, -0.228016f, 0.246489f, 0.092502f, -0.141882f, 0.060624f, -0.316926f, -0.121402f, -0.090431f, -0.069861f, 0.012822f, -0.082759f, -0.090628f, 0.050851f, 0.182014f, 0.093587f, -0.059164f, -0.161246f, -0.016820f, -0.101123f, 0.173583f, 0.197822f, -0.125505f, 0.115892f, -0.114962f, 0.036602f, 0.006471f, 0.162334f, -0.062511f, -0.288887f, -0.100807f, 0.389141f, 0.098611f, -0.203217f, 0.119025f, -0.111697f, 0.041164f, -0.057906f, -0.266841f, -0.042686f, -0.134895f, -0.067877f, -0.026093f, 0.025252f, 0.102335f, -0.204039f, -0.222824f, 0.165306f, 0.105368f, 0.045488f, -0.004184f, -0.243627f, -0.065703f, -0.045066f, -0.101592f, 0.043255f, 0.189809f, 0.091845f, -0.009899f, -0.004940f, 0.016646f, -0.076172f, 0.112645f, -0.110623f, 0.159573f, 0.002142f, 0.012232f, 0.050353f, 0.215422f, -0.161688f, 0.092404f, 0.116525f, 0.160987f, 0.011994f, 0.106019f, -0.279778f, 0.069395f, 0.145564f, 0.112529f, -0.031654f, -0.038115f, 0.211407f, -0.071475f, -0.106445f, 0.089132f, 0.088602f, 0.110154f, 0.080208f, 0.028194f, -0.128459f, 0.019745f, 0.163977f, 0.058716f, -0.001089f, -0.060249f, 0.039055f, 0.188880f, 0.212657f, -0.064018f, -0.003124f, -0.206205f, 0.166338f, 0.114943f, 0.151352f, 0.152076f, 0.004273f, 0.133940f, -0.119669f, -0.100072f, 0.160760f, 0.163554f, -0.114244f, 0.236433f, 0.045024f, 0.001433f, -0.081911f, 0.172870f, -0.005543f, -0.069450f, 0.158841f, -0.144453f, -0.042025f, -0.095088f, -0.068237f, -0.064227f, -0.016561f, 0.049279f, -0.214370f, -0.127798f, 0.128644f, -0.117200f, 0.173653f, 0.151671f, -0.051236f, -0.009418f, -0.120881f, -0.006700f, -0.041250f, 0.085128f, -0.107134f, 0.136397f, -0.050492f, -0.372736f, -0.083569f, -0.123649f, -0.260898f, -0.259257f, 0.129567f, 0.018730f, -0.086835f, 0.036149f, -0.084401f, 0.082410f, 0.037890f, -0.267397f, 0.005305f, -0.359517f, -0.142023f, -0.032828f, 0.031939f, 0.027468f, -0.243344f, 0.209626f, -0.194899f, -0.023869f, -0.106077f, -0.436603f, -0.094513f, -0.122418f, -0.186021f, -0.163097f, -0.192212f, -0.306026f, -0.267524f, -0.320301f, 0.182918f, -0.183721f, 0.012034f, -0.000982f, -0.270457f, 0.125675f, 0.194324f, -0.060769f, -0.106434f, 0.011634f, 0.055236f, -0.020480f, 0.174001f, -0.160400f, -0.220565f, -0.078406f, -0.275576f, -0.244863f, -0.134262f, -0.127066f, -0.092244f, 0.033863f, -0.186247f, -0.123917f, 0.091533f, -0.113391f, -0.362976f, -0.103950f, 0.001062f, -0.075401f, -0.110556f, -0.229065f, 0.144350f, 0.142754f, -0.246213f, 0.017234f, -0.025680f, -0.278280f, -0.235782f, -0.123911f, -0.117267f, 0.222541f, 0.252995f, 0.017317f, -0.009973f, 0.090311f, 0.172788f, 0.008588f, -0.067149f, -0.153811f, 0.136242f, 0.161332f, 0.155023f, -0.120019f, 0.030591f, 0.105992f, -0.110370f, -0.147221f, 0.171668f, -0.110567f, 0.039357f, -0.080769f, -0.122221f, 0.015963f, 0.125756f, -0.200504f, 0.149560f, -0.056562f, -0.193632f, 0.067965f, 0.139868f, 0.089333f, -0.191872f, -0.058102f, 0.051568f, 0.169477f, 0.232858f, 0.200676f, -0.074971f, -0.225938f, -0.086348f, -0.113014f, 0.197316f, -0.054403f, 0.119007f, 0.183360f, 0.014865f, -0.133981f, 0.219146f, -0.130034f, -0.039471f, 0.159387f, 0.159436f, 0.187004f, 0.135754f, 0.229870f, -0.026953f, 0.071526f, 0.205514f, 0.079560f, 0.225860f, -0.018583f, -0.033808f, -0.045374f, 0.200612f, 0.051495f, -0.051372f, 0.196322f, -0.091127f, 0.000942f, 0.014886f, 0.047841f, -0.038926f, -0.027090f, -0.032264f, -0.006280f, -0.167501f, 0.192644f, 0.008794f, -0.113977f, 0.163118f, -0.181290f, 0.196240f, 0.082907f, 0.273833f, -0.011894f, 0.055862f, 0.056441f, 0.017209f, 0.202220f, 0.226002f, -0.157638f, 0.259638f, 0.088446f, 0.103260f, 0.081351f, -0.019678f, 0.111638f, -0.138988f, 0.277925f, -0.196836f, 0.270227f, 0.139989f, 0.039919f, -0.013316f, -0.102453f, 0.118562f, 0.093938f, -0.076583f, 0.038766f, 0.023243f, 0.073245f, 0.162225f, 0.255167f, 0.067151f, 0.102001f, 0.208803f, 0.249819f, 0.264863f, 0.168726f, 0.168705f, 0.292541f, 0.279419f, 0.281981f, 0.278789f, -0.184636f, -0.036897f, 0.307101f, 0.020491f, -0.010725f, 0.138131f, 0.047094f, 0.062831f, 0.047426f, 0.003375f, 0.224962f, 0.163969f, 0.366122f, 0.231087f, 0.161622f, 0.058401f, 0.291730f, 0.121423f, 0.141098f, 0.204208f, -0.013682f, 0.010744f, -0.010760f, 0.042512f, 0.098943f, 0.208410f, -0.183212f, 0.182408f, 0.341174f, 0.088721f, 0.277062f, 0.096571f, 0.166975f, 0.272418f, 0.207646f, 0.043924f, -0.165718f, 0.033475f, 0.171556f, 0.005128f, -0.100016f, 0.064098f, 0.045501f, 0.054850f, 0.038845f, -0.140794f, 0.036943f, 0.109237f, -0.105644f, 0.095988f, 0.074883f, 0.145241f, -0.057803f, -0.128533f, 0.055405f, 0.044946f, 0.028364f, 0.153222f, 0.221204f, 0.298208f, -0.102237f, -0.011664f, -0.204242f, -0.155310f, 0.119932f, 0.097349f, -0.100805f, -0.215507f, 0.073236f, -0.012145f, -0.042378f, 0.214279f, 0.024117f, 0.094058f, 0.074383f, -0.223481f, 0.032236f, -0.015142f, 0.156589f, -0.015196f, -0.150234f, 0.092017f, 0.228369f, 0.061388f, 0.189489f, -0.025756f, -0.112550f, -0.113837f, -0.004865f, 0.161415f, 0.082795f, 0.143950f, -0.045942f, -0.068509f, 0.041586f, -0.050013f, -0.006086f, -0.143018f, -0.115446f, 0.230998f, -0.107818f, 0.164811f, 0.076287f, -0.095286f, -0.079067f, 0.138172f, -0.146242f, -0.081634f, -0.069716f, 0.178131f, -0.102411f, -0.111665f, -0.090530f, 0.082931f, 0.052018f, -0.010367f, 0.081443f, 0.087710f, 0.023697f, 0.083567f, -0.090508f, -0.128299f, 0.133991f, -0.005927f, 0.044934f, 0.014989f, -0.016221f, -0.000553f, 0.128802f, 0.132485f, 0.102769f, -0.022069f, -0.104940f, 0.243908f, 0.156172f, -0.402389f, -0.079224f, -0.210572f, -0.161236f, 0.075942f, -0.087489f, -0.030893f, 0.009734f, -0.250886f, 0.064735f, 0.034820f, -0.182002f, 0.053670f, -0.141740f, -0.032032f, -0.023657f, 0.040842f, 0.035726f, 0.032004f, -0.173164f, -0.087566f, 0.150709f, 0.029023f, 0.174032f, 0.042920f, 0.098165f, -0.159874f, -0.061350f, 0.059607f, 0.097546f, -0.020376f, -0.136968f, -0.236520f, -0.002483f, 0.040943f, 0.165743f, -0.159610f, -0.121568f, -0.171907f, 0.147647f, 0.033392f, 0.029484f, 0.125576f, 0.071569f, 0.176826f, 0.045569f, 0.063027f, -0.126885f, 0.103861f, -0.201940f, -0.163295f, -0.060607f, -0.390295f, 0.031278f, 0.103321f, -0.064930f, 0.090466f, -0.010511f, 0.104312f, 0.103695f, -0.100527f, 0.055912f, -0.073457f, -0.128946f, 0.168891f, -0.038765f, -0.003883f, -0.169816f, 0.012553f, 0.039028f, 0.060345f, -0.349788f, -0.105735f, -0.141190f, 0.044471f, -0.057008f, -0.004969f, 0.147411f, -0.283951f, -0.139001f, -0.495913f, -0.078269f, -0.177878f, 0.026403f, 0.260550f, -0.052422f, 0.032869f, -0.359915f, -0.201288f, 0.021193f, -0.147007f, 0.120317f, 0.036867f, -0.058192f, 0.117932f, 0.129636f, -0.017209f, -0.199383f, 0.058212f, 0.178421f, 0.019224f, -0.038133f, -0.079489f, 0.065910f, 0.165557f, 0.158712f, 0.060702f, -0.122552f, 0.141861f, 0.056030f, -0.097617f, -0.027407f, -0.208586f, -0.107167f, -0.104683f, -0.122390f, -0.368075f, 0.135223f, 0.016072f, -0.031941f, 0.174250f, -0.111187f, 0.142362f, 0.179305f, 0.183870f, 0.103563f, -0.101654f, 0.122678f, 0.135424f, -0.328530f, -0.089077f, -0.222844f, -0.449504f, 0.153487f, 0.010194f, -0.076990f, -0.005598f, -0.117823f, -0.093193f, -0.087105f, 0.153846f, 0.224150f, -0.247303f, 0.090712f, -0.110448f, -0.142965f, 0.095122f, -0.197431f, -0.060974f, -0.079519f, 0.095464f, 0.150127f, -0.154289f, -0.117653f, -0.217916f, -0.191643f, -0.137307f, -0.099921f, -0.111204f, 0.185064f, -0.162424f, 0.133180f, -0.148907f, -0.165304f, 0.061206f, 0.076146f, -0.017320f, -0.431864f, -0.039050f, 0.078768f, -0.095133f, 0.083656f, -0.056335f, -0.101642f, -0.040950f, -0.088742f, 0.016470f, 0.110527f, -0.038566f, 0.155561f, 0.099233f, 0.054746f, -0.033305f, 0.014406f, 0.129108f, -0.048792f, 0.149741f, -0.085515f, 0.075595f, 0.094683f, -0.071777f, -0.117793f, 0.193864f, 0.081258f, -0.063226f, 0.188883f, -0.079331f, 0.103995f, -0.034064f, 0.080034f, -0.052560f, 0.144590f, -0.008457f, -0.144516f, -0.041126f, -0.215669f, 0.013909f, 0.155552f, -0.096142f, 0.057583f, 0.153604f, -0.134688f, 0.189890f, 0.106971f, 0.223917f, 0.054021f, 0.076074f, 0.198242f, -0.140240f, 0.179482f, -0.144724f, 0.108332f, -0.036306f, -0.047485f, -0.195815f, -0.109548f, -0.318425f, -0.113680f, 0.026953f, -0.128196f, -0.143351f, 0.281141f, -0.020647f, -0.051664f, -0.039073f, -0.271902f, -0.352254f, -0.007968f, -0.038762f, -0.269921f, 0.283176f, -0.494971f, -0.208591f, -0.447851f, 0.044371f, -0.193526f, -0.006309f, 0.218169f, -0.521830f, -0.088229f, -0.179580f, -0.469600f, -0.161743f, -0.013626f, -0.154076f, -0.022916f, -0.159385f, -0.287486f, -0.566666f, -0.447520f, -0.333444f, -0.141634f, -0.190780f, 0.028585f, -0.549756f, 0.187545f, 0.046271f, -0.232870f, -0.389931f, -0.128682f, -0.055965f, -0.169740f, 0.108863f, 0.083652f, 0.125173f, -0.349948f, -0.779822f, -0.557475f, -0.030231f, -0.447332f, -0.241160f, -0.126665f, -0.424557f, -0.036994f, -0.056813f, -0.177098f, -0.366138f, 0.023495f, -0.197023f, -0.083648f, -0.436601f, 0.066627f, 0.165759f, -0.222024f, -0.407750f, -0.252455f, -0.010995f, -0.501433f, -0.346520f, -0.107665f, -0.139316f, 0.195067f, 0.103842f, -0.125824f, -0.146288f, -0.179578f, -0.013676f, -0.141548f, -0.003355f, 0.210009f, -0.122340f, -0.325966f, -0.017307f, -0.004880f, -0.015991f, -0.070355f, 0.098624f, -0.016171f, 0.083975f, 0.246424f, -0.497158f, -0.084792f, 0.096218f, -0.080280f, -0.013353f, 0.136668f, -0.085967f, -0.462311f, -0.239630f, 0.071429f, 0.066610f, -0.121433f, 0.079202f, -0.032291f, 0.035685f, 0.112141f, -0.047064f, 0.049576f, 0.011528f, -0.145383f, -0.116407f, 0.067621f, 0.154436f, -0.012659f, 0.108769f, -0.151687f, -0.112975f, 0.036824f, -0.129307f, 0.028448f, 0.145251f, -0.081792f, -0.267593f, 0.002548f, 0.010768f, -0.039704f, -0.117575f, 0.234055f, 0.130295f, -0.060940f, -0.033821f, -0.064058f, -0.039476f, 0.156777f, -0.004930f, -0.066039f, -0.016627f, 0.063794f, -0.020782f, 0.141770f, 0.011133f, -0.017724f, -0.228859f, 0.169382f, 0.080848f, 0.184346f, 0.035285f, -0.085924f, 0.082183f, 0.006535f, 0.063107f, -0.028874f, 0.153574f, -0.098927f, 0.136468f, 0.006615f, 0.450715f, 0.272353f, 0.110649f, 0.186242f, 0.262654f, -0.026121f, 0.348216f, 0.285761f, 0.354344f, 0.344940f, 0.213929f, -0.035380f, -0.119068f, 0.419129f, 0.125753f, 0.469088f, 0.072101f, 0.346545f, -0.150996f, 0.049369f, 0.433488f, -0.093503f, 0.126348f, 0.391749f, 0.410664f, 0.155362f, -0.020907f, 0.181486f, -0.058546f, 0.328157f, 0.493758f, 0.456507f, 0.398911f, 0.042575f, 0.357068f, 0.433983f, 0.291998f, 0.298484f, 0.469777f, -0.226038f, -0.175665f, 0.305067f, 0.377344f, 0.223196f, 0.229675f, -0.131048f, 0.118145f, 0.382858f, -0.103663f, 0.275213f, 0.174940f, 0.346786f, 0.166340f, 0.338129f, 0.235647f, 0.309687f, 0.398206f, 0.342445f, 0.209848f, -0.072777f, 0.169966f, 0.330864f, 0.503278f, -0.190146f, 0.443488f, 0.100868f, -0.050546f, 0.237849f, 0.404262f, 0.499572f, 0.428118f, 0.395053f, 0.330996f, 0.437125f, 0.043023f, -0.312339f, 0.379463f, 0.048079f, -0.096114f, 0.028801f, 0.104057f, 0.072137f, -0.108661f, 0.011395f, -0.078810f, 0.020969f, -0.146948f, 0.142924f, 0.171500f, -0.047518f, -0.048163f, 0.176241f, 0.023713f, -0.089782f, -0.138111f, 0.087230f, -0.079578f, 0.153337f, 0.048479f, -0.168020f, 0.172242f, 0.000277f, 0.090545f, 0.063482f, -0.047767f, 0.005553f, 0.147116f, 0.217129f, -0.074050f, 0.146379f, -0.045681f, 0.014177f, 0.044188f, 0.164636f, -0.107929f, -0.110411f, -0.158571f, 0.123705f, -0.103498f, 0.183788f, 0.005709f, 0.210298f, 0.141666f, -0.012259f, -0.105586f, -0.056362f, -0.325837f, 0.113399f, -0.373853f, 0.071505f, 0.078668f, 0.111481f, 0.125511f, 0.000728f, 0.054307f, -0.051178f, 0.061467f, -0.101254f, 0.202886f, -0.188592f, 0.083410f, 0.001380f, 0.143640f, 0.151875f, 0.042833f, -0.087898f, 0.033090f, -0.145404f, 0.059576f, -0.031076f, -0.130184f, 0.134895f, -0.184558f, 0.050422f, -0.069427f, 0.013480f, -0.138426f, -0.177072f, 0.001939f, -0.055697f, 0.133192f, 0.000792f, -0.103606f, -0.091599f, -0.159873f, -0.239078f, -0.203655f, 0.165065f, -0.334640f, -0.118798f, -0.047604f, -0.364365f, -0.428967f, 0.195306f, -0.132072f, -0.147851f, -0.136213f, 0.204949f, -0.444168f, -0.118814f, 0.164711f, -0.015835f, 0.051315f, -0.133158f, 0.214375f, -0.145375f, -0.207336f, 0.246706f, -0.171948f, -0.112190f, 0.041169f, 0.073320f, 0.215172f, 0.218784f, -0.114701f, 0.185163f, 0.111330f, 0.048557f, 0.157748f, -0.152495f, -0.088890f, -0.065390f, 0.135961f, 0.083422f, 0.093164f, -0.025864f, -0.223082f, -0.124955f, 0.105457f, -0.026065f, 0.055855f, 0.027367f, -0.111035f, 0.031939f, 0.234780f, -0.064725f, -0.133150f, 0.034613f, -0.090059f, -0.058111f, 0.109167f, 0.011500f, 0.116165f, -0.095783f, 0.097722f, -0.066040f, 0.208992f, 0.064090f, -0.078605f, -0.089352f, 0.092294f, 0.240641f, -0.058031f, 0.052714f, -0.146828f, 0.022287f, -0.052311f, -0.066867f, 0.037860f, -0.100112f, -0.140616f, -0.179678f, 0.147602f, 0.103713f, -0.097301f, -0.316274f, 0.184530f, -0.026914f, 0.179427f, -0.091979f, -0.184328f, 0.136404f, 0.082826f, 0.145577f, -0.427117f, -0.099455f, 0.069566f, 0.197957f, 0.166318f, -0.148199f, 0.103573f, -0.237520f, -0.219153f, 0.115180f, -0.062775f, 0.090593f, 0.085687f, 0.087753f, -0.176541f, 0.034767f, 0.176557f, -0.072744f, 0.047759f, -0.132114f, -0.018624f, 0.133072f, 0.088230f, -0.073447f, -0.034482f, 0.004162f, 0.034057f, 0.175267f, -0.070189f, -0.021820f, 0.168092f, -0.055368f, -0.489889f, 0.140441f, -0.135979f, 0.058162f, -0.332185f, -0.017452f, 0.157252f, 0.039391f, 0.242293f, -0.060019f, -0.110119f, 0.163942f, -0.111069f, -0.119960f, 0.153313f, -0.161525f, 0.213124f, -0.088208f, -0.173666f, -0.174820f, -0.112847f, -0.213477f, -0.082345f, -0.128914f, -0.065173f, 0.107567f, 0.002800f, 0.202518f, -0.000763f, 0.217815f, 0.115228f, -0.099420f, -0.095576f, 0.133615f, 0.069165f, 0.077081f, 0.102423f, -0.110271f, -0.163281f, -0.109654f, -0.193454f, -0.068694f, 0.102102f, 0.008529f, -0.052008f, -0.163888f, -0.122007f, -0.143594f, -0.167827f, 0.094573f, -0.192070f, 0.117872f, -0.243093f, 0.175391f, 0.195377f, -0.254186f, -0.115101f, 0.018369f, 0.078594f, -0.079843f, -0.121752f, 0.179207f, 0.011830f, 0.039668f, -0.147893f, 0.108003f, -0.136187f, -0.034023f, -0.221191f, 0.054209f, -0.153611f, 0.102633f, -0.098542f, -0.004188f, -0.140534f, 0.042721f, 0.100369f, -0.146478f, -0.127046f, -0.173524f, -0.020966f, -0.081076f, -0.125783f, 0.095864f, -0.087257f, 0.166374f, -0.045752f, -0.192893f, 0.102844f, 0.179990f, -0.111233f, -0.142006f, -0.119595f, 0.161846f, 0.068741f, 0.062239f, 0.208574f, -0.099696f, 0.010104f, -0.008092f, -0.197190f, -0.261570f, 0.150257f, -0.210053f, -0.075308f, -0.000837f, 0.055956f, -0.171679f, -0.140246f, 0.102067f, -0.065001f, 0.032851f, -0.048631f, 0.175722f, -0.023309f, -0.066852f, -0.222833f, 0.146042f, 0.082104f, -0.055304f, 0.147065f, 0.105883f, 0.146608f, 0.008076f, 0.064004f, -0.149376f, 0.105564f, 0.163896f, -0.117446f, 0.014065f, -0.034715f, -0.018447f, -0.133676f, -0.170471f, 0.239261f, -0.329395f, -0.066800f, -0.058603f, 0.190784f, -0.154999f, 0.103306f, 0.119349f, -0.148659f, 0.020176f, 0.056455f, 0.257201f, -0.097922f, 0.035062f, 0.128506f, -0.011780f, -0.077259f, 0.208312f, 0.227304f, -0.014150f, -0.062790f, 0.129158f, 0.235224f, 0.124149f, 0.087725f, 0.090591f, -0.238373f, 0.051106f, 0.242555f, -0.035697f, -0.226382f, 0.225747f, 0.064514f, 0.123637f, 0.045092f, -0.054581f, 0.048115f, 0.018530f, -0.097035f, -0.005164f, 0.006539f, -0.044357f, 0.078189f, -0.026545f, 0.172774f, -0.164036f, -0.250703f, 0.112447f, -0.075683f, 0.218746f, -0.007986f, -0.016974f, -0.085235f, 0.075502f, 0.043386f, -0.041249f, 0.149606f, -0.149192f, -0.108380f, -0.019381f, 0.174961f, -0.183380f, 0.147113f, 0.124476f, 0.074809f, -0.080670f, -0.160028f, 0.040017f, -0.276904f, 0.058525f, 0.197036f, 0.066816f, -0.106614f, -0.001414f, 0.071040f, 0.070834f, 0.003373f, -0.050307f, -0.281553f, -0.038799f, -0.044777f, 0.030742f, -0.131648f, 0.196288f, -0.132439f, -0.176975f, 0.134145f, 0.157597f, -0.198665f, 0.096948f, 0.007450f, -0.004082f, -0.013584f, -0.080275f, -0.166101f, -0.003399f, -0.062853f, 0.234867f, -0.024460f, -0.172883f, 0.058016f, -0.096563f, 0.187341f, -0.057065f, 0.154769f, -0.224424f, -0.324229f, -0.132539f, -0.237460f, 0.125089f, -0.051444f, -0.165778f, 0.126774f, -0.223974f, -0.027119f, 0.103198f, -0.158749f, 0.107271f, -0.061339f, 0.036012f, -0.092945f, -0.131316f, 0.197341f, -0.001297f, 0.138649f, -0.023489f, 0.057273f, -0.231499f, 0.098182f, 0.085496f, -0.168568f, -0.023194f, -0.057152f, -0.102346f, -0.164733f, 0.204278f, -0.049597f, -0.051177f, 0.026810f, -0.001328f, 0.032734f, -0.038783f, 0.015785f, 0.192947f, 0.148709f, -0.258025f, 0.149697f, 0.113449f, -0.021800f, -0.060818f, -0.060533f, 0.058419f, -0.136596f, 0.040645f, -0.258551f, -0.107960f, -0.000092f, 0.210965f, 0.133101f, -0.127489f, 0.079124f, -0.377579f, 0.087806f, 0.212171f, 0.217177f, 0.043203f, 0.084049f, 0.176635f, -0.127975f, -0.048313f, 0.164585f, -0.026481f, 0.168345f, -0.004173f, -0.160468f, -0.004013f, 0.103530f, -0.103362f, 0.001249f, 0.031619f, 0.136216f, 0.200312f, -0.079163f, 0.079120f, 0.051166f, -0.125117f, -0.304321f, 0.132676f, -0.032944f, 0.187127f, -0.130605f, 0.179439f, -0.057910f, 0.170491f, 0.156508f, 0.107660f, 0.055966f, -0.051815f, -0.063240f, -0.175989f, 0.016175f, 0.087419f, -0.138147f, 0.050885f, 0.002178f, 0.067127f, -0.134075f, 0.173194f, 0.136517f, -0.008671f, 0.060058f, -0.121368f, 0.047847f, 0.043140f, 0.130796f, -0.081896f, 0.096188f, -0.190017f, 0.014728f, 0.017352f, -0.003079f, -0.073990f, 0.007787f, 0.209718f, 0.108022f, -0.046605f, 0.022712f, 0.218203f, 0.117658f, 0.203791f, 0.135509f, 0.137049f, 0.049912f, 0.087266f, 0.096080f, 0.187448f, 0.057182f, -0.114856f, 0.023328f, -0.156790f, 0.226559f, 0.048358f, 0.036564f, -0.036653f, 0.162390f, 0.062058f, -0.201497f, 0.261246f, 0.110626f, 0.155856f, 0.206847f, 0.057997f, 0.155092f, 0.235570f, -0.170708f, 0.221974f, -0.008001f, 0.148340f, -0.000466f, -0.258936f, 0.136918f, 0.180161f, -0.102962f, 0.200057f, 0.183338f, 0.083581f, 0.011529f, 0.024483f, -0.251113f, 0.099389f, -0.076544f, -0.123482f, -0.021323f, -0.136126f, -0.115601f, 0.046874f, -0.155471f, 0.163955f, 0.019300f, 0.004134f, 0.056066f, -0.098574f, 0.095296f, 0.021219f, 0.224298f, -0.037343f, 0.059808f, 0.115872f, -0.066851f, 0.100304f, -0.149618f, -0.001979f, 0.026550f, 0.020650f, 0.045627f, -0.113305f, -0.112552f, 0.076512f, 0.573281f, 0.019295f, 0.593265f, 0.110453f, -0.181304f, 0.254808f, 0.318017f, -0.062884f, 0.179646f, 0.253829f, -0.236102f, 0.274030f, 0.528082f, -0.185494f, 0.035273f, 0.430774f, -0.282717f, 0.334714f, 0.011377f, 0.348173f, -0.218085f, -0.048299f, 0.250406f, -0.026026f, -0.319075f, 0.328138f, 0.392564f, 0.292239f, -0.152134f, 0.489894f, -0.023479f, 0.465160f, 0.544368f, 0.516576f, 0.372960f, -0.325031f, 0.142191f, 0.253397f, 0.310104f, 0.336606f, 0.345088f, -0.136393f, -0.246661f, 0.458630f, 0.391178f, 0.518950f, 0.264010f, 0.206801f, 0.059896f, 0.517453f, 0.146552f, 0.366059f, 0.131703f, 0.259412f, 0.410418f, 0.542822f, 0.357793f, 0.469639f, 0.536086f, 0.212305f, 0.505761f, 0.115307f, 0.348385f, 0.201611f, 0.446850f, -0.173786f, 0.233169f, 0.093842f, 0.113765f, 0.563732f, 0.355354f, 0.415999f, 0.136857f, 0.372818f, 0.405710f, 0.560051f, -0.163055f, -0.372508f, 0.283373f, 0.147565f, 0.194126f, -0.096878f, 0.040439f, -0.203485f, 0.002741f, 0.078792f, -0.100870f, -0.319350f, -0.124883f, -0.031957f, 0.008492f, -0.142213f, 0.142855f, -0.244200f, -0.319921f, 0.280402f, -0.572396f, -0.114742f, -0.024865f, 0.062059f, -0.324347f, 0.097775f, 0.106726f, -0.235344f, -0.326115f, 0.064084f, 0.217378f, 0.063395f, 0.051400f, 0.016906f, 0.056238f, 0.086098f, 0.281085f, 0.136541f, -0.093172f, -0.014583f, 0.037287f, 0.197647f, 0.090914f, -0.073713f, 0.053718f, -0.052418f, -0.171883f, 0.056207f, -0.060066f, 0.238725f, 0.081340f, 0.063254f, -0.483230f, 0.036321f, -0.178454f, 0.097714f, -0.032851f, -0.068895f, 0.240463f, 0.035404f, 0.030706f, 0.000976f, -0.133862f, 0.239908f, 0.216624f, -0.054909f, -0.017626f, 0.231680f, 0.147212f, 0.061336f, 0.240586f, 0.041488f, -0.526686f, 0.076949f, -0.036614f, -0.014268f, 0.048135f, 0.076249f, -0.017641f, 0.250924f, -0.159359f, 0.095418f, 0.093919f, 0.061062f, -0.020588f, 0.080257f, 0.165521f, -0.040862f, -0.062043f, 0.135259f, 0.035431f, -0.066645f, -0.200645f, 0.003749f, -0.182629f, -0.107294f, -0.027844f, 0.167813f, -0.099660f, -0.023203f, -0.284528f, -0.044411f, -0.220379f, 0.155445f, 0.038484f, -0.115655f, 0.108268f, -0.297017f, -0.412950f, -0.035508f, 0.046992f, 0.158361f, -0.087356f, -0.030435f, -0.045785f, 0.045938f, -0.052453f, -0.172529f, 0.143440f, 0.093336f, -0.045140f, -0.132812f, 0.028645f, 0.007624f, -0.029757f, -0.104145f, 0.064882f, 0.010995f, -0.123891f, 0.146011f, 0.059725f, 0.060826f, -0.291767f, 0.163354f, -0.113434f, 0.020342f, -0.246811f, 0.127243f, -0.104631f, 0.030621f, 0.143545f, -0.143410f, 0.111583f, 0.127397f, -0.109250f, -0.110365f, -0.013591f, -0.172165f, -0.124765f, -0.084596f, 0.120765f, 0.054088f, -0.173151f, -0.028792f, 0.066361f, -0.070014f, -0.143102f, 0.035659f, 0.119283f, 0.012299f, -0.126550f, -0.061675f, 0.056302f, -0.124378f, 0.058697f, 0.111763f, 0.210966f, 0.084156f, 0.055362f, 0.056108f, -0.057735f, -0.162903f, -0.144553f, 0.064813f, 0.004845f, -0.187345f, -0.183822f, -0.076669f, -0.097970f, 0.118331f, -0.168240f, -0.099778f, 0.011779f, -0.117523f, -0.020958f, 0.058664f, 0.051957f, -0.427248f, -0.032889f, -0.100611f, 0.034155f, 0.118282f, 0.014759f, -0.091390f, 0.124221f, 0.086479f, 0.209424f, 0.002734f, 0.035986f, -0.124524f, 0.148267f, 0.149508f, 0.014733f, 0.094629f, 0.170998f, 0.171002f, -0.013579f, -0.034748f, -0.068713f, 0.106009f, -0.078239f, -0.121951f, -0.215949f, 0.216688f, -0.095561f, -0.053780f, -0.201766f, -0.103178f, 0.148412f, -0.090365f, 0.040410f, -0.006499f, -0.074940f, 0.035002f, -0.034009f, -0.020922f, -0.062671f, 0.179331f, 0.020486f, -0.228425f, 0.176425f, 0.180967f, -0.293193f, 0.156616f, 0.179060f, -0.178317f, -0.003975f, -0.167317f, 0.010013f, 0.060041f, -0.117953f, 0.240537f, 0.119793f, -0.002470f, -0.059140f, -0.058171f, -0.001273f, 0.004261f, 0.127157f, 0.146574f, -0.155121f, -0.125638f, -0.119723f, -0.113120f, 0.063983f, -0.176559f, -0.056128f, 0.055503f, -0.074115f, 0.092117f, -0.216357f, -0.162635f, -0.051087f, -0.154391f, -0.209934f, 0.027647f, 0.115673f, 0.066688f, 0.098843f, -0.041068f, -0.000449f, 0.035543f, -0.053575f, -0.108273f, -0.124022f, 0.118361f, -0.131723f, -0.138333f, 0.172369f, 0.019507f, 0.063219f, -0.017214f, 0.121915f, -0.039551f, -0.050092f, 0.052443f, -0.009061f, 0.072031f, 0.100968f, 0.046799f, 0.110861f, -0.010960f, -0.237055f, 0.212457f, 0.033529f, 0.083740f, 0.122858f, -0.043270f, 0.151298f, -0.148023f, 0.208847f, 0.056488f, -0.184953f, 0.126268f, -0.109211f, -0.122622f, 0.101505f, 0.013037f, -0.059414f, -0.132351f, 0.094211f, -0.193262f, -0.406665f, -0.023072f, -0.100927f, -0.184613f, -0.033599f, -0.050559f, -0.143620f, 0.075417f, -0.173374f, 0.281544f, 0.141385f, 0.036650f, 0.110267f, -0.179877f, -0.080944f, 0.010906f, -0.065376f, 0.123841f, -0.151400f, 0.010897f, 0.123414f, -0.126530f, -0.036692f, -0.085610f, -0.155697f, -0.173630f, 0.198384f, 0.142284f, -0.186634f, 0.065306f, 0.152124f, 0.145379f, 0.013251f, 0.030425f, 0.125276f, -0.000461f, -0.229641f, 0.136371f, 0.100341f, 0.083490f, 0.129427f, 0.200683f, 0.072372f, -0.124303f, 0.014313f, 0.083176f, 0.107126f, -0.152757f, 0.062538f, -0.030938f, -0.024742f, -0.066901f, 0.018831f, -0.065123f, -0.050900f, 0.080259f, 0.166139f, -0.036715f, 0.204855f, 0.106480f, -0.254418f, 0.076529f, -0.216711f, 0.099048f, -0.085615f, -0.040894f, -0.073712f, -0.054566f, 0.067788f, 0.144848f, -0.123983f, -0.048850f, 0.070097f, -0.013772f, 0.139666f, 0.169137f, 0.161295f, 0.024121f, -0.134503f, -0.014688f, -0.067325f, -0.087858f, 0.163629f, 0.171492f, -0.170601f, -0.030452f, 0.084396f, 0.017774f, -0.035702f, 0.109861f, -0.107203f, -0.175165f, 0.190357f, -0.280784f, 0.328299f, 0.222210f, 0.142021f, 0.332928f, -0.172050f, 0.104363f, -0.112867f, 0.306853f, -0.268427f, 0.454900f, 0.317291f, -0.046475f, 0.042549f, 0.156537f, -0.057260f, 0.239062f, 0.036537f, 0.252590f, -0.304122f, 0.000064f, 0.344517f, -0.175828f, 0.020902f, 0.329331f, 0.264339f, 0.258780f, -0.127676f, 0.213609f, -0.078935f, 0.485822f, 0.454036f, 0.233044f, 0.416753f, 0.052894f, 0.063289f, 0.170644f, 0.145066f, 0.207692f, 0.211756f, -0.106898f, 0.078024f, 0.504418f, 0.303235f, 0.254723f, 0.475732f, 0.043414f, -0.191395f, 0.458121f, -0.006678f, 0.194238f, -0.010775f, 0.315434f, 0.424717f, 0.149535f, 0.151594f, 0.448579f, 0.136652f, 0.152731f, 0.122000f, 0.076919f, 0.322033f, 0.156852f, 0.360776f, 0.051513f, 0.230836f, -0.078626f, 0.096335f, 0.448984f, 0.315794f, 0.166615f, 0.395357f, 0.266877f, 0.413099f, 0.323206f, 0.021793f, 0.038074f, 0.336955f, 0.058250f, 0.081702f, 0.019451f, 0.042205f, 0.018101f, -0.149298f, 0.169032f, -0.145156f, 0.149135f, 0.135497f, -0.077628f, 0.223531f, -0.046561f, -0.214188f, 0.044825f, 0.309513f, 0.264053f, -0.498082f, 0.019367f, 0.166199f, -0.090752f, -0.187094f, 0.121496f, -0.004469f, -0.357144f, -0.015448f, 0.255249f, 0.114248f, 0.017039f, 0.025920f, 0.133674f, -0.182106f, -0.010822f, -0.067653f, -0.093733f, -0.123995f, -0.094192f, 0.055819f, -0.114717f, 0.003726f, 0.245732f, 0.049029f, 0.126662f, 0.199847f, 0.058744f, -0.125574f, 0.049594f, 0.159167f, -0.212016f, -0.401044f, 0.039298f, -0.202814f, -0.075068f, -0.037913f, 0.095072f, 0.227562f, 0.170196f, 0.151210f, -0.085992f, 0.038429f, 0.197288f, -0.015304f, 0.112405f, 0.170773f, 0.154315f, 0.208203f, 0.039315f, 0.087578f, 0.053565f, -0.138149f, -0.003888f, 0.062215f, -0.165818f, -0.088930f, -0.126801f, 0.224422f, 0.227268f, 0.088626f, 0.129402f, 0.050519f, -0.157201f, 0.014525f, -0.095322f, 0.236557f, -0.068085f, -0.201127f, -0.057003f, 0.064842f, 0.087325f, -0.123298f, -0.019927f, 0.286124f, -0.031304f, -0.169005f, 0.047185f, -0.148271f, -0.024680f, -0.118298f, 0.180255f, 0.055850f, 0.205413f, 0.121158f, -0.147410f, 0.137779f, -0.177295f, -0.162211f, -0.035350f, -0.050661f, -0.062652f, -0.113896f, 0.106921f, -0.037253f, 0.095292f, 0.095633f, -0.102508f, -0.007482f, -0.028144f, 0.040908f, 0.102136f, 0.137329f, 0.006905f, -0.062340f, -0.099935f, -0.013246f, 0.070353f, 0.019767f, -0.136111f, -0.010008f, 0.106580f, 0.087275f, 0.158370f, -0.142751f, -0.047460f, -0.338440f, 0.144459f, 0.044651f, -0.132344f, 0.228932f, -0.098230f, -0.032914f, -0.047858f, -0.004048f, -0.002522f, -0.004689f, -0.057760f, 0.241212f, -0.067437f, -0.114452f, -0.140860f, 0.073450f, 0.040046f, 0.034819f, 0.155378f, 0.011674f, 0.020012f, -0.026823f, 0.189090f, 0.097748f, 0.033467f, -0.018841f, -0.023976f, 0.027401f, -0.001905f, 0.207367f, 0.048248f, -0.198246f, 0.129149f, 0.017147f, -0.042870f, 0.063559f, 0.273437f, 0.055639f, 0.245666f, -0.085470f, -0.043954f, -0.182579f, 0.133555f, -0.172447f, 0.189252f, -0.051924f, 0.125406f, -0.168722f, -0.034152f, 0.157667f, -0.481102f, -0.124069f, 0.113635f, 0.269474f, 0.144890f, -0.110049f, 0.205467f, -0.153359f, 0.021125f, 0.023381f, 0.165929f, 0.092811f, -0.188228f, -0.088198f, -0.036069f, 0.082286f, 0.136240f, 0.201566f, -0.060696f, -0.093881f, 0.257975f, 0.010172f, 0.145358f, 0.187469f, 0.180805f, -0.015557f, 0.285299f, 0.126290f, 0.011589f, -0.141574f, -0.048376f, 0.275672f, 0.235286f, -0.012241f, 0.175673f, 0.148385f, 0.060060f, 0.310856f, -0.005949f, 0.098860f, -0.067027f, 0.022949f, -0.137388f, -0.053642f, -0.084751f, -0.274529f, 0.165091f, 0.109751f, -0.018220f, -0.038711f, 0.114064f, 0.023011f, 0.113673f, 0.007309f, -0.085330f, 0.166398f, -0.038037f, 0.101647f, 0.132129f, -0.110647f, -0.180184f, 0.131559f, 0.108363f, -0.054396f, -0.113893f, -0.000303f, -0.014869f, -0.132055f, 0.031770f, 0.047835f, 0.003829f, -0.042689f, 0.167242f, 0.023967f, -0.105380f, -0.183932f, -0.101249f, -0.017463f, -0.150581f, 0.048936f, 0.046686f, -0.106361f, 0.001630f, -0.090453f, 0.148966f, -0.141550f, -0.044535f, -0.119345f, 0.149208f, -0.127445f, 0.008956f, 0.143885f, -0.040551f, 0.142225f, 0.027327f, 0.159892f, -0.041873f, -0.001896f, -0.075684f, -0.177954f, -0.038708f, 0.057840f, 0.069539f, 0.049010f, 0.026406f, 0.072006f, 0.204729f, -0.254439f, -0.124938f, -0.154155f, 0.192757f, -0.000446f, -0.168151f, 0.015826f, 0.044666f, -0.061876f, -0.020875f, 0.201455f, -0.222297f, -0.139619f, 0.099365f, 0.141795f, -0.140822f, -0.014067f, -0.195784f, -0.041132f, -0.175869f, -0.005149f, -0.137049f, -0.183091f, -0.146371f, -0.166841f, 0.094298f, 0.087466f, 0.245228f, -0.169223f, -0.101970f, -0.120750f, -0.069936f, 0.321359f, 0.017895f, -0.023970f, 0.104322f, 0.008226f, -0.178964f, 0.062577f, -0.008050f, 0.254689f, 0.086024f, -0.129920f, 0.074703f, -0.077118f, 0.216685f, 0.122610f, 0.127736f, -0.127533f, 0.352350f, 0.087676f, 0.146444f, 0.015240f, -0.062245f, 0.108939f, 0.081645f, 0.236294f, -0.048012f, -0.166816f, 0.070510f, 0.139756f, 0.216991f, 0.317156f, 0.266656f, 0.143042f, -0.077061f, 0.144982f, 0.222684f, 0.337581f, 0.242443f, 0.311314f, -0.072494f, -0.305220f, 0.073367f, 0.286119f, 0.171641f, 0.098267f, 0.198257f, 0.073814f, 0.135846f, -0.094192f, 0.003337f, 